<?xml version="1.0" encoding="UTF-8" standalone="yes"?>
<PMML xmlns="http://www.dmg.org/PMML-4_3" version="4.3">
	<Header>
		<Application name="JPMML-SkLearn" version="1.1.3"/>
		<Timestamp>2016-11-17T23:22:47Z</Timestamp>
	</Header>
	<DataDictionary>
		<DataField name="mean" optype="continuous" dataType="float"/>
		<DataField name="std" optype="continuous" dataType="float"/>
		<DataField name="mad" optype="continuous" dataType="float"/>
		<DataField name="rms" optype="continuous" dataType="float"/>
		<DataField name="range" optype="continuous" dataType="float"/>
		<DataField name="skew" optype="continuous" dataType="float"/>
		<DataField name="qua1" optype="continuous" dataType="float"/>
		<DataField name="fft3" optype="continuous" dataType="float"/>
		<DataField name="fft4" optype="continuous" dataType="float"/>
		<DataField name="fft5" optype="continuous" dataType="float"/>
		<DataField name="label" optype="categorical" dataType="integer">
			<Value value="0"/>
			<Value value="1"/>
		</DataField>
	</DataDictionary>
	<MiningModel functionName="classification">
		<MiningSchema>
			<MiningField name="label" usageType="target"/>
			<MiningField name="mean"/>
			<MiningField name="std"/>
			<MiningField name="mad"/>
			<MiningField name="rms"/>
			<MiningField name="range"/>
			<MiningField name="skew"/>
			<MiningField name="qua1"/>
			<MiningField name="fft3"/>
			<MiningField name="fft4"/>
			<MiningField name="fft5"/>
		</MiningSchema>
		<Output>
			<OutputField name="probability_0" optype="continuous" dataType="double" feature="probability" value="0"/>
			<OutputField name="probability_1" optype="continuous" dataType="double" feature="probability" value="1"/>
		</Output>
		<Segmentation multipleModelMethod="average">
			<Segment id="1">
				<True/>
				<TreeModel functionName="classification" splitCharacteristic="binarySplit">
					<MiningSchema>
						<MiningField name="mean"/>
						<MiningField name="std"/>
						<MiningField name="mad"/>
						<MiningField name="rms"/>
						<MiningField name="range"/>
						<MiningField name="skew"/>
						<MiningField name="qua1"/>
						<MiningField name="fft3"/>
						<MiningField name="fft4"/>
						<MiningField name="fft5"/>
					</MiningSchema>
					<Node id="1">
						<True/>
						<Node id="2">
							<SimplePredicate field="qua1" operator="lessOrEqual" value="1.748615"/>
							<Node id="3">
								<SimplePredicate field="fft5" operator="lessOrEqual" value="427.81525"/>
								<Node id="4" score="1" recordCount="5.0">
									<SimplePredicate field="mean" operator="lessOrEqual" value="-5.4159374"/>
									<ScoreDistribution value="0" recordCount="0.0"/>
									<ScoreDistribution value="1" recordCount="5.0"/>
								</Node>
								<Node id="5">
									<SimplePredicate field="mean" operator="greaterThan" value="-5.4159374"/>
									<Node id="6">
										<SimplePredicate field="qua1" operator="lessOrEqual" value="-6.6752834"/>
										<Node id="7" score="1" recordCount="2.0">
											<SimplePredicate field="mad" operator="lessOrEqual" value="2.9739685"/>
											<ScoreDistribution value="0" recordCount="0.0"/>
											<ScoreDistribution value="1" recordCount="2.0"/>
										</Node>
										<Node id="8" score="0" recordCount="1.0">
											<SimplePredicate field="mad" operator="greaterThan" value="2.9739685"/>
											<ScoreDistribution value="0" recordCount="1.0"/>
											<ScoreDistribution value="1" recordCount="0.0"/>
										</Node>
									</Node>
									<Node id="9">
										<SimplePredicate field="qua1" operator="greaterThan" value="-6.6752834"/>
										<Node id="10">
											<SimplePredicate field="fft3" operator="lessOrEqual" value="405.08777"/>
											<Node id="11">
												<SimplePredicate field="mean" operator="lessOrEqual" value="-5.0918984"/>
												<Node id="12" score="1" recordCount="6.0">
													<SimplePredicate field="fft3" operator="lessOrEqual" value="14.000937"/>
													<ScoreDistribution value="0" recordCount="0.0"/>
													<ScoreDistribution value="1" recordCount="6.0"/>
												</Node>
												<Node id="13" score="0" recordCount="16.0">
													<SimplePredicate field="fft3" operator="greaterThan" value="14.000937"/>
													<ScoreDistribution value="0" recordCount="16.0"/>
													<ScoreDistribution value="1" recordCount="0.0"/>
												</Node>
											</Node>
											<Node id="14" score="0" recordCount="245.0">
												<SimplePredicate field="mean" operator="greaterThan" value="-5.0918984"/>
												<ScoreDistribution value="0" recordCount="245.0"/>
												<ScoreDistribution value="1" recordCount="0.0"/>
											</Node>
										</Node>
										<Node id="15">
											<SimplePredicate field="fft3" operator="greaterThan" value="405.08777"/>
											<Node id="16" score="1" recordCount="2.0">
												<SimplePredicate field="fft3" operator="lessOrEqual" value="420.46655"/>
												<ScoreDistribution value="0" recordCount="0.0"/>
												<ScoreDistribution value="1" recordCount="2.0"/>
											</Node>
											<Node id="17">
												<SimplePredicate field="fft3" operator="greaterThan" value="420.46655"/>
												<Node id="18" score="0" recordCount="17.0">
													<SimplePredicate field="qua1" operator="lessOrEqual" value="-1.8930653"/>
													<ScoreDistribution value="0" recordCount="17.0"/>
													<ScoreDistribution value="1" recordCount="0.0"/>
												</Node>
												<Node id="19">
													<SimplePredicate field="qua1" operator="greaterThan" value="-1.8930653"/>
													<Node id="20" score="1" recordCount="2.0">
														<SimplePredicate field="mean" operator="lessOrEqual" value="1.5645875"/>
														<ScoreDistribution value="0" recordCount="0.0"/>
														<ScoreDistribution value="1" recordCount="2.0"/>
													</Node>
													<Node id="21" score="0" recordCount="5.0">
														<SimplePredicate field="mean" operator="greaterThan" value="1.5645875"/>
														<ScoreDistribution value="0" recordCount="5.0"/>
														<ScoreDistribution value="1" recordCount="0.0"/>
													</Node>
												</Node>
											</Node>
										</Node>
									</Node>
								</Node>
							</Node>
							<Node id="22">
								<SimplePredicate field="fft5" operator="greaterThan" value="427.81525"/>
								<Node id="23" score="0" recordCount="4.0">
									<SimplePredicate field="fft4" operator="lessOrEqual" value="317.62994"/>
									<ScoreDistribution value="0" recordCount="4.0"/>
									<ScoreDistribution value="1" recordCount="0.0"/>
								</Node>
								<Node id="24">
									<SimplePredicate field="fft4" operator="greaterThan" value="317.62994"/>
									<Node id="25">
										<SimplePredicate field="mad" operator="lessOrEqual" value="2.6090856"/>
										<Node id="26" score="1" recordCount="1.0">
											<SimplePredicate field="qua1" operator="lessOrEqual" value="-5.968196"/>
											<ScoreDistribution value="0" recordCount="0.0"/>
											<ScoreDistribution value="1" recordCount="1.0"/>
										</Node>
										<Node id="27" score="0" recordCount="1.0">
											<SimplePredicate field="qua1" operator="greaterThan" value="-5.968196"/>
											<ScoreDistribution value="0" recordCount="1.0"/>
											<ScoreDistribution value="1" recordCount="0.0"/>
										</Node>
									</Node>
									<Node id="28" score="1" recordCount="12.0">
										<SimplePredicate field="mad" operator="greaterThan" value="2.6090856"/>
										<ScoreDistribution value="0" recordCount="0.0"/>
										<ScoreDistribution value="1" recordCount="12.0"/>
									</Node>
								</Node>
							</Node>
						</Node>
						<Node id="29">
							<SimplePredicate field="qua1" operator="greaterThan" value="1.748615"/>
							<Node id="30">
								<SimplePredicate field="range" operator="lessOrEqual" value="3.2864408"/>
								<Node id="31">
									<SimplePredicate field="qua1" operator="lessOrEqual" value="4.2043676"/>
									<Node id="32">
										<SimplePredicate field="std" operator="lessOrEqual" value="0.4926486"/>
										<Node id="33" score="1" recordCount="3.0">
											<SimplePredicate field="fft5" operator="lessOrEqual" value="0.010361565"/>
											<ScoreDistribution value="0" recordCount="0.0"/>
											<ScoreDistribution value="1" recordCount="3.0"/>
										</Node>
										<Node id="34">
											<SimplePredicate field="fft5" operator="greaterThan" value="0.010361565"/>
											<Node id="35" score="0" recordCount="23.0">
												<SimplePredicate field="mean" operator="lessOrEqual" value="3.6404335"/>
												<ScoreDistribution value="0" recordCount="23.0"/>
												<ScoreDistribution value="1" recordCount="0.0"/>
											</Node>
											<Node id="36">
												<SimplePredicate field="mean" operator="greaterThan" value="3.6404335"/>
												<Node id="37" score="1" recordCount="5.0">
													<SimplePredicate field="rms" operator="lessOrEqual" value="3.939434"/>
													<ScoreDistribution value="0" recordCount="0.0"/>
													<ScoreDistribution value="1" recordCount="5.0"/>
												</Node>
												<Node id="38" score="0" recordCount="18.0">
													<SimplePredicate field="rms" operator="greaterThan" value="3.939434"/>
													<ScoreDistribution value="0" recordCount="18.0"/>
													<ScoreDistribution value="1" recordCount="0.0"/>
												</Node>
											</Node>
										</Node>
									</Node>
									<Node id="39">
										<SimplePredicate field="std" operator="greaterThan" value="0.4926486"/>
										<Node id="40">
											<SimplePredicate field="std" operator="lessOrEqual" value="0.7238331"/>
											<Node id="41">
												<SimplePredicate field="rms" operator="lessOrEqual" value="4.2201085"/>
												<Node id="42" score="0" recordCount="1.0">
													<SimplePredicate field="rms" operator="lessOrEqual" value="3.715639"/>
													<ScoreDistribution value="0" recordCount="1.0"/>
													<ScoreDistribution value="1" recordCount="0.0"/>
												</Node>
												<Node id="43" score="1" recordCount="15.0">
													<SimplePredicate field="rms" operator="greaterThan" value="3.715639"/>
													<ScoreDistribution value="0" recordCount="0.0"/>
													<ScoreDistribution value="1" recordCount="15.0"/>
												</Node>
											</Node>
											<Node id="44" score="0" recordCount="6.0">
												<SimplePredicate field="rms" operator="greaterThan" value="4.2201085"/>
												<ScoreDistribution value="0" recordCount="6.0"/>
												<ScoreDistribution value="1" recordCount="0.0"/>
											</Node>
										</Node>
										<Node id="45" score="0" recordCount="7.0">
											<SimplePredicate field="std" operator="greaterThan" value="0.7238331"/>
											<ScoreDistribution value="0" recordCount="7.0"/>
											<ScoreDistribution value="1" recordCount="0.0"/>
										</Node>
									</Node>
								</Node>
								<Node id="46">
									<SimplePredicate field="qua1" operator="greaterThan" value="4.2043676"/>
									<Node id="47">
										<SimplePredicate field="fft5" operator="lessOrEqual" value="3.7971165"/>
										<Node id="48" score="0" recordCount="1.0">
											<SimplePredicate field="range" operator="lessOrEqual" value="0.6276798"/>
											<ScoreDistribution value="0" recordCount="1.0"/>
											<ScoreDistribution value="1" recordCount="0.0"/>
										</Node>
										<Node id="49" score="1" recordCount="23.0">
											<SimplePredicate field="range" operator="greaterThan" value="0.6276798"/>
											<ScoreDistribution value="0" recordCount="0.0"/>
											<ScoreDistribution value="1" recordCount="23.0"/>
										</Node>
									</Node>
									<Node id="50">
										<SimplePredicate field="fft5" operator="greaterThan" value="3.7971165"/>
										<Node id="51" score="1" recordCount="1.0">
											<SimplePredicate field="mean" operator="lessOrEqual" value="4.845467"/>
											<ScoreDistribution value="0" recordCount="0.0"/>
											<ScoreDistribution value="1" recordCount="1.0"/>
										</Node>
										<Node id="52" score="0" recordCount="4.0">
											<SimplePredicate field="mean" operator="greaterThan" value="4.845467"/>
											<ScoreDistribution value="0" recordCount="4.0"/>
											<ScoreDistribution value="1" recordCount="0.0"/>
										</Node>
									</Node>
								</Node>
							</Node>
							<Node id="53">
								<SimplePredicate field="range" operator="greaterThan" value="3.2864408"/>
								<Node id="54">
									<SimplePredicate field="fft4" operator="lessOrEqual" value="124.48712"/>
									<Node id="55">
										<SimplePredicate field="qua1" operator="lessOrEqual" value="2.48174"/>
										<Node id="56" score="1" recordCount="3.0">
											<SimplePredicate field="range" operator="lessOrEqual" value="5.6642823"/>
											<ScoreDistribution value="0" recordCount="0.0"/>
											<ScoreDistribution value="1" recordCount="3.0"/>
										</Node>
										<Node id="57">
											<SimplePredicate field="range" operator="greaterThan" value="5.6642823"/>
											<Node id="58" score="0" recordCount="7.0">
												<SimplePredicate field="fft3" operator="lessOrEqual" value="356.26547"/>
												<ScoreDistribution value="0" recordCount="7.0"/>
												<ScoreDistribution value="1" recordCount="0.0"/>
											</Node>
											<Node id="59" score="1" recordCount="2.0">
												<SimplePredicate field="fft3" operator="greaterThan" value="356.26547"/>
												<ScoreDistribution value="0" recordCount="0.0"/>
												<ScoreDistribution value="1" recordCount="2.0"/>
											</Node>
										</Node>
									</Node>
									<Node id="60">
										<SimplePredicate field="qua1" operator="greaterThan" value="2.48174"/>
										<Node id="61">
											<SimplePredicate field="std" operator="lessOrEqual" value="0.82554334"/>
											<Node id="62">
												<SimplePredicate field="skew" operator="lessOrEqual" value="0.5279705"/>
												<Node id="63">
													<SimplePredicate field="fft3" operator="lessOrEqual" value="31.12855"/>
													<Node id="64" score="1" recordCount="12.0">
														<SimplePredicate field="fft5" operator="lessOrEqual" value="43.644493"/>
														<ScoreDistribution value="0" recordCount="0.0"/>
														<ScoreDistribution value="1" recordCount="12.0"/>
													</Node>
													<Node id="65">
														<SimplePredicate field="fft5" operator="greaterThan" value="43.644493"/>
														<Node id="66" score="1" recordCount="1.0">
															<SimplePredicate field="fft3" operator="lessOrEqual" value="7.611352"/>
															<ScoreDistribution value="0" recordCount="0.0"/>
															<ScoreDistribution value="1" recordCount="1.0"/>
														</Node>
														<Node id="67" score="0" recordCount="1.0">
															<SimplePredicate field="fft3" operator="greaterThan" value="7.611352"/>
															<ScoreDistribution value="0" recordCount="1.0"/>
															<ScoreDistribution value="1" recordCount="0.0"/>
														</Node>
													</Node>
												</Node>
												<Node id="68" score="0" recordCount="2.0">
													<SimplePredicate field="fft3" operator="greaterThan" value="31.12855"/>
													<ScoreDistribution value="0" recordCount="2.0"/>
													<ScoreDistribution value="1" recordCount="0.0"/>
												</Node>
											</Node>
											<Node id="69" score="0" recordCount="3.0">
												<SimplePredicate field="skew" operator="greaterThan" value="0.5279705"/>
												<ScoreDistribution value="0" recordCount="3.0"/>
												<ScoreDistribution value="1" recordCount="0.0"/>
											</Node>
										</Node>
										<Node id="70">
											<SimplePredicate field="std" operator="greaterThan" value="0.82554334"/>
											<Node id="71">
												<SimplePredicate field="fft3" operator="lessOrEqual" value="12.503616"/>
												<Node id="72" score="1" recordCount="18.0">
													<SimplePredicate field="fft3" operator="lessOrEqual" value="11.085817"/>
													<ScoreDistribution value="0" recordCount="0.0"/>
													<ScoreDistribution value="1" recordCount="18.0"/>
												</Node>
												<Node id="73" score="0" recordCount="1.0">
													<SimplePredicate field="fft3" operator="greaterThan" value="11.085817"/>
													<ScoreDistribution value="0" recordCount="1.0"/>
													<ScoreDistribution value="1" recordCount="0.0"/>
												</Node>
											</Node>
											<Node id="74" score="1" recordCount="80.0">
												<SimplePredicate field="fft3" operator="greaterThan" value="12.503616"/>
												<ScoreDistribution value="0" recordCount="0.0"/>
												<ScoreDistribution value="1" recordCount="80.0"/>
											</Node>
										</Node>
									</Node>
								</Node>
								<Node id="75">
									<SimplePredicate field="fft4" operator="greaterThan" value="124.48712"/>
									<Node id="76">
										<SimplePredicate field="rms" operator="lessOrEqual" value="5.241089"/>
										<Node id="77">
											<SimplePredicate field="qua1" operator="lessOrEqual" value="4.396203"/>
											<Node id="78" score="0" recordCount="15.0">
												<SimplePredicate field="range" operator="lessOrEqual" value="13.611435"/>
												<ScoreDistribution value="0" recordCount="15.0"/>
												<ScoreDistribution value="1" recordCount="0.0"/>
											</Node>
											<Node id="79" score="1" recordCount="2.0">
												<SimplePredicate field="range" operator="greaterThan" value="13.611435"/>
												<ScoreDistribution value="0" recordCount="0.0"/>
												<ScoreDistribution value="1" recordCount="2.0"/>
											</Node>
										</Node>
										<Node id="80" score="1" recordCount="2.0">
											<SimplePredicate field="qua1" operator="greaterThan" value="4.396203"/>
											<ScoreDistribution value="0" recordCount="0.0"/>
											<ScoreDistribution value="1" recordCount="2.0"/>
										</Node>
									</Node>
									<Node id="81">
										<SimplePredicate field="rms" operator="greaterThan" value="5.241089"/>
										<Node id="82" score="1" recordCount="22.0">
											<SimplePredicate field="skew" operator="lessOrEqual" value="0.54780823"/>
											<ScoreDistribution value="0" recordCount="0.0"/>
											<ScoreDistribution value="1" recordCount="22.0"/>
										</Node>
										<Node id="83">
											<SimplePredicate field="skew" operator="greaterThan" value="0.54780823"/>
											<Node id="84" score="1" recordCount="1.0">
												<SimplePredicate field="fft3" operator="lessOrEqual" value="141.34811"/>
												<ScoreDistribution value="0" recordCount="0.0"/>
												<ScoreDistribution value="1" recordCount="1.0"/>
											</Node>
											<Node id="85" score="0" recordCount="3.0">
												<SimplePredicate field="fft3" operator="greaterThan" value="141.34811"/>
												<ScoreDistribution value="0" recordCount="3.0"/>
												<ScoreDistribution value="1" recordCount="0.0"/>
											</Node>
										</Node>
									</Node>
								</Node>
							</Node>
						</Node>
					</Node>
				</TreeModel>
			</Segment>
			<Segment id="2">
				<True/>
				<TreeModel functionName="classification" splitCharacteristic="binarySplit">
					<MiningSchema>
						<MiningField name="mean"/>
						<MiningField name="std"/>
						<MiningField name="mad"/>
						<MiningField name="rms"/>
						<MiningField name="skew"/>
						<MiningField name="qua1"/>
						<MiningField name="fft3"/>
						<MiningField name="fft4"/>
						<MiningField name="fft5"/>
					</MiningSchema>
					<Node id="1">
						<True/>
						<Node id="2">
							<SimplePredicate field="mean" operator="lessOrEqual" value="3.1873908"/>
							<Node id="3">
								<SimplePredicate field="fft5" operator="lessOrEqual" value="408.0736"/>
								<Node id="4">
									<SimplePredicate field="mean" operator="lessOrEqual" value="-5.0918984"/>
									<Node id="5">
										<SimplePredicate field="fft3" operator="lessOrEqual" value="14.000937"/>
										<Node id="6" score="0" recordCount="1.0">
											<SimplePredicate field="mad" operator="lessOrEqual" value="0.41646847"/>
											<ScoreDistribution value="0" recordCount="1.0"/>
											<ScoreDistribution value="1" recordCount="0.0"/>
										</Node>
										<Node id="7" score="1" recordCount="6.0">
											<SimplePredicate field="mad" operator="greaterThan" value="0.41646847"/>
											<ScoreDistribution value="0" recordCount="0.0"/>
											<ScoreDistribution value="1" recordCount="6.0"/>
										</Node>
									</Node>
									<Node id="8">
										<SimplePredicate field="fft3" operator="greaterThan" value="14.000937"/>
										<Node id="9" score="0" recordCount="8.0">
											<SimplePredicate field="rms" operator="lessOrEqual" value="5.626953"/>
											<ScoreDistribution value="0" recordCount="8.0"/>
											<ScoreDistribution value="1" recordCount="0.0"/>
										</Node>
										<Node id="10" score="1" recordCount="4.0">
											<SimplePredicate field="rms" operator="greaterThan" value="5.626953"/>
											<ScoreDistribution value="0" recordCount="0.0"/>
											<ScoreDistribution value="1" recordCount="4.0"/>
										</Node>
									</Node>
								</Node>
								<Node id="11">
									<SimplePredicate field="mean" operator="greaterThan" value="-5.0918984"/>
									<Node id="12">
										<SimplePredicate field="fft5" operator="lessOrEqual" value="194.23859"/>
										<Node id="13">
											<SimplePredicate field="qua1" operator="lessOrEqual" value="2.2035136"/>
											<Node id="14" score="0" recordCount="246.0">
												<SimplePredicate field="fft4" operator="lessOrEqual" value="214.77724"/>
												<ScoreDistribution value="0" recordCount="246.0"/>
												<ScoreDistribution value="1" recordCount="0.0"/>
											</Node>
											<Node id="15">
												<SimplePredicate field="fft4" operator="greaterThan" value="214.77724"/>
												<Node id="16" score="1" recordCount="1.0">
													<SimplePredicate field="fft4" operator="lessOrEqual" value="219.22043"/>
													<ScoreDistribution value="0" recordCount="0.0"/>
													<ScoreDistribution value="1" recordCount="1.0"/>
												</Node>
												<Node id="17" score="0" recordCount="7.0">
													<SimplePredicate field="fft4" operator="greaterThan" value="219.22043"/>
													<ScoreDistribution value="0" recordCount="7.0"/>
													<ScoreDistribution value="1" recordCount="0.0"/>
												</Node>
											</Node>
										</Node>
										<Node id="18">
											<SimplePredicate field="qua1" operator="greaterThan" value="2.2035136"/>
											<Node id="19" score="1" recordCount="1.0">
												<SimplePredicate field="qua1" operator="lessOrEqual" value="2.3198318"/>
												<ScoreDistribution value="0" recordCount="0.0"/>
												<ScoreDistribution value="1" recordCount="1.0"/>
											</Node>
											<Node id="20" score="0" recordCount="5.0">
												<SimplePredicate field="qua1" operator="greaterThan" value="2.3198318"/>
												<ScoreDistribution value="0" recordCount="5.0"/>
												<ScoreDistribution value="1" recordCount="0.0"/>
											</Node>
										</Node>
									</Node>
									<Node id="21">
										<SimplePredicate field="fft5" operator="greaterThan" value="194.23859"/>
										<Node id="22" score="0" recordCount="11.0">
											<SimplePredicate field="mean" operator="lessOrEqual" value="1.3442504"/>
											<ScoreDistribution value="0" recordCount="11.0"/>
											<ScoreDistribution value="1" recordCount="0.0"/>
										</Node>
										<Node id="23" score="1" recordCount="3.0">
											<SimplePredicate field="mean" operator="greaterThan" value="1.3442504"/>
											<ScoreDistribution value="0" recordCount="0.0"/>
											<ScoreDistribution value="1" recordCount="3.0"/>
										</Node>
									</Node>
								</Node>
							</Node>
							<Node id="24">
								<SimplePredicate field="fft5" operator="greaterThan" value="408.0736"/>
								<Node id="25" score="0" recordCount="6.0">
									<SimplePredicate field="fft4" operator="lessOrEqual" value="426.3963"/>
									<ScoreDistribution value="0" recordCount="6.0"/>
									<ScoreDistribution value="1" recordCount="0.0"/>
								</Node>
								<Node id="26">
									<SimplePredicate field="fft4" operator="greaterThan" value="426.3963"/>
									<Node id="27">
										<SimplePredicate field="rms" operator="lessOrEqual" value="6.2777157"/>
										<Node id="28">
											<SimplePredicate field="rms" operator="lessOrEqual" value="5.3113923"/>
											<Node id="29" score="0" recordCount="1.0">
												<SimplePredicate field="mad" operator="lessOrEqual" value="2.6377497"/>
												<ScoreDistribution value="0" recordCount="1.0"/>
												<ScoreDistribution value="1" recordCount="0.0"/>
											</Node>
											<Node id="30" score="1" recordCount="4.0">
												<SimplePredicate field="mad" operator="greaterThan" value="2.6377497"/>
												<ScoreDistribution value="0" recordCount="0.0"/>
												<ScoreDistribution value="1" recordCount="4.0"/>
											</Node>
										</Node>
										<Node id="31" score="1" recordCount="16.0">
											<SimplePredicate field="rms" operator="greaterThan" value="5.3113923"/>
											<ScoreDistribution value="0" recordCount="0.0"/>
											<ScoreDistribution value="1" recordCount="16.0"/>
										</Node>
									</Node>
									<Node id="32" score="0" recordCount="1.0">
										<SimplePredicate field="rms" operator="greaterThan" value="6.2777157"/>
										<ScoreDistribution value="0" recordCount="1.0"/>
										<ScoreDistribution value="1" recordCount="0.0"/>
									</Node>
								</Node>
							</Node>
						</Node>
						<Node id="33">
							<SimplePredicate field="mean" operator="greaterThan" value="3.1873908"/>
							<Node id="34">
								<SimplePredicate field="fft5" operator="lessOrEqual" value="1.2222166"/>
								<Node id="35">
									<SimplePredicate field="mean" operator="lessOrEqual" value="4.62826"/>
									<Node id="36" score="1" recordCount="1.0">
										<SimplePredicate field="fft5" operator="lessOrEqual" value="0.010361565"/>
										<ScoreDistribution value="0" recordCount="0.0"/>
										<ScoreDistribution value="1" recordCount="1.0"/>
									</Node>
									<Node id="37">
										<SimplePredicate field="fft5" operator="greaterThan" value="0.010361565"/>
										<Node id="38" score="0" recordCount="30.0">
											<SimplePredicate field="fft4" operator="lessOrEqual" value="18.316761"/>
											<ScoreDistribution value="0" recordCount="30.0"/>
											<ScoreDistribution value="1" recordCount="0.0"/>
										</Node>
										<Node id="39" score="1" recordCount="1.0">
											<SimplePredicate field="fft4" operator="greaterThan" value="18.316761"/>
											<ScoreDistribution value="0" recordCount="0.0"/>
											<ScoreDistribution value="1" recordCount="1.0"/>
										</Node>
									</Node>
								</Node>
								<Node id="40">
									<SimplePredicate field="mean" operator="greaterThan" value="4.62826"/>
									<Node id="41" score="1" recordCount="3.0">
										<SimplePredicate field="fft3" operator="lessOrEqual" value="25.211418"/>
										<ScoreDistribution value="0" recordCount="0.0"/>
										<ScoreDistribution value="1" recordCount="3.0"/>
									</Node>
									<Node id="42" score="0" recordCount="1.0">
										<SimplePredicate field="fft3" operator="greaterThan" value="25.211418"/>
										<ScoreDistribution value="0" recordCount="1.0"/>
										<ScoreDistribution value="1" recordCount="0.0"/>
									</Node>
								</Node>
							</Node>
							<Node id="43">
								<SimplePredicate field="fft5" operator="greaterThan" value="1.2222166"/>
								<Node id="44">
									<SimplePredicate field="skew" operator="lessOrEqual" value="1.0303929"/>
									<Node id="45">
										<SimplePredicate field="fft4" operator="lessOrEqual" value="807.501"/>
										<Node id="46">
											<SimplePredicate field="mad" operator="lessOrEqual" value="0.3502618"/>
											<Node id="47">
												<SimplePredicate field="fft5" operator="lessOrEqual" value="4.7571325"/>
												<Node id="48" score="1" recordCount="12.0">
													<SimplePredicate field="skew" operator="lessOrEqual" value="0.18363136"/>
													<ScoreDistribution value="0" recordCount="0.0"/>
													<ScoreDistribution value="1" recordCount="12.0"/>
												</Node>
												<Node id="49" score="0" recordCount="2.0">
													<SimplePredicate field="skew" operator="greaterThan" value="0.18363136"/>
													<ScoreDistribution value="0" recordCount="2.0"/>
													<ScoreDistribution value="1" recordCount="0.0"/>
												</Node>
											</Node>
											<Node id="50" score="0" recordCount="6.0">
												<SimplePredicate field="fft5" operator="greaterThan" value="4.7571325"/>
												<ScoreDistribution value="0" recordCount="6.0"/>
												<ScoreDistribution value="1" recordCount="0.0"/>
											</Node>
										</Node>
										<Node id="51">
											<SimplePredicate field="mad" operator="greaterThan" value="0.3502618"/>
											<Node id="52">
												<SimplePredicate field="std" operator="lessOrEqual" value="1.8995097"/>
												<Node id="53">
													<SimplePredicate field="fft4" operator="lessOrEqual" value="225.24283"/>
													<Node id="54" score="0" recordCount="1.0">
														<SimplePredicate field="fft3" operator="lessOrEqual" value="0.49030113"/>
														<ScoreDistribution value="0" recordCount="1.0"/>
														<ScoreDistribution value="1" recordCount="0.0"/>
													</Node>
													<Node id="55">
														<SimplePredicate field="fft3" operator="greaterThan" value="0.49030113"/>
														<Node id="56">
															<SimplePredicate field="skew" operator="lessOrEqual" value="-0.46608692"/>
															<Node id="57">
																<SimplePredicate field="mean" operator="lessOrEqual" value="5.0136795"/>
																<Node id="58" score="1" recordCount="14.0">
																	<SimplePredicate field="fft3" operator="lessOrEqual" value="172.38002"/>
																	<ScoreDistribution value="0" recordCount="0.0"/>
																	<ScoreDistribution value="1" recordCount="14.0"/>
																</Node>
																<Node id="59" score="0" recordCount="1.0">
																	<SimplePredicate field="fft3" operator="greaterThan" value="172.38002"/>
																	<ScoreDistribution value="0" recordCount="1.0"/>
																	<ScoreDistribution value="1" recordCount="0.0"/>
																</Node>
															</Node>
															<Node id="60" score="0" recordCount="2.0">
																<SimplePredicate field="mean" operator="greaterThan" value="5.0136795"/>
																<ScoreDistribution value="0" recordCount="2.0"/>
																<ScoreDistribution value="1" recordCount="0.0"/>
															</Node>
														</Node>
														<Node id="61">
															<SimplePredicate field="skew" operator="greaterThan" value="-0.46608692"/>
															<Node id="62">
																<SimplePredicate field="mean" operator="lessOrEqual" value="3.328493"/>
																<Node id="63" score="1" recordCount="1.0">
																	<SimplePredicate field="mean" operator="lessOrEqual" value="3.2861955"/>
																	<ScoreDistribution value="0" recordCount="0.0"/>
																	<ScoreDistribution value="1" recordCount="1.0"/>
																</Node>
																<Node id="64" score="0" recordCount="1.0">
																	<SimplePredicate field="mean" operator="greaterThan" value="3.2861955"/>
																	<ScoreDistribution value="0" recordCount="1.0"/>
																	<ScoreDistribution value="1" recordCount="0.0"/>
																</Node>
															</Node>
															<Node id="65" score="1" recordCount="136.0">
																<SimplePredicate field="mean" operator="greaterThan" value="3.328493"/>
																<ScoreDistribution value="0" recordCount="0.0"/>
																<ScoreDistribution value="1" recordCount="136.0"/>
															</Node>
														</Node>
													</Node>
												</Node>
												<Node id="66">
													<SimplePredicate field="fft4" operator="greaterThan" value="225.24283"/>
													<Node id="67" score="0" recordCount="2.0">
														<SimplePredicate field="std" operator="lessOrEqual" value="1.150034"/>
														<ScoreDistribution value="0" recordCount="2.0"/>
														<ScoreDistribution value="1" recordCount="0.0"/>
													</Node>
													<Node id="68" score="1" recordCount="4.0">
														<SimplePredicate field="std" operator="greaterThan" value="1.150034"/>
														<ScoreDistribution value="0" recordCount="0.0"/>
														<ScoreDistribution value="1" recordCount="4.0"/>
													</Node>
												</Node>
											</Node>
											<Node id="69">
												<SimplePredicate field="std" operator="greaterThan" value="1.8995097"/>
												<Node id="70">
													<SimplePredicate field="qua1" operator="lessOrEqual" value="4.2162395"/>
													<Node id="71">
														<SimplePredicate field="fft4" operator="lessOrEqual" value="16.339691"/>
														<Node id="72" score="1" recordCount="2.0">
															<SimplePredicate field="skew" operator="lessOrEqual" value="-0.2226837"/>
															<ScoreDistribution value="0" recordCount="0.0"/>
															<ScoreDistribution value="1" recordCount="2.0"/>
														</Node>
														<Node id="73" score="0" recordCount="5.0">
															<SimplePredicate field="skew" operator="greaterThan" value="-0.2226837"/>
															<ScoreDistribution value="0" recordCount="5.0"/>
															<ScoreDistribution value="1" recordCount="0.0"/>
														</Node>
													</Node>
													<Node id="74">
														<SimplePredicate field="fft4" operator="greaterThan" value="16.339691"/>
														<Node id="75">
															<SimplePredicate field="mean" operator="lessOrEqual" value="3.8646746"/>
															<Node id="76">
																<SimplePredicate field="mad" operator="lessOrEqual" value="1.6799698"/>
																<Node id="77" score="0" recordCount="1.0">
																	<SimplePredicate field="rms" operator="lessOrEqual" value="5.2352767"/>
																	<ScoreDistribution value="0" recordCount="1.0"/>
																	<ScoreDistribution value="1" recordCount="0.0"/>
																</Node>
																<Node id="78" score="1" recordCount="12.0">
																	<SimplePredicate field="rms" operator="greaterThan" value="5.2352767"/>
																	<ScoreDistribution value="0" recordCount="0.0"/>
																	<ScoreDistribution value="1" recordCount="12.0"/>
																</Node>
															</Node>
															<Node id="79" score="0" recordCount="2.0">
																<SimplePredicate field="mad" operator="greaterThan" value="1.6799698"/>
																<ScoreDistribution value="0" recordCount="2.0"/>
																<ScoreDistribution value="1" recordCount="0.0"/>
															</Node>
														</Node>
														<Node id="80" score="1" recordCount="28.0">
															<SimplePredicate field="mean" operator="greaterThan" value="3.8646746"/>
															<ScoreDistribution value="0" recordCount="0.0"/>
															<ScoreDistribution value="1" recordCount="28.0"/>
														</Node>
													</Node>
												</Node>
												<Node id="81" score="0" recordCount="3.0">
													<SimplePredicate field="qua1" operator="greaterThan" value="4.2162395"/>
													<ScoreDistribution value="0" recordCount="3.0"/>
													<ScoreDistribution value="1" recordCount="0.0"/>
												</Node>
											</Node>
										</Node>
									</Node>
									<Node id="82">
										<SimplePredicate field="fft4" operator="greaterThan" value="807.501"/>
										<Node id="83" score="0" recordCount="4.0">
											<SimplePredicate field="std" operator="lessOrEqual" value="3.8518515"/>
											<ScoreDistribution value="0" recordCount="4.0"/>
											<ScoreDistribution value="1" recordCount="0.0"/>
										</Node>
										<Node id="84" score="1" recordCount="1.0">
											<SimplePredicate field="std" operator="greaterThan" value="3.8518515"/>
											<ScoreDistribution value="0" recordCount="0.0"/>
											<ScoreDistribution value="1" recordCount="1.0"/>
										</Node>
									</Node>
								</Node>
								<Node id="85" score="0" recordCount="4.0">
									<SimplePredicate field="skew" operator="greaterThan" value="1.0303929"/>
									<ScoreDistribution value="0" recordCount="4.0"/>
									<ScoreDistribution value="1" recordCount="0.0"/>
								</Node>
							</Node>
						</Node>
					</Node>
				</TreeModel>
			</Segment>
			<Segment id="3">
				<True/>
				<TreeModel functionName="classification" splitCharacteristic="binarySplit">
					<MiningSchema>
						<MiningField name="mean"/>
						<MiningField name="std"/>
						<MiningField name="mad"/>
						<MiningField name="rms"/>
						<MiningField name="range"/>
						<MiningField name="skew"/>
						<MiningField name="qua1"/>
						<MiningField name="fft3"/>
						<MiningField name="fft4"/>
						<MiningField name="fft5"/>
					</MiningSchema>
					<Node id="1">
						<True/>
						<Node id="2">
							<SimplePredicate field="range" operator="lessOrEqual" value="1.7242243"/>
							<Node id="3">
								<SimplePredicate field="qua1" operator="lessOrEqual" value="4.5055385"/>
								<Node id="4">
									<SimplePredicate field="rms" operator="lessOrEqual" value="3.856001"/>
									<Node id="5" score="0" recordCount="2.0">
										<SimplePredicate field="mean" operator="lessOrEqual" value="3.6703372"/>
										<ScoreDistribution value="0" recordCount="2.0"/>
										<ScoreDistribution value="1" recordCount="0.0"/>
									</Node>
									<Node id="6" score="1" recordCount="3.0">
										<SimplePredicate field="mean" operator="greaterThan" value="3.6703372"/>
										<ScoreDistribution value="0" recordCount="0.0"/>
										<ScoreDistribution value="1" recordCount="3.0"/>
									</Node>
								</Node>
								<Node id="7">
									<SimplePredicate field="rms" operator="greaterThan" value="3.856001"/>
									<Node id="8" score="0" recordCount="86.0">
										<SimplePredicate field="fft4" operator="lessOrEqual" value="11.08757"/>
										<ScoreDistribution value="0" recordCount="86.0"/>
										<ScoreDistribution value="1" recordCount="0.0"/>
									</Node>
									<Node id="9">
										<SimplePredicate field="fft4" operator="greaterThan" value="11.08757"/>
										<Node id="10" score="1" recordCount="1.0">
											<SimplePredicate field="range" operator="lessOrEqual" value="1.3642962"/>
											<ScoreDistribution value="0" recordCount="0.0"/>
											<ScoreDistribution value="1" recordCount="1.0"/>
										</Node>
										<Node id="11" score="0" recordCount="5.0">
											<SimplePredicate field="range" operator="greaterThan" value="1.3642962"/>
											<ScoreDistribution value="0" recordCount="5.0"/>
											<ScoreDistribution value="1" recordCount="0.0"/>
										</Node>
									</Node>
								</Node>
							</Node>
							<Node id="12" score="1" recordCount="4.0">
								<SimplePredicate field="qua1" operator="greaterThan" value="4.5055385"/>
								<ScoreDistribution value="0" recordCount="0.0"/>
								<ScoreDistribution value="1" recordCount="4.0"/>
							</Node>
						</Node>
						<Node id="13">
							<SimplePredicate field="range" operator="greaterThan" value="1.7242243"/>
							<Node id="14">
								<SimplePredicate field="qua1" operator="lessOrEqual" value="2.4033294"/>
								<Node id="15">
									<SimplePredicate field="fft5" operator="lessOrEqual" value="408.0736"/>
									<Node id="16">
										<SimplePredicate field="rms" operator="lessOrEqual" value="4.069517"/>
										<Node id="17" score="0" recordCount="2.0">
											<SimplePredicate field="fft3" operator="lessOrEqual" value="3.1814525"/>
											<ScoreDistribution value="0" recordCount="2.0"/>
											<ScoreDistribution value="1" recordCount="0.0"/>
										</Node>
										<Node id="18" score="1" recordCount="6.0">
											<SimplePredicate field="fft3" operator="greaterThan" value="3.1814525"/>
											<ScoreDistribution value="0" recordCount="0.0"/>
											<ScoreDistribution value="1" recordCount="6.0"/>
										</Node>
									</Node>
									<Node id="19">
										<SimplePredicate field="rms" operator="greaterThan" value="4.069517"/>
										<Node id="20" score="1" recordCount="6.0">
											<SimplePredicate field="mean" operator="lessOrEqual" value="-5.4159374"/>
											<ScoreDistribution value="0" recordCount="0.0"/>
											<ScoreDistribution value="1" recordCount="6.0"/>
										</Node>
										<Node id="21">
											<SimplePredicate field="mean" operator="greaterThan" value="-5.4159374"/>
											<Node id="22">
												<SimplePredicate field="mean" operator="lessOrEqual" value="1.3442504"/>
												<Node id="23" score="0" recordCount="143.0">
													<SimplePredicate field="rms" operator="lessOrEqual" value="5.247858"/>
													<ScoreDistribution value="0" recordCount="143.0"/>
													<ScoreDistribution value="1" recordCount="0.0"/>
												</Node>
												<Node id="24">
													<SimplePredicate field="rms" operator="greaterThan" value="5.247858"/>
													<Node id="25" score="1" recordCount="1.0">
														<SimplePredicate field="rms" operator="lessOrEqual" value="5.252878"/>
														<ScoreDistribution value="0" recordCount="0.0"/>
														<ScoreDistribution value="1" recordCount="1.0"/>
													</Node>
													<Node id="26">
														<SimplePredicate field="rms" operator="greaterThan" value="5.252878"/>
														<Node id="27" score="1" recordCount="1.0">
															<SimplePredicate field="qua1" operator="lessOrEqual" value="-6.7056103"/>
															<ScoreDistribution value="0" recordCount="0.0"/>
															<ScoreDistribution value="1" recordCount="1.0"/>
														</Node>
														<Node id="28" score="0" recordCount="63.0">
															<SimplePredicate field="qua1" operator="greaterThan" value="-6.7056103"/>
															<ScoreDistribution value="0" recordCount="63.0"/>
															<ScoreDistribution value="1" recordCount="0.0"/>
														</Node>
													</Node>
												</Node>
											</Node>
											<Node id="29">
												<SimplePredicate field="mean" operator="greaterThan" value="1.3442504"/>
												<Node id="30" score="1" recordCount="2.0">
													<SimplePredicate field="mean" operator="lessOrEqual" value="1.4540086"/>
													<ScoreDistribution value="0" recordCount="0.0"/>
													<ScoreDistribution value="1" recordCount="2.0"/>
												</Node>
												<Node id="31">
													<SimplePredicate field="mean" operator="greaterThan" value="1.4540086"/>
													<Node id="32" score="1" recordCount="2.0">
														<SimplePredicate field="rms" operator="lessOrEqual" value="4.257007"/>
														<ScoreDistribution value="0" recordCount="0.0"/>
														<ScoreDistribution value="1" recordCount="2.0"/>
													</Node>
													<Node id="33">
														<SimplePredicate field="rms" operator="greaterThan" value="4.257007"/>
														<Node id="34" score="0" recordCount="19.0">
															<SimplePredicate field="rms" operator="lessOrEqual" value="5.6075068"/>
															<ScoreDistribution value="0" recordCount="19.0"/>
															<ScoreDistribution value="1" recordCount="0.0"/>
														</Node>
														<Node id="35">
															<SimplePredicate field="rms" operator="greaterThan" value="5.6075068"/>
															<Node id="36" score="1" recordCount="2.0">
																<SimplePredicate field="mad" operator="lessOrEqual" value="2.293748"/>
																<ScoreDistribution value="0" recordCount="0.0"/>
																<ScoreDistribution value="1" recordCount="2.0"/>
															</Node>
															<Node id="37" score="0" recordCount="4.0">
																<SimplePredicate field="mad" operator="greaterThan" value="2.293748"/>
																<ScoreDistribution value="0" recordCount="4.0"/>
																<ScoreDistribution value="1" recordCount="0.0"/>
															</Node>
														</Node>
													</Node>
												</Node>
											</Node>
										</Node>
									</Node>
								</Node>
								<Node id="38">
									<SimplePredicate field="fft5" operator="greaterThan" value="408.0736"/>
									<Node id="39">
										<SimplePredicate field="fft3" operator="lessOrEqual" value="734.5499"/>
										<Node id="40" score="0" recordCount="4.0">
											<SimplePredicate field="fft4" operator="lessOrEqual" value="224.3258"/>
											<ScoreDistribution value="0" recordCount="4.0"/>
											<ScoreDistribution value="1" recordCount="0.0"/>
										</Node>
										<Node id="41" score="1" recordCount="3.0">
											<SimplePredicate field="fft4" operator="greaterThan" value="224.3258"/>
											<ScoreDistribution value="0" recordCount="0.0"/>
											<ScoreDistribution value="1" recordCount="3.0"/>
										</Node>
									</Node>
									<Node id="42">
										<SimplePredicate field="fft3" operator="greaterThan" value="734.5499"/>
										<Node id="43">
											<SimplePredicate field="std" operator="lessOrEqual" value="3.0617695"/>
											<Node id="44" score="1" recordCount="1.0">
												<SimplePredicate field="std" operator="lessOrEqual" value="2.7974095"/>
												<ScoreDistribution value="0" recordCount="0.0"/>
												<ScoreDistribution value="1" recordCount="1.0"/>
											</Node>
											<Node id="45" score="0" recordCount="1.0">
												<SimplePredicate field="std" operator="greaterThan" value="2.7974095"/>
												<ScoreDistribution value="0" recordCount="1.0"/>
												<ScoreDistribution value="1" recordCount="0.0"/>
											</Node>
										</Node>
										<Node id="46" score="1" recordCount="16.0">
											<SimplePredicate field="std" operator="greaterThan" value="3.0617695"/>
											<ScoreDistribution value="0" recordCount="0.0"/>
											<ScoreDistribution value="1" recordCount="16.0"/>
										</Node>
									</Node>
								</Node>
							</Node>
							<Node id="47">
								<SimplePredicate field="qua1" operator="greaterThan" value="2.4033294"/>
								<Node id="48">
									<SimplePredicate field="range" operator="lessOrEqual" value="2.8483021"/>
									<Node id="49">
										<SimplePredicate field="std" operator="lessOrEqual" value="0.57697046"/>
										<Node id="50" score="0" recordCount="3.0">
											<SimplePredicate field="mad" operator="lessOrEqual" value="0.290205"/>
											<ScoreDistribution value="0" recordCount="3.0"/>
											<ScoreDistribution value="1" recordCount="0.0"/>
										</Node>
										<Node id="51">
											<SimplePredicate field="mad" operator="greaterThan" value="0.290205"/>
											<Node id="52">
												<SimplePredicate field="skew" operator="lessOrEqual" value="0.09264177"/>
												<Node id="53" score="0" recordCount="1.0">
													<SimplePredicate field="qua1" operator="lessOrEqual" value="3.0682194"/>
													<ScoreDistribution value="0" recordCount="1.0"/>
													<ScoreDistribution value="1" recordCount="0.0"/>
												</Node>
												<Node id="54" score="1" recordCount="18.0">
													<SimplePredicate field="qua1" operator="greaterThan" value="3.0682194"/>
													<ScoreDistribution value="0" recordCount="0.0"/>
													<ScoreDistribution value="1" recordCount="18.0"/>
												</Node>
											</Node>
											<Node id="55" score="0" recordCount="1.0">
												<SimplePredicate field="skew" operator="greaterThan" value="0.09264177"/>
												<ScoreDistribution value="0" recordCount="1.0"/>
												<ScoreDistribution value="1" recordCount="0.0"/>
											</Node>
										</Node>
									</Node>
									<Node id="56">
										<SimplePredicate field="std" operator="greaterThan" value="0.57697046"/>
										<Node id="57" score="1" recordCount="1.0">
											<SimplePredicate field="rms" operator="lessOrEqual" value="4.1223407"/>
											<ScoreDistribution value="0" recordCount="0.0"/>
											<ScoreDistribution value="1" recordCount="1.0"/>
										</Node>
										<Node id="58" score="0" recordCount="12.0">
											<SimplePredicate field="rms" operator="greaterThan" value="4.1223407"/>
											<ScoreDistribution value="0" recordCount="12.0"/>
											<ScoreDistribution value="1" recordCount="0.0"/>
										</Node>
									</Node>
								</Node>
								<Node id="59">
									<SimplePredicate field="range" operator="greaterThan" value="2.8483021"/>
									<Node id="60">
										<SimplePredicate field="fft4" operator="lessOrEqual" value="612.46704"/>
										<Node id="61">
											<SimplePredicate field="fft3" operator="lessOrEqual" value="148.20561"/>
											<Node id="62" score="0" recordCount="1.0">
												<SimplePredicate field="fft5" operator="lessOrEqual" value="0.19285414"/>
												<ScoreDistribution value="0" recordCount="1.0"/>
												<ScoreDistribution value="1" recordCount="0.0"/>
											</Node>
											<Node id="63">
												<SimplePredicate field="fft5" operator="greaterThan" value="0.19285414"/>
												<Node id="64" score="0" recordCount="2.0">
													<SimplePredicate field="skew" operator="lessOrEqual" value="-0.86476225"/>
													<ScoreDistribution value="0" recordCount="2.0"/>
													<ScoreDistribution value="1" recordCount="0.0"/>
												</Node>
												<Node id="65">
													<SimplePredicate field="skew" operator="greaterThan" value="-0.86476225"/>
													<Node id="66" score="0" recordCount="1.0">
														<SimplePredicate field="fft3" operator="lessOrEqual" value="0.49030113"/>
														<ScoreDistribution value="0" recordCount="1.0"/>
														<ScoreDistribution value="1" recordCount="0.0"/>
													</Node>
													<Node id="67">
														<SimplePredicate field="fft3" operator="greaterThan" value="0.49030113"/>
														<Node id="68">
															<SimplePredicate field="fft4" operator="lessOrEqual" value="215.22343"/>
															<Node id="69">
																<SimplePredicate field="mean" operator="lessOrEqual" value="3.3377028"/>
																<Node id="70" score="1" recordCount="1.0">
																	<SimplePredicate field="mad" operator="lessOrEqual" value="0.8539233"/>
																	<ScoreDistribution value="0" recordCount="0.0"/>
																	<ScoreDistribution value="1" recordCount="1.0"/>
																</Node>
																<Node id="71" score="0" recordCount="1.0">
																	<SimplePredicate field="mad" operator="greaterThan" value="0.8539233"/>
																	<ScoreDistribution value="0" recordCount="1.0"/>
																	<ScoreDistribution value="1" recordCount="0.0"/>
																</Node>
															</Node>
															<Node id="72">
																<SimplePredicate field="mean" operator="greaterThan" value="3.3377028"/>
																<Node id="73">
																	<SimplePredicate field="fft3" operator="lessOrEqual" value="12.755971"/>
																	<Node id="74">
																		<SimplePredicate field="fft3" operator="lessOrEqual" value="12.247707"/>
																		<Node id="75" score="1" recordCount="38.0">
																			<SimplePredicate field="std" operator="lessOrEqual" value="1.9512137"/>
																			<ScoreDistribution value="0" recordCount="0.0"/>
																			<ScoreDistribution value="1" recordCount="38.0"/>
																		</Node>
																		<Node id="76">
																			<SimplePredicate field="std" operator="greaterThan" value="1.9512137"/>
																			<Node id="77" score="0" recordCount="1.0">
																				<SimplePredicate field="fft4" operator="lessOrEqual" value="17.60028"/>
																				<ScoreDistribution value="0" recordCount="1.0"/>
																				<ScoreDistribution value="1" recordCount="0.0"/>
																			</Node>
																			<Node id="78" score="1" recordCount="2.0">
																				<SimplePredicate field="fft4" operator="greaterThan" value="17.60028"/>
																				<ScoreDistribution value="0" recordCount="0.0"/>
																				<ScoreDistribution value="1" recordCount="2.0"/>
																			</Node>
																		</Node>
																	</Node>
																	<Node id="79" score="0" recordCount="1.0">
																		<SimplePredicate field="fft3" operator="greaterThan" value="12.247707"/>
																		<ScoreDistribution value="0" recordCount="1.0"/>
																		<ScoreDistribution value="1" recordCount="0.0"/>
																	</Node>
																</Node>
																<Node id="80" score="1" recordCount="98.0">
																	<SimplePredicate field="fft3" operator="greaterThan" value="12.755971"/>
																	<ScoreDistribution value="0" recordCount="0.0"/>
																	<ScoreDistribution value="1" recordCount="98.0"/>
																</Node>
															</Node>
														</Node>
														<Node id="81">
															<SimplePredicate field="fft4" operator="greaterThan" value="215.22343"/>
															<Node id="82" score="0" recordCount="2.0">
																<SimplePredicate field="fft4" operator="lessOrEqual" value="285.00916"/>
																<ScoreDistribution value="0" recordCount="2.0"/>
																<ScoreDistribution value="1" recordCount="0.0"/>
															</Node>
															<Node id="83" score="1" recordCount="3.0">
																<SimplePredicate field="fft4" operator="greaterThan" value="285.00916"/>
																<ScoreDistribution value="0" recordCount="0.0"/>
																<ScoreDistribution value="1" recordCount="3.0"/>
															</Node>
														</Node>
													</Node>
												</Node>
											</Node>
										</Node>
										<Node id="84">
											<SimplePredicate field="fft3" operator="greaterThan" value="148.20561"/>
											<Node id="85" score="0" recordCount="3.0">
												<SimplePredicate field="fft5" operator="lessOrEqual" value="9.20623"/>
												<ScoreDistribution value="0" recordCount="3.0"/>
												<ScoreDistribution value="1" recordCount="0.0"/>
											</Node>
											<Node id="86">
												<SimplePredicate field="fft5" operator="greaterThan" value="9.20623"/>
												<Node id="87" score="0" recordCount="2.0">
													<SimplePredicate field="std" operator="lessOrEqual" value="1.1131728"/>
													<ScoreDistribution value="0" recordCount="2.0"/>
													<ScoreDistribution value="1" recordCount="0.0"/>
												</Node>
												<Node id="88">
													<SimplePredicate field="std" operator="greaterThan" value="1.1131728"/>
													<Node id="89">
														<SimplePredicate field="std" operator="lessOrEqual" value="2.9910474"/>
														<Node id="90" score="0" recordCount="1.0">
															<SimplePredicate field="fft3" operator="lessOrEqual" value="153.88771"/>
															<ScoreDistribution value="0" recordCount="1.0"/>
															<ScoreDistribution value="1" recordCount="0.0"/>
														</Node>
														<Node id="91">
															<SimplePredicate field="fft3" operator="greaterThan" value="153.88771"/>
															<Node id="92">
																<SimplePredicate field="fft3" operator="lessOrEqual" value="236.78902"/>
																<Node id="93" score="0" recordCount="1.0">
																	<SimplePredicate field="skew" operator="lessOrEqual" value="-0.35961947"/>
																	<ScoreDistribution value="0" recordCount="1.0"/>
																	<ScoreDistribution value="1" recordCount="0.0"/>
																</Node>
																<Node id="94">
																	<SimplePredicate field="skew" operator="greaterThan" value="-0.35961947"/>
																	<Node id="95" score="0" recordCount="1.0">
																		<SimplePredicate field="fft5" operator="lessOrEqual" value="23.523617"/>
																		<ScoreDistribution value="0" recordCount="1.0"/>
																		<ScoreDistribution value="1" recordCount="0.0"/>
																	</Node>
																	<Node id="96" score="1" recordCount="5.0">
																		<SimplePredicate field="fft5" operator="greaterThan" value="23.523617"/>
																		<ScoreDistribution value="0" recordCount="0.0"/>
																		<ScoreDistribution value="1" recordCount="5.0"/>
																	</Node>
																</Node>
															</Node>
															<Node id="97" score="1" recordCount="19.0">
																<SimplePredicate field="fft3" operator="greaterThan" value="236.78902"/>
																<ScoreDistribution value="0" recordCount="0.0"/>
																<ScoreDistribution value="1" recordCount="19.0"/>
															</Node>
														</Node>
													</Node>
													<Node id="98" score="0" recordCount="1.0">
														<SimplePredicate field="std" operator="greaterThan" value="2.9910474"/>
														<ScoreDistribution value="0" recordCount="1.0"/>
														<ScoreDistribution value="1" recordCount="0.0"/>
													</Node>
												</Node>
											</Node>
										</Node>
									</Node>
									<Node id="99" score="0" recordCount="4.0">
										<SimplePredicate field="fft4" operator="greaterThan" value="612.46704"/>
										<ScoreDistribution value="0" recordCount="4.0"/>
										<ScoreDistribution value="1" recordCount="0.0"/>
									</Node>
								</Node>
							</Node>
						</Node>
					</Node>
				</TreeModel>
			</Segment>
			<Segment id="4">
				<True/>
				<TreeModel functionName="classification" splitCharacteristic="binarySplit">
					<MiningSchema>
						<MiningField name="mean"/>
						<MiningField name="std"/>
						<MiningField name="mad"/>
						<MiningField name="rms"/>
						<MiningField name="range"/>
						<MiningField name="skew"/>
						<MiningField name="qua1"/>
						<MiningField name="fft3"/>
						<MiningField name="fft4"/>
						<MiningField name="fft5"/>
					</MiningSchema>
					<Node id="1">
						<True/>
						<Node id="2">
							<SimplePredicate field="qua1" operator="lessOrEqual" value="2.01078"/>
							<Node id="3">
								<SimplePredicate field="fft5" operator="lessOrEqual" value="384.5327"/>
								<Node id="4">
									<SimplePredicate field="mean" operator="lessOrEqual" value="-5.35289"/>
									<Node id="5" score="0" recordCount="1.0">
										<SimplePredicate field="rms" operator="lessOrEqual" value="5.635026"/>
										<ScoreDistribution value="0" recordCount="1.0"/>
										<ScoreDistribution value="1" recordCount="0.0"/>
									</Node>
									<Node id="6" score="1" recordCount="8.0">
										<SimplePredicate field="rms" operator="greaterThan" value="5.635026"/>
										<ScoreDistribution value="0" recordCount="0.0"/>
										<ScoreDistribution value="1" recordCount="8.0"/>
									</Node>
								</Node>
								<Node id="7">
									<SimplePredicate field="mean" operator="greaterThan" value="-5.35289"/>
									<Node id="8">
										<SimplePredicate field="mean" operator="lessOrEqual" value="3.2901306"/>
										<Node id="9">
											<SimplePredicate field="qua1" operator="lessOrEqual" value="-5.4573336"/>
											<Node id="10">
												<SimplePredicate field="fft3" operator="lessOrEqual" value="13.695636"/>
												<Node id="11" score="1" recordCount="2.0">
													<SimplePredicate field="mad" operator="lessOrEqual" value="0.90423894"/>
													<ScoreDistribution value="0" recordCount="0.0"/>
													<ScoreDistribution value="1" recordCount="2.0"/>
												</Node>
												<Node id="12" score="0" recordCount="1.0">
													<SimplePredicate field="mad" operator="greaterThan" value="0.90423894"/>
													<ScoreDistribution value="0" recordCount="1.0"/>
													<ScoreDistribution value="1" recordCount="0.0"/>
												</Node>
											</Node>
											<Node id="13" score="0" recordCount="30.0">
												<SimplePredicate field="fft3" operator="greaterThan" value="13.695636"/>
												<ScoreDistribution value="0" recordCount="30.0"/>
												<ScoreDistribution value="1" recordCount="0.0"/>
											</Node>
										</Node>
										<Node id="14">
											<SimplePredicate field="qua1" operator="greaterThan" value="-5.4573336"/>
											<Node id="15" score="0" recordCount="220.0">
												<SimplePredicate field="mad" operator="lessOrEqual" value="2.2617068"/>
												<ScoreDistribution value="0" recordCount="220.0"/>
												<ScoreDistribution value="1" recordCount="0.0"/>
											</Node>
											<Node id="16">
												<SimplePredicate field="mad" operator="greaterThan" value="2.2617068"/>
												<Node id="17" score="1" recordCount="1.0">
													<SimplePredicate field="mad" operator="lessOrEqual" value="2.3689747"/>
													<ScoreDistribution value="0" recordCount="0.0"/>
													<ScoreDistribution value="1" recordCount="1.0"/>
												</Node>
												<Node id="18" score="0" recordCount="11.0">
													<SimplePredicate field="mad" operator="greaterThan" value="2.3689747"/>
													<ScoreDistribution value="0" recordCount="11.0"/>
													<ScoreDistribution value="1" recordCount="0.0"/>
												</Node>
											</Node>
										</Node>
									</Node>
									<Node id="19">
										<SimplePredicate field="mean" operator="greaterThan" value="3.2901306"/>
										<Node id="20" score="1" recordCount="2.0">
											<SimplePredicate field="rms" operator="lessOrEqual" value="5.895417"/>
											<ScoreDistribution value="0" recordCount="0.0"/>
											<ScoreDistribution value="1" recordCount="2.0"/>
										</Node>
										<Node id="21" score="0" recordCount="1.0">
											<SimplePredicate field="rms" operator="greaterThan" value="5.895417"/>
											<ScoreDistribution value="0" recordCount="1.0"/>
											<ScoreDistribution value="1" recordCount="0.0"/>
										</Node>
									</Node>
								</Node>
							</Node>
							<Node id="22">
								<SimplePredicate field="fft5" operator="greaterThan" value="384.5327"/>
								<Node id="23" score="0" recordCount="5.0">
									<SimplePredicate field="fft4" operator="lessOrEqual" value="320.29144"/>
									<ScoreDistribution value="0" recordCount="5.0"/>
									<ScoreDistribution value="1" recordCount="0.0"/>
								</Node>
								<Node id="24" score="1" recordCount="12.0">
									<SimplePredicate field="fft4" operator="greaterThan" value="320.29144"/>
									<ScoreDistribution value="0" recordCount="0.0"/>
									<ScoreDistribution value="1" recordCount="12.0"/>
								</Node>
							</Node>
						</Node>
						<Node id="25">
							<SimplePredicate field="qua1" operator="greaterThan" value="2.01078"/>
							<Node id="26">
								<SimplePredicate field="std" operator="lessOrEqual" value="0.37142003"/>
								<Node id="27" score="0" recordCount="21.0">
									<SimplePredicate field="skew" operator="lessOrEqual" value="0.030929476"/>
									<ScoreDistribution value="0" recordCount="21.0"/>
									<ScoreDistribution value="1" recordCount="0.0"/>
								</Node>
								<Node id="28">
									<SimplePredicate field="skew" operator="greaterThan" value="0.030929476"/>
									<Node id="29" score="1" recordCount="4.0">
										<SimplePredicate field="skew" operator="lessOrEqual" value="0.09627794"/>
										<ScoreDistribution value="0" recordCount="0.0"/>
										<ScoreDistribution value="1" recordCount="4.0"/>
									</Node>
									<Node id="30">
										<SimplePredicate field="skew" operator="greaterThan" value="0.09627794"/>
										<Node id="31" score="0" recordCount="9.0">
											<SimplePredicate field="mean" operator="lessOrEqual" value="3.6822524"/>
											<ScoreDistribution value="0" recordCount="9.0"/>
											<ScoreDistribution value="1" recordCount="0.0"/>
										</Node>
										<Node id="32">
											<SimplePredicate field="mean" operator="greaterThan" value="3.6822524"/>
											<Node id="33" score="1" recordCount="3.0">
												<SimplePredicate field="range" operator="lessOrEqual" value="1.3930266"/>
												<ScoreDistribution value="0" recordCount="0.0"/>
												<ScoreDistribution value="1" recordCount="3.0"/>
											</Node>
											<Node id="34" score="0" recordCount="4.0">
												<SimplePredicate field="range" operator="greaterThan" value="1.3930266"/>
												<ScoreDistribution value="0" recordCount="4.0"/>
												<ScoreDistribution value="1" recordCount="0.0"/>
											</Node>
										</Node>
									</Node>
								</Node>
							</Node>
							<Node id="35">
								<SimplePredicate field="std" operator="greaterThan" value="0.37142003"/>
								<Node id="36">
									<SimplePredicate field="skew" operator="lessOrEqual" value="1.2891363"/>
									<Node id="37">
										<SimplePredicate field="mad" operator="lessOrEqual" value="0.6719506"/>
										<Node id="38">
											<SimplePredicate field="rms" operator="lessOrEqual" value="4.170096"/>
											<Node id="39">
												<SimplePredicate field="mad" operator="lessOrEqual" value="0.6629969"/>
												<Node id="40" score="0" recordCount="1.0">
													<SimplePredicate field="rms" operator="lessOrEqual" value="3.696961"/>
													<ScoreDistribution value="0" recordCount="1.0"/>
													<ScoreDistribution value="1" recordCount="0.0"/>
												</Node>
												<Node id="41" score="1" recordCount="34.0">
													<SimplePredicate field="rms" operator="greaterThan" value="3.696961"/>
													<ScoreDistribution value="0" recordCount="0.0"/>
													<ScoreDistribution value="1" recordCount="34.0"/>
												</Node>
											</Node>
											<Node id="42" score="0" recordCount="1.0">
												<SimplePredicate field="mad" operator="greaterThan" value="0.6629969"/>
												<ScoreDistribution value="0" recordCount="1.0"/>
												<ScoreDistribution value="1" recordCount="0.0"/>
											</Node>
										</Node>
										<Node id="43">
											<SimplePredicate field="rms" operator="greaterThan" value="4.170096"/>
											<Node id="44">
												<SimplePredicate field="rms" operator="lessOrEqual" value="5.4059362"/>
												<Node id="45" score="1" recordCount="5.0">
													<SimplePredicate field="skew" operator="lessOrEqual" value="-0.54249495"/>
													<ScoreDistribution value="0" recordCount="0.0"/>
													<ScoreDistribution value="1" recordCount="5.0"/>
												</Node>
												<Node id="46">
													<SimplePredicate field="skew" operator="greaterThan" value="-0.54249495"/>
													<Node id="47">
														<SimplePredicate field="fft5" operator="lessOrEqual" value="1.7287189"/>
														<Node id="48" score="1" recordCount="5.0">
															<SimplePredicate field="mad" operator="lessOrEqual" value="0.5561453"/>
															<ScoreDistribution value="0" recordCount="0.0"/>
															<ScoreDistribution value="1" recordCount="5.0"/>
														</Node>
														<Node id="49" score="0" recordCount="2.0">
															<SimplePredicate field="mad" operator="greaterThan" value="0.5561453"/>
															<ScoreDistribution value="0" recordCount="2.0"/>
															<ScoreDistribution value="1" recordCount="0.0"/>
														</Node>
													</Node>
													<Node id="50">
														<SimplePredicate field="fft5" operator="greaterThan" value="1.7287189"/>
														<Node id="51" score="0" recordCount="20.0">
															<SimplePredicate field="mad" operator="lessOrEqual" value="0.6518905"/>
															<ScoreDistribution value="0" recordCount="20.0"/>
															<ScoreDistribution value="1" recordCount="0.0"/>
														</Node>
														<Node id="52" score="1" recordCount="1.0">
															<SimplePredicate field="mad" operator="greaterThan" value="0.6518905"/>
															<ScoreDistribution value="0" recordCount="0.0"/>
															<ScoreDistribution value="1" recordCount="1.0"/>
														</Node>
													</Node>
												</Node>
											</Node>
											<Node id="53" score="1" recordCount="12.0">
												<SimplePredicate field="rms" operator="greaterThan" value="5.4059362"/>
												<ScoreDistribution value="0" recordCount="0.0"/>
												<ScoreDistribution value="1" recordCount="12.0"/>
											</Node>
										</Node>
									</Node>
									<Node id="54">
										<SimplePredicate field="mad" operator="greaterThan" value="0.6719506"/>
										<Node id="55">
											<SimplePredicate field="fft3" operator="lessOrEqual" value="190.65216"/>
											<Node id="56" score="0" recordCount="2.0">
												<SimplePredicate field="skew" operator="lessOrEqual" value="-0.9659585"/>
												<ScoreDistribution value="0" recordCount="2.0"/>
												<ScoreDistribution value="1" recordCount="0.0"/>
											</Node>
											<Node id="57">
												<SimplePredicate field="skew" operator="greaterThan" value="-0.9659585"/>
												<Node id="58" score="0" recordCount="1.0">
													<SimplePredicate field="qua1" operator="lessOrEqual" value="2.2378304"/>
													<ScoreDistribution value="0" recordCount="1.0"/>
													<ScoreDistribution value="1" recordCount="0.0"/>
												</Node>
												<Node id="59">
													<SimplePredicate field="qua1" operator="greaterThan" value="2.2378304"/>
													<Node id="60">
														<SimplePredicate field="qua1" operator="lessOrEqual" value="4.5221987"/>
														<Node id="61">
															<SimplePredicate field="rms" operator="lessOrEqual" value="5.222186"/>
															<Node id="62">
																<SimplePredicate field="mean" operator="lessOrEqual" value="3.3479738"/>
																<Node id="63" score="1" recordCount="9.0">
																	<SimplePredicate field="mean" operator="lessOrEqual" value="3.3001697"/>
																	<ScoreDistribution value="0" recordCount="0.0"/>
																	<ScoreDistribution value="1" recordCount="9.0"/>
																</Node>
																<Node id="64" score="0" recordCount="1.0">
																	<SimplePredicate field="mean" operator="greaterThan" value="3.3001697"/>
																	<ScoreDistribution value="0" recordCount="1.0"/>
																	<ScoreDistribution value="1" recordCount="0.0"/>
																</Node>
															</Node>
															<Node id="65" score="1" recordCount="86.0">
																<SimplePredicate field="mean" operator="greaterThan" value="3.3479738"/>
																<ScoreDistribution value="0" recordCount="0.0"/>
																<ScoreDistribution value="1" recordCount="86.0"/>
															</Node>
														</Node>
														<Node id="66">
															<SimplePredicate field="rms" operator="greaterThan" value="5.222186"/>
															<Node id="67" score="0" recordCount="2.0">
																<SimplePredicate field="std" operator="lessOrEqual" value="1.5425992"/>
																<ScoreDistribution value="0" recordCount="2.0"/>
																<ScoreDistribution value="1" recordCount="0.0"/>
															</Node>
															<Node id="68">
																<SimplePredicate field="std" operator="greaterThan" value="1.5425992"/>
																<Node id="69" score="0" recordCount="1.0">
																	<SimplePredicate field="qua1" operator="lessOrEqual" value="2.5106697"/>
																	<ScoreDistribution value="0" recordCount="1.0"/>
																	<ScoreDistribution value="1" recordCount="0.0"/>
																</Node>
																<Node id="70" score="1" recordCount="32.0">
																	<SimplePredicate field="qua1" operator="greaterThan" value="2.5106697"/>
																	<ScoreDistribution value="0" recordCount="0.0"/>
																	<ScoreDistribution value="1" recordCount="32.0"/>
																</Node>
															</Node>
														</Node>
													</Node>
													<Node id="71">
														<SimplePredicate field="qua1" operator="greaterThan" value="4.5221987"/>
														<Node id="72" score="0" recordCount="1.0">
															<SimplePredicate field="fft5" operator="lessOrEqual" value="12.363278"/>
															<ScoreDistribution value="0" recordCount="1.0"/>
															<ScoreDistribution value="1" recordCount="0.0"/>
														</Node>
														<Node id="73">
															<SimplePredicate field="fft5" operator="greaterThan" value="12.363278"/>
															<Node id="74" score="1" recordCount="6.0">
																<SimplePredicate field="std" operator="lessOrEqual" value="2.3114128"/>
																<ScoreDistribution value="0" recordCount="0.0"/>
																<ScoreDistribution value="1" recordCount="6.0"/>
															</Node>
															<Node id="75" score="0" recordCount="1.0">
																<SimplePredicate field="std" operator="greaterThan" value="2.3114128"/>
																<ScoreDistribution value="0" recordCount="1.0"/>
																<ScoreDistribution value="1" recordCount="0.0"/>
															</Node>
														</Node>
													</Node>
												</Node>
											</Node>
										</Node>
										<Node id="76">
											<SimplePredicate field="fft3" operator="greaterThan" value="190.65216"/>
											<Node id="77">
												<SimplePredicate field="skew" operator="lessOrEqual" value="0.30847436"/>
												<Node id="78">
													<SimplePredicate field="fft3" operator="lessOrEqual" value="235.37247"/>
													<Node id="79" score="0" recordCount="4.0">
														<SimplePredicate field="mean" operator="lessOrEqual" value="4.631689"/>
														<ScoreDistribution value="0" recordCount="4.0"/>
														<ScoreDistribution value="1" recordCount="0.0"/>
													</Node>
													<Node id="80" score="1" recordCount="2.0">
														<SimplePredicate field="mean" operator="greaterThan" value="4.631689"/>
														<ScoreDistribution value="0" recordCount="0.0"/>
														<ScoreDistribution value="1" recordCount="2.0"/>
													</Node>
												</Node>
												<Node id="81">
													<SimplePredicate field="fft3" operator="greaterThan" value="235.37247"/>
													<Node id="82">
														<SimplePredicate field="rms" operator="lessOrEqual" value="5.074603"/>
														<Node id="83" score="1" recordCount="2.0">
															<SimplePredicate field="range" operator="lessOrEqual" value="9.769541"/>
															<ScoreDistribution value="0" recordCount="0.0"/>
															<ScoreDistribution value="1" recordCount="2.0"/>
														</Node>
														<Node id="84" score="0" recordCount="3.0">
															<SimplePredicate field="range" operator="greaterThan" value="9.769541"/>
															<ScoreDistribution value="0" recordCount="3.0"/>
															<ScoreDistribution value="1" recordCount="0.0"/>
														</Node>
													</Node>
													<Node id="85">
														<SimplePredicate field="rms" operator="greaterThan" value="5.074603"/>
														<Node id="86" score="1" recordCount="16.0">
															<SimplePredicate field="rms" operator="lessOrEqual" value="6.0493608"/>
															<ScoreDistribution value="0" recordCount="0.0"/>
															<ScoreDistribution value="1" recordCount="16.0"/>
														</Node>
														<Node id="87">
															<SimplePredicate field="rms" operator="greaterThan" value="6.0493608"/>
															<Node id="88" score="0" recordCount="1.0">
																<SimplePredicate field="fft4" operator="lessOrEqual" value="777.79895"/>
																<ScoreDistribution value="0" recordCount="1.0"/>
																<ScoreDistribution value="1" recordCount="0.0"/>
															</Node>
															<Node id="89" score="1" recordCount="5.0">
																<SimplePredicate field="fft4" operator="greaterThan" value="777.79895"/>
																<ScoreDistribution value="0" recordCount="0.0"/>
																<ScoreDistribution value="1" recordCount="5.0"/>
															</Node>
														</Node>
													</Node>
												</Node>
											</Node>
											<Node id="90">
												<SimplePredicate field="skew" operator="greaterThan" value="0.30847436"/>
												<Node id="91" score="1" recordCount="1.0">
													<SimplePredicate field="qua1" operator="lessOrEqual" value="2.7212596"/>
													<ScoreDistribution value="0" recordCount="0.0"/>
													<ScoreDistribution value="1" recordCount="1.0"/>
												</Node>
												<Node id="92" score="0" recordCount="5.0">
													<SimplePredicate field="qua1" operator="greaterThan" value="2.7212596"/>
													<ScoreDistribution value="0" recordCount="5.0"/>
													<ScoreDistribution value="1" recordCount="0.0"/>
												</Node>
											</Node>
										</Node>
									</Node>
								</Node>
								<Node id="93" score="0" recordCount="4.0">
									<SimplePredicate field="skew" operator="greaterThan" value="1.2891363"/>
									<ScoreDistribution value="0" recordCount="4.0"/>
									<ScoreDistribution value="1" recordCount="0.0"/>
								</Node>
							</Node>
						</Node>
					</Node>
				</TreeModel>
			</Segment>
			<Segment id="5">
				<True/>
				<TreeModel functionName="classification" splitCharacteristic="binarySplit">
					<MiningSchema>
						<MiningField name="mean"/>
						<MiningField name="std"/>
						<MiningField name="mad"/>
						<MiningField name="rms"/>
						<MiningField name="range"/>
						<MiningField name="skew"/>
						<MiningField name="qua1"/>
						<MiningField name="fft3"/>
						<MiningField name="fft4"/>
						<MiningField name="fft5"/>
					</MiningSchema>
					<Node id="1">
						<True/>
						<Node id="2">
							<SimplePredicate field="std" operator="lessOrEqual" value="0.38721478"/>
							<Node id="3">
								<SimplePredicate field="rms" operator="lessOrEqual" value="3.856001"/>
								<Node id="4" score="0" recordCount="3.0">
									<SimplePredicate field="qua1" operator="lessOrEqual" value="3.2976637"/>
									<ScoreDistribution value="0" recordCount="3.0"/>
									<ScoreDistribution value="1" recordCount="0.0"/>
								</Node>
								<Node id="5" score="1" recordCount="4.0">
									<SimplePredicate field="qua1" operator="greaterThan" value="3.2976637"/>
									<ScoreDistribution value="0" recordCount="0.0"/>
									<ScoreDistribution value="1" recordCount="4.0"/>
								</Node>
							</Node>
							<Node id="6">
								<SimplePredicate field="rms" operator="greaterThan" value="3.856001"/>
								<Node id="7">
									<SimplePredicate field="mean" operator="lessOrEqual" value="4.44052"/>
									<Node id="8" score="1" recordCount="1.0">
										<SimplePredicate field="fft5" operator="lessOrEqual" value="0.01672656"/>
										<ScoreDistribution value="0" recordCount="0.0"/>
										<ScoreDistribution value="1" recordCount="1.0"/>
									</Node>
									<Node id="9" score="0" recordCount="106.0">
										<SimplePredicate field="fft5" operator="greaterThan" value="0.01672656"/>
										<ScoreDistribution value="0" recordCount="106.0"/>
										<ScoreDistribution value="1" recordCount="0.0"/>
									</Node>
								</Node>
								<Node id="10">
									<SimplePredicate field="mean" operator="greaterThan" value="4.44052"/>
									<Node id="11" score="1" recordCount="7.0">
										<SimplePredicate field="fft3" operator="lessOrEqual" value="6.5339885"/>
										<ScoreDistribution value="0" recordCount="0.0"/>
										<ScoreDistribution value="1" recordCount="7.0"/>
									</Node>
									<Node id="12" score="0" recordCount="1.0">
										<SimplePredicate field="fft3" operator="greaterThan" value="6.5339885"/>
										<ScoreDistribution value="0" recordCount="1.0"/>
										<ScoreDistribution value="1" recordCount="0.0"/>
									</Node>
								</Node>
							</Node>
						</Node>
						<Node id="13">
							<SimplePredicate field="std" operator="greaterThan" value="0.38721478"/>
							<Node id="14">
								<SimplePredicate field="qua1" operator="lessOrEqual" value="2.246609"/>
								<Node id="15">
									<SimplePredicate field="fft4" operator="lessOrEqual" value="591.48413"/>
									<Node id="16">
										<SimplePredicate field="qua1" operator="lessOrEqual" value="-6.059874"/>
										<Node id="17" score="1" recordCount="6.0">
											<SimplePredicate field="mean" operator="lessOrEqual" value="-5.2973127"/>
											<ScoreDistribution value="0" recordCount="0.0"/>
											<ScoreDistribution value="1" recordCount="6.0"/>
										</Node>
										<Node id="18" score="0" recordCount="7.0">
											<SimplePredicate field="mean" operator="greaterThan" value="-5.2973127"/>
											<ScoreDistribution value="0" recordCount="7.0"/>
											<ScoreDistribution value="1" recordCount="0.0"/>
										</Node>
									</Node>
									<Node id="19">
										<SimplePredicate field="qua1" operator="greaterThan" value="-6.059874"/>
										<Node id="20" score="1" recordCount="3.0">
											<SimplePredicate field="mean" operator="lessOrEqual" value="-5.0918984"/>
											<ScoreDistribution value="0" recordCount="0.0"/>
											<ScoreDistribution value="1" recordCount="3.0"/>
										</Node>
										<Node id="21">
											<SimplePredicate field="mean" operator="greaterThan" value="-5.0918984"/>
											<Node id="22">
												<SimplePredicate field="mad" operator="lessOrEqual" value="2.054393"/>
												<Node id="23" score="1" recordCount="2.0">
													<SimplePredicate field="rms" operator="lessOrEqual" value="4.01039"/>
													<ScoreDistribution value="0" recordCount="0.0"/>
													<ScoreDistribution value="1" recordCount="2.0"/>
												</Node>
												<Node id="24" score="0" recordCount="179.0">
													<SimplePredicate field="rms" operator="greaterThan" value="4.01039"/>
													<ScoreDistribution value="0" recordCount="179.0"/>
													<ScoreDistribution value="1" recordCount="0.0"/>
												</Node>
											</Node>
											<Node id="25">
												<SimplePredicate field="mad" operator="greaterThan" value="2.054393"/>
												<Node id="26" score="1" recordCount="7.0">
													<SimplePredicate field="range" operator="lessOrEqual" value="11.507332"/>
													<ScoreDistribution value="0" recordCount="0.0"/>
													<ScoreDistribution value="1" recordCount="7.0"/>
												</Node>
												<Node id="27" score="0" recordCount="14.0">
													<SimplePredicate field="range" operator="greaterThan" value="11.507332"/>
													<ScoreDistribution value="0" recordCount="14.0"/>
													<ScoreDistribution value="1" recordCount="0.0"/>
												</Node>
											</Node>
										</Node>
									</Node>
								</Node>
								<Node id="28">
									<SimplePredicate field="fft4" operator="greaterThan" value="591.48413"/>
									<Node id="29" score="1" recordCount="17.0">
										<SimplePredicate field="mad" operator="lessOrEqual" value="3.500165"/>
										<ScoreDistribution value="0" recordCount="0.0"/>
										<ScoreDistribution value="1" recordCount="17.0"/>
									</Node>
									<Node id="30" score="0" recordCount="4.0">
										<SimplePredicate field="mad" operator="greaterThan" value="3.500165"/>
										<ScoreDistribution value="0" recordCount="4.0"/>
										<ScoreDistribution value="1" recordCount="0.0"/>
									</Node>
								</Node>
							</Node>
							<Node id="31">
								<SimplePredicate field="qua1" operator="greaterThan" value="2.246609"/>
								<Node id="32">
									<SimplePredicate field="fft3" operator="lessOrEqual" value="148.20561"/>
									<Node id="33">
										<SimplePredicate field="mean" operator="lessOrEqual" value="3.3424673"/>
										<Node id="34" score="0" recordCount="9.0">
											<SimplePredicate field="fft4" operator="lessOrEqual" value="20.686634"/>
											<ScoreDistribution value="0" recordCount="9.0"/>
											<ScoreDistribution value="1" recordCount="0.0"/>
										</Node>
										<Node id="35" score="1" recordCount="4.0">
											<SimplePredicate field="fft4" operator="greaterThan" value="20.686634"/>
											<ScoreDistribution value="0" recordCount="0.0"/>
											<ScoreDistribution value="1" recordCount="4.0"/>
										</Node>
									</Node>
									<Node id="36">
										<SimplePredicate field="mean" operator="greaterThan" value="3.3424673"/>
										<Node id="37">
											<SimplePredicate field="fft3" operator="lessOrEqual" value="0.49030113"/>
											<Node id="38" score="1" recordCount="1.0">
												<SimplePredicate field="rms" operator="lessOrEqual" value="3.965061"/>
												<ScoreDistribution value="0" recordCount="0.0"/>
												<ScoreDistribution value="1" recordCount="1.0"/>
											</Node>
											<Node id="39" score="0" recordCount="5.0">
												<SimplePredicate field="rms" operator="greaterThan" value="3.965061"/>
												<ScoreDistribution value="0" recordCount="5.0"/>
												<ScoreDistribution value="1" recordCount="0.0"/>
											</Node>
										</Node>
										<Node id="40">
											<SimplePredicate field="fft3" operator="greaterThan" value="0.49030113"/>
											<Node id="41">
												<SimplePredicate field="range" operator="lessOrEqual" value="2.79124"/>
												<Node id="42" score="0" recordCount="3.0">
													<SimplePredicate field="mean" operator="lessOrEqual" value="3.58574"/>
													<ScoreDistribution value="0" recordCount="3.0"/>
													<ScoreDistribution value="1" recordCount="0.0"/>
												</Node>
												<Node id="43">
													<SimplePredicate field="mean" operator="greaterThan" value="3.58574"/>
													<Node id="44" score="1" recordCount="16.0">
														<SimplePredicate field="range" operator="lessOrEqual" value="1.9839954"/>
														<ScoreDistribution value="0" recordCount="0.0"/>
														<ScoreDistribution value="1" recordCount="16.0"/>
													</Node>
													<Node id="45">
														<SimplePredicate field="range" operator="greaterThan" value="1.9839954"/>
														<Node id="46" score="1" recordCount="6.0">
															<SimplePredicate field="rms" operator="lessOrEqual" value="4.146825"/>
															<ScoreDistribution value="0" recordCount="0.0"/>
															<ScoreDistribution value="1" recordCount="6.0"/>
														</Node>
														<Node id="47" score="0" recordCount="6.0">
															<SimplePredicate field="rms" operator="greaterThan" value="4.146825"/>
															<ScoreDistribution value="0" recordCount="6.0"/>
															<ScoreDistribution value="1" recordCount="0.0"/>
														</Node>
													</Node>
												</Node>
											</Node>
											<Node id="48">
												<SimplePredicate field="range" operator="greaterThan" value="2.79124"/>
												<Node id="49">
													<SimplePredicate field="fft3" operator="lessOrEqual" value="95.76307"/>
													<Node id="50" score="0" recordCount="1.0">
														<SimplePredicate field="fft5" operator="lessOrEqual" value="0.41835585"/>
														<ScoreDistribution value="0" recordCount="1.0"/>
														<ScoreDistribution value="1" recordCount="0.0"/>
													</Node>
													<Node id="51">
														<SimplePredicate field="fft5" operator="greaterThan" value="0.41835585"/>
														<Node id="52">
															<SimplePredicate field="mad" operator="lessOrEqual" value="0.5256013"/>
															<Node id="53" score="1" recordCount="8.0">
																<SimplePredicate field="fft5" operator="lessOrEqual" value="41.794144"/>
																<ScoreDistribution value="0" recordCount="0.0"/>
																<ScoreDistribution value="1" recordCount="8.0"/>
															</Node>
															<Node id="54">
																<SimplePredicate field="fft5" operator="greaterThan" value="41.794144"/>
																<Node id="55" score="0" recordCount="1.0">
																	<SimplePredicate field="fft5" operator="lessOrEqual" value="85.60099"/>
																	<ScoreDistribution value="0" recordCount="1.0"/>
																	<ScoreDistribution value="1" recordCount="0.0"/>
																</Node>
																<Node id="56" score="1" recordCount="2.0">
																	<SimplePredicate field="fft5" operator="greaterThan" value="85.60099"/>
																	<ScoreDistribution value="0" recordCount="0.0"/>
																	<ScoreDistribution value="1" recordCount="2.0"/>
																</Node>
															</Node>
														</Node>
														<Node id="57" score="1" recordCount="99.0">
															<SimplePredicate field="mad" operator="greaterThan" value="0.5256013"/>
															<ScoreDistribution value="0" recordCount="0.0"/>
															<ScoreDistribution value="1" recordCount="99.0"/>
														</Node>
													</Node>
												</Node>
												<Node id="58">
													<SimplePredicate field="fft3" operator="greaterThan" value="95.76307"/>
													<Node id="59">
														<SimplePredicate field="fft3" operator="lessOrEqual" value="99.96921"/>
														<Node id="60" score="0" recordCount="4.0">
															<SimplePredicate field="range" operator="lessOrEqual" value="6.592434"/>
															<ScoreDistribution value="0" recordCount="4.0"/>
															<ScoreDistribution value="1" recordCount="0.0"/>
														</Node>
														<Node id="61" score="1" recordCount="1.0">
															<SimplePredicate field="range" operator="greaterThan" value="6.592434"/>
															<ScoreDistribution value="0" recordCount="0.0"/>
															<ScoreDistribution value="1" recordCount="1.0"/>
														</Node>
													</Node>
													<Node id="62">
														<SimplePredicate field="fft3" operator="greaterThan" value="99.96921"/>
														<Node id="63">
															<SimplePredicate field="fft5" operator="lessOrEqual" value="404.64154"/>
															<Node id="64" score="1" recordCount="15.0">
																<SimplePredicate field="std" operator="lessOrEqual" value="2.3121614"/>
																<ScoreDistribution value="0" recordCount="0.0"/>
																<ScoreDistribution value="1" recordCount="15.0"/>
															</Node>
															<Node id="65" score="0" recordCount="1.0">
																<SimplePredicate field="std" operator="greaterThan" value="2.3121614"/>
																<ScoreDistribution value="0" recordCount="1.0"/>
																<ScoreDistribution value="1" recordCount="0.0"/>
															</Node>
														</Node>
														<Node id="66" score="0" recordCount="1.0">
															<SimplePredicate field="fft5" operator="greaterThan" value="404.64154"/>
															<ScoreDistribution value="0" recordCount="1.0"/>
															<ScoreDistribution value="1" recordCount="0.0"/>
														</Node>
													</Node>
												</Node>
											</Node>
										</Node>
									</Node>
								</Node>
								<Node id="67">
									<SimplePredicate field="fft3" operator="greaterThan" value="148.20561"/>
									<Node id="68">
										<SimplePredicate field="rms" operator="lessOrEqual" value="5.2424393"/>
										<Node id="69" score="1" recordCount="3.0">
											<SimplePredicate field="fft5" operator="lessOrEqual" value="41.11577"/>
											<ScoreDistribution value="0" recordCount="0.0"/>
											<ScoreDistribution value="1" recordCount="3.0"/>
										</Node>
										<Node id="70">
											<SimplePredicate field="fft5" operator="greaterThan" value="41.11577"/>
											<Node id="71">
												<SimplePredicate field="mean" operator="lessOrEqual" value="4.8153086"/>
												<Node id="72" score="0" recordCount="14.0">
													<SimplePredicate field="range" operator="lessOrEqual" value="13.37441"/>
													<ScoreDistribution value="0" recordCount="14.0"/>
													<ScoreDistribution value="1" recordCount="0.0"/>
												</Node>
												<Node id="73" score="1" recordCount="1.0">
													<SimplePredicate field="range" operator="greaterThan" value="13.37441"/>
													<ScoreDistribution value="0" recordCount="0.0"/>
													<ScoreDistribution value="1" recordCount="1.0"/>
												</Node>
											</Node>
											<Node id="74" score="1" recordCount="1.0">
												<SimplePredicate field="mean" operator="greaterThan" value="4.8153086"/>
												<ScoreDistribution value="0" recordCount="0.0"/>
												<ScoreDistribution value="1" recordCount="1.0"/>
											</Node>
										</Node>
									</Node>
									<Node id="75">
										<SimplePredicate field="rms" operator="greaterThan" value="5.2424393"/>
										<Node id="76">
											<SimplePredicate field="skew" operator="lessOrEqual" value="0.46531963"/>
											<Node id="77">
												<SimplePredicate field="skew" operator="lessOrEqual" value="-0.6559496"/>
												<Node id="78" score="1" recordCount="3.0">
													<SimplePredicate field="mean" operator="lessOrEqual" value="4.5095663"/>
													<ScoreDistribution value="0" recordCount="0.0"/>
													<ScoreDistribution value="1" recordCount="3.0"/>
												</Node>
												<Node id="79" score="0" recordCount="5.0">
													<SimplePredicate field="mean" operator="greaterThan" value="4.5095663"/>
													<ScoreDistribution value="0" recordCount="5.0"/>
													<ScoreDistribution value="1" recordCount="0.0"/>
												</Node>
											</Node>
											<Node id="80">
												<SimplePredicate field="skew" operator="greaterThan" value="-0.6559496"/>
												<Node id="81">
													<SimplePredicate field="mean" operator="lessOrEqual" value="3.975144"/>
													<Node id="82" score="0" recordCount="3.0">
														<SimplePredicate field="range" operator="lessOrEqual" value="17.074648"/>
														<ScoreDistribution value="0" recordCount="3.0"/>
														<ScoreDistribution value="1" recordCount="0.0"/>
													</Node>
													<Node id="83" score="1" recordCount="1.0">
														<SimplePredicate field="range" operator="greaterThan" value="17.074648"/>
														<ScoreDistribution value="0" recordCount="0.0"/>
														<ScoreDistribution value="1" recordCount="1.0"/>
													</Node>
												</Node>
												<Node id="84" score="1" recordCount="23.0">
													<SimplePredicate field="mean" operator="greaterThan" value="3.975144"/>
													<ScoreDistribution value="0" recordCount="0.0"/>
													<ScoreDistribution value="1" recordCount="23.0"/>
												</Node>
											</Node>
										</Node>
										<Node id="85" score="0" recordCount="3.0">
											<SimplePredicate field="skew" operator="greaterThan" value="0.46531963"/>
											<ScoreDistribution value="0" recordCount="3.0"/>
											<ScoreDistribution value="1" recordCount="0.0"/>
										</Node>
									</Node>
								</Node>
							</Node>
						</Node>
					</Node>
				</TreeModel>
			</Segment>
			<Segment id="6">
				<True/>
				<TreeModel functionName="classification" splitCharacteristic="binarySplit">
					<MiningSchema>
						<MiningField name="mean"/>
						<MiningField name="std"/>
						<MiningField name="mad"/>
						<MiningField name="rms"/>
						<MiningField name="range"/>
						<MiningField name="skew"/>
						<MiningField name="qua1"/>
						<MiningField name="fft3"/>
						<MiningField name="fft4"/>
						<MiningField name="fft5"/>
					</MiningSchema>
					<Node id="1">
						<True/>
						<Node id="2">
							<SimplePredicate field="qua1" operator="lessOrEqual" value="2.01078"/>
							<Node id="3">
								<SimplePredicate field="fft3" operator="lessOrEqual" value="826.8246"/>
								<Node id="4">
									<SimplePredicate field="rms" operator="lessOrEqual" value="5.6615977"/>
									<Node id="5">
										<SimplePredicate field="fft3" operator="lessOrEqual" value="561.9254"/>
										<Node id="6">
											<SimplePredicate field="qua1" operator="lessOrEqual" value="-5.457533"/>
											<Node id="7">
												<SimplePredicate field="qua1" operator="lessOrEqual" value="-5.469504"/>
												<Node id="8">
													<SimplePredicate field="mad" operator="lessOrEqual" value="0.7401215"/>
													<Node id="9" score="0" recordCount="3.0">
														<SimplePredicate field="range" operator="lessOrEqual" value="3.5019188"/>
														<ScoreDistribution value="0" recordCount="3.0"/>
														<ScoreDistribution value="1" recordCount="0.0"/>
													</Node>
													<Node id="10" score="1" recordCount="1.0">
														<SimplePredicate field="range" operator="greaterThan" value="3.5019188"/>
														<ScoreDistribution value="0" recordCount="0.0"/>
														<ScoreDistribution value="1" recordCount="1.0"/>
													</Node>
												</Node>
												<Node id="11" score="0" recordCount="37.0">
													<SimplePredicate field="mad" operator="greaterThan" value="0.7401215"/>
													<ScoreDistribution value="0" recordCount="37.0"/>
													<ScoreDistribution value="1" recordCount="0.0"/>
												</Node>
											</Node>
											<Node id="12" score="1" recordCount="1.0">
												<SimplePredicate field="qua1" operator="greaterThan" value="-5.469504"/>
												<ScoreDistribution value="0" recordCount="0.0"/>
												<ScoreDistribution value="1" recordCount="1.0"/>
											</Node>
										</Node>
										<Node id="13" score="0" recordCount="247.0">
											<SimplePredicate field="qua1" operator="greaterThan" value="-5.457533"/>
											<ScoreDistribution value="0" recordCount="247.0"/>
											<ScoreDistribution value="1" recordCount="0.0"/>
										</Node>
									</Node>
									<Node id="14">
										<SimplePredicate field="fft3" operator="greaterThan" value="561.9254"/>
										<Node id="15" score="0" recordCount="4.0">
											<SimplePredicate field="mean" operator="lessOrEqual" value="1.0164363"/>
											<ScoreDistribution value="0" recordCount="4.0"/>
											<ScoreDistribution value="1" recordCount="0.0"/>
										</Node>
										<Node id="16" score="1" recordCount="2.0">
											<SimplePredicate field="mean" operator="greaterThan" value="1.0164363"/>
											<ScoreDistribution value="0" recordCount="0.0"/>
											<ScoreDistribution value="1" recordCount="2.0"/>
										</Node>
									</Node>
								</Node>
								<Node id="17">
									<SimplePredicate field="rms" operator="greaterThan" value="5.6615977"/>
									<Node id="18" score="1" recordCount="9.0">
