<?xml version="1.0" encoding="UTF-8" standalone="yes"?>
<PMML xmlns="http://www.dmg.org/PMML-4_3" version="4.3">
	<Header>
		<Application name="JPMML-SkLearn" version="1.1.3"/>
		<Timestamp>2016-11-09T23:25:52Z</Timestamp>
	</Header>
	<DataDictionary>
		<DataField name="mean" optype="continuous" dataType="float"/>
		<DataField name="std" optype="continuous" dataType="float"/>
		<DataField name="var" optype="continuous" dataType="float"/>
		<DataField name="mad" optype="continuous" dataType="float"/>
		<DataField name="rms" optype="continuous" dataType="float"/>
		<DataField name="range" optype="continuous" dataType="float"/>
		<DataField name="skew" optype="continuous" dataType="float"/>
		<DataField name="kurt" optype="continuous" dataType="float"/>
		<DataField name="mag" optype="continuous" dataType="float"/>
		<DataField name="qua1" optype="continuous" dataType="float"/>
		<DataField name="qua2" optype="continuous" dataType="float"/>
		<DataField name="qua3" optype="continuous" dataType="float"/>
		<DataField name="fft1" optype="continuous" dataType="float"/>
		<DataField name="fft2" optype="continuous" dataType="float"/>
		<DataField name="fft3" optype="continuous" dataType="float"/>
		<DataField name="fft4" optype="continuous" dataType="float"/>
		<DataField name="fft5" optype="continuous" dataType="float"/>
		<DataField name="label" optype="categorical" dataType="integer">
			<Value value="0"/>
			<Value value="1"/>
		</DataField>
	</DataDictionary>
	<MiningModel functionName="classification">
		<MiningSchema>
			<MiningField name="label" usageType="target"/>
			<MiningField name="mean"/>
			<MiningField name="std"/>
			<MiningField name="var"/>
			<MiningField name="mad"/>
			<MiningField name="rms"/>
			<MiningField name="range"/>
			<MiningField name="skew"/>
			<MiningField name="kurt"/>
			<MiningField name="mag"/>
			<MiningField name="qua1"/>
			<MiningField name="qua2"/>
			<MiningField name="qua3"/>
			<MiningField name="fft1"/>
			<MiningField name="fft2"/>
			<MiningField name="fft3"/>
			<MiningField name="fft4"/>
			<MiningField name="fft5"/>
		</MiningSchema>
		<Output>
			<OutputField name="probability_0" optype="continuous" dataType="double" feature="probability" value="0"/>
			<OutputField name="probability_1" optype="continuous" dataType="double" feature="probability" value="1"/>
		</Output>
		<Segmentation multipleModelMethod="average">
			<Segment id="1">
				<True/>
				<TreeModel functionName="classification" splitCharacteristic="binarySplit">
					<MiningSchema>
						<MiningField name="mean"/>
						<MiningField name="var"/>
						<MiningField name="mad"/>
						<MiningField name="rms"/>
						<MiningField name="range"/>
						<MiningField name="skew"/>
						<MiningField name="kurt"/>
						<MiningField name="mag"/>
						<MiningField name="qua1"/>
						<MiningField name="qua2"/>
						<MiningField name="qua3"/>
						<MiningField name="fft2"/>
						<MiningField name="fft3"/>
						<MiningField name="fft4"/>
						<MiningField name="fft5"/>
					</MiningSchema>
					<Node id="1">
						<True/>
						<Node id="2">
							<SimplePredicate field="mean" operator="lessOrEqual" value="2.8060813"/>
							<Node id="3">
								<SimplePredicate field="fft3" operator="lessOrEqual" value="839.76953"/>
								<Node id="4">
									<SimplePredicate field="qua3" operator="lessOrEqual" value="-4.5459404"/>
									<Node id="5">
										<SimplePredicate field="kurt" operator="lessOrEqual" value="0.6519803"/>
										<Node id="6" score="1" recordCount="1.0">
											<SimplePredicate field="fft5" operator="lessOrEqual" value="0.5406227"/>
											<ScoreDistribution value="0" recordCount="0.0"/>
											<ScoreDistribution value="1" recordCount="1.0"/>
										</Node>
										<Node id="7" score="0" recordCount="8.0">
											<SimplePredicate field="fft5" operator="greaterThan" value="0.5406227"/>
											<ScoreDistribution value="0" recordCount="8.0"/>
											<ScoreDistribution value="1" recordCount="0.0"/>
										</Node>
									</Node>
									<Node id="8" score="1" recordCount="3.0">
										<SimplePredicate field="kurt" operator="greaterThan" value="0.6519803"/>
										<ScoreDistribution value="0" recordCount="0.0"/>
										<ScoreDistribution value="1" recordCount="3.0"/>
									</Node>
								</Node>
								<Node id="9">
									<SimplePredicate field="qua3" operator="greaterThan" value="-4.5459404"/>
									<Node id="10">
										<SimplePredicate field="fft4" operator="lessOrEqual" value="194.94765"/>
										<Node id="11" score="0" recordCount="217.0">
											<SimplePredicate field="skew" operator="lessOrEqual" value="0.37822866"/>
											<ScoreDistribution value="0" recordCount="217.0"/>
											<ScoreDistribution value="1" recordCount="0.0"/>
										</Node>
										<Node id="12">
											<SimplePredicate field="skew" operator="greaterThan" value="0.37822866"/>
											<Node id="13" score="0" recordCount="27.0">
												<SimplePredicate field="qua3" operator="lessOrEqual" value="2.972052"/>
												<ScoreDistribution value="0" recordCount="27.0"/>
												<ScoreDistribution value="1" recordCount="0.0"/>
											</Node>
											<Node id="14" score="1" recordCount="2.0">
												<SimplePredicate field="qua3" operator="greaterThan" value="2.972052"/>
												<ScoreDistribution value="0" recordCount="0.0"/>
												<ScoreDistribution value="1" recordCount="2.0"/>
											</Node>
										</Node>
									</Node>
									<Node id="15">
										<SimplePredicate field="fft4" operator="greaterThan" value="194.94765"/>
										<Node id="16" score="1" recordCount="2.0">
											<SimplePredicate field="mean" operator="lessOrEqual" value="-4.845955"/>
											<ScoreDistribution value="0" recordCount="0.0"/>
											<ScoreDistribution value="1" recordCount="2.0"/>
										</Node>
										<Node id="17">
											<SimplePredicate field="mean" operator="greaterThan" value="-4.845955"/>
											<Node id="18" score="0" recordCount="11.0">
												<SimplePredicate field="qua2" operator="lessOrEqual" value="1.0975518"/>
												<ScoreDistribution value="0" recordCount="11.0"/>
												<ScoreDistribution value="1" recordCount="0.0"/>
											</Node>
											<Node id="19" score="1" recordCount="2.0">
												<SimplePredicate field="qua2" operator="greaterThan" value="1.0975518"/>
												<ScoreDistribution value="0" recordCount="0.0"/>
												<ScoreDistribution value="1" recordCount="2.0"/>
											</Node>
										</Node>
									</Node>
								</Node>
							</Node>
							<Node id="20">
								<SimplePredicate field="fft3" operator="greaterThan" value="839.76953"/>
								<Node id="21">
									<SimplePredicate field="mad" operator="lessOrEqual" value="3.2837958"/>
									<Node id="22">
										<SimplePredicate field="rms" operator="lessOrEqual" value="5.2771616"/>
										<Node id="23" score="1" recordCount="2.0">
											<SimplePredicate field="skew" operator="lessOrEqual" value="0.23296265"/>
											<ScoreDistribution value="0" recordCount="0.0"/>
											<ScoreDistribution value="1" recordCount="2.0"/>
										</Node>
										<Node id="24" score="0" recordCount="1.0">
											<SimplePredicate field="skew" operator="greaterThan" value="0.23296265"/>
											<ScoreDistribution value="0" recordCount="1.0"/>
											<ScoreDistribution value="1" recordCount="0.0"/>
										</Node>
									</Node>
									<Node id="25" score="1" recordCount="15.0">
										<SimplePredicate field="rms" operator="greaterThan" value="5.2771616"/>
										<ScoreDistribution value="0" recordCount="0.0"/>
										<ScoreDistribution value="1" recordCount="15.0"/>
									</Node>
								</Node>
								<Node id="26" score="0" recordCount="3.0">
									<SimplePredicate field="mad" operator="greaterThan" value="3.2837958"/>
									<ScoreDistribution value="0" recordCount="3.0"/>
									<ScoreDistribution value="1" recordCount="0.0"/>
								</Node>
							</Node>
						</Node>
						<Node id="27">
							<SimplePredicate field="mean" operator="greaterThan" value="2.8060813"/>
							<Node id="28">
								<SimplePredicate field="fft3" operator="lessOrEqual" value="0.6240651"/>
								<Node id="29" score="1" recordCount="6.0">
									<SimplePredicate field="qua3" operator="lessOrEqual" value="3.5349889"/>
									<ScoreDistribution value="0" recordCount="0.0"/>
									<ScoreDistribution value="1" recordCount="6.0"/>
								</Node>
								<Node id="30">
									<SimplePredicate field="qua3" operator="greaterThan" value="3.5349889"/>
									<Node id="31" score="0" recordCount="21.0">
										<SimplePredicate field="mag" operator="lessOrEqual" value="9.75069"/>
										<ScoreDistribution value="0" recordCount="21.0"/>
										<ScoreDistribution value="1" recordCount="0.0"/>
									</Node>
									<Node id="32">
										<SimplePredicate field="mag" operator="greaterThan" value="9.75069"/>
										<Node id="33" score="1" recordCount="4.0">
											<SimplePredicate field="mag" operator="lessOrEqual" value="9.7786255"/>
											<ScoreDistribution value="0" recordCount="0.0"/>
											<ScoreDistribution value="1" recordCount="4.0"/>
										</Node>
										<Node id="34">
											<SimplePredicate field="mag" operator="greaterThan" value="9.7786255"/>
											<Node id="35" score="0" recordCount="2.0">
												<SimplePredicate field="range" operator="lessOrEqual" value="0.69894725"/>
												<ScoreDistribution value="0" recordCount="2.0"/>
												<ScoreDistribution value="1" recordCount="0.0"/>
											</Node>
											<Node id="36" score="1" recordCount="1.0">
												<SimplePredicate field="range" operator="greaterThan" value="0.69894725"/>
												<ScoreDistribution value="0" recordCount="0.0"/>
												<ScoreDistribution value="1" recordCount="1.0"/>
											</Node>
										</Node>
									</Node>
								</Node>
							</Node>
							<Node id="37">
								<SimplePredicate field="fft3" operator="greaterThan" value="0.6240651"/>
								<Node id="38">
									<SimplePredicate field="range" operator="lessOrEqual" value="7.747876"/>
									<Node id="39" score="0" recordCount="5.0">
										<SimplePredicate field="fft5" operator="lessOrEqual" value="0.027400127"/>
										<ScoreDistribution value="0" recordCount="5.0"/>
										<ScoreDistribution value="1" recordCount="0.0"/>
									</Node>
									<Node id="40">
										<SimplePredicate field="fft5" operator="greaterThan" value="0.027400127"/>
										<Node id="41" score="0" recordCount="4.0">
											<SimplePredicate field="qua1" operator="lessOrEqual" value="1.314327"/>
											<ScoreDistribution value="0" recordCount="4.0"/>
											<ScoreDistribution value="1" recordCount="0.0"/>
										</Node>
										<Node id="42">
											<SimplePredicate field="qua1" operator="greaterThan" value="1.314327"/>
											<Node id="43">
												<SimplePredicate field="fft3" operator="lessOrEqual" value="9.12438"/>
												<Node id="44">
													<SimplePredicate field="qua1" operator="lessOrEqual" value="3.7559736"/>
													<Node id="45" score="0" recordCount="1.0">
														<SimplePredicate field="qua2" operator="lessOrEqual" value="3.238128"/>
														<ScoreDistribution value="0" recordCount="1.0"/>
														<ScoreDistribution value="1" recordCount="0.0"/>
													</Node>
													<Node id="46">
														<SimplePredicate field="qua2" operator="greaterThan" value="3.238128"/>
														<Node id="47" score="1" recordCount="38.0">
															<SimplePredicate field="var" operator="lessOrEqual" value="2.7054362"/>
															<ScoreDistribution value="0" recordCount="0.0"/>
															<ScoreDistribution value="1" recordCount="38.0"/>
														</Node>
														<Node id="48">
															<SimplePredicate field="var" operator="greaterThan" value="2.7054362"/>
															<Node id="49" score="0" recordCount="1.0">
																<SimplePredicate field="mean" operator="lessOrEqual" value="4.4305973"/>
																<ScoreDistribution value="0" recordCount="1.0"/>
																<ScoreDistribution value="1" recordCount="0.0"/>
															</Node>
															<Node id="50" score="1" recordCount="2.0">
																<SimplePredicate field="mean" operator="greaterThan" value="4.4305973"/>
																<ScoreDistribution value="0" recordCount="0.0"/>
																<ScoreDistribution value="1" recordCount="2.0"/>
															</Node>
														</Node>
													</Node>
												</Node>
												<Node id="51">
													<SimplePredicate field="qua1" operator="greaterThan" value="3.7559736"/>
													<Node id="52">
														<SimplePredicate field="mean" operator="lessOrEqual" value="4.603798"/>
														<Node id="53">
															<SimplePredicate field="range" operator="lessOrEqual" value="2.7919586"/>
															<Node id="54">
																<SimplePredicate field="var" operator="lessOrEqual" value="0.0617001"/>
																<Node id="55" score="1" recordCount="2.0">
																	<SimplePredicate field="fft3" operator="lessOrEqual" value="7.0128775"/>
																	<ScoreDistribution value="0" recordCount="0.0"/>
																	<ScoreDistribution value="1" recordCount="2.0"/>
																</Node>
																<Node id="56" score="0" recordCount="4.0">
																	<SimplePredicate field="fft3" operator="greaterThan" value="7.0128775"/>
																	<ScoreDistribution value="0" recordCount="4.0"/>
																	<ScoreDistribution value="1" recordCount="0.0"/>
																</Node>
															</Node>
															<Node id="57" score="0" recordCount="10.0">
																<SimplePredicate field="var" operator="greaterThan" value="0.0617001"/>
																<ScoreDistribution value="0" recordCount="10.0"/>
																<ScoreDistribution value="1" recordCount="0.0"/>
															</Node>
														</Node>
														<Node id="58" score="1" recordCount="1.0">
															<SimplePredicate field="range" operator="greaterThan" value="2.7919586"/>
															<ScoreDistribution value="0" recordCount="0.0"/>
															<ScoreDistribution value="1" recordCount="1.0"/>
														</Node>
													</Node>
													<Node id="59">
														<SimplePredicate field="mean" operator="greaterThan" value="4.603798"/>
														<Node id="60" score="1" recordCount="18.0">
															<SimplePredicate field="mad" operator="lessOrEqual" value="0.30729926"/>
															<ScoreDistribution value="0" recordCount="0.0"/>
															<ScoreDistribution value="1" recordCount="18.0"/>
														</Node>
														<Node id="61">
															<SimplePredicate field="mad" operator="greaterThan" value="0.30729926"/>
															<Node id="62" score="0" recordCount="8.0">
																<SimplePredicate field="kurt" operator="lessOrEqual" value="0.5111584"/>
																<ScoreDistribution value="0" recordCount="8.0"/>
																<ScoreDistribution value="1" recordCount="0.0"/>
															</Node>
															<Node id="63" score="1" recordCount="2.0">
																<SimplePredicate field="kurt" operator="greaterThan" value="0.5111584"/>
																<ScoreDistribution value="0" recordCount="0.0"/>
																<ScoreDistribution value="1" recordCount="2.0"/>
															</Node>
														</Node>
													</Node>
												</Node>
											</Node>
											<Node id="64">
												<SimplePredicate field="fft3" operator="greaterThan" value="9.12438"/>
												<Node id="65">
													<SimplePredicate field="mag" operator="lessOrEqual" value="9.653738"/>
													<Node id="66">
														<SimplePredicate field="range" operator="lessOrEqual" value="5.390944"/>
														<Node id="67" score="0" recordCount="2.0">
															<SimplePredicate field="range" operator="lessOrEqual" value="1.8147249"/>
															<ScoreDistribution value="0" recordCount="2.0"/>
															<ScoreDistribution value="1" recordCount="0.0"/>
														</Node>
														<Node id="68">
															<SimplePredicate field="range" operator="greaterThan" value="1.8147249"/>
															<Node id="69" score="1" recordCount="16.0">
																<SimplePredicate field="fft4" operator="lessOrEqual" value="57.28991"/>
																<ScoreDistribution value="0" recordCount="0.0"/>
																<ScoreDistribution value="1" recordCount="16.0"/>
															</Node>
															<Node id="70" score="0" recordCount="2.0">
																<SimplePredicate field="fft4" operator="greaterThan" value="57.28991"/>
																<ScoreDistribution value="0" recordCount="2.0"/>
																<ScoreDistribution value="1" recordCount="0.0"/>
															</Node>
														</Node>
													</Node>
													<Node id="71">
														<SimplePredicate field="range" operator="greaterThan" value="5.390944"/>
														<Node id="72" score="1" recordCount="2.0">
															<SimplePredicate field="var" operator="lessOrEqual" value="2.149459"/>
															<ScoreDistribution value="0" recordCount="0.0"/>
															<ScoreDistribution value="1" recordCount="2.0"/>
														</Node>
														<Node id="73" score="0" recordCount="5.0">
															<SimplePredicate field="var" operator="greaterThan" value="2.149459"/>
															<ScoreDistribution value="0" recordCount="5.0"/>
															<ScoreDistribution value="1" recordCount="0.0"/>
														</Node>
													</Node>
												</Node>
												<Node id="74">
													<SimplePredicate field="mag" operator="greaterThan" value="9.653738"/>
													<Node id="75">
														<SimplePredicate field="fft2" operator="lessOrEqual" value="205.82654"/>
														<Node id="76" score="1" recordCount="92.0">
															<SimplePredicate field="mag" operator="lessOrEqual" value="10.21097"/>
															<ScoreDistribution value="0" recordCount="0.0"/>
															<ScoreDistribution value="1" recordCount="92.0"/>
														</Node>
														<Node id="77">
															<SimplePredicate field="mag" operator="greaterThan" value="10.21097"/>
															<Node id="78" score="0" recordCount="2.0">
																<SimplePredicate field="mag" operator="lessOrEqual" value="10.232424"/>
																<ScoreDistribution value="0" recordCount="2.0"/>
																<ScoreDistribution value="1" recordCount="0.0"/>
															</Node>
															<Node id="79" score="1" recordCount="15.0">
																<SimplePredicate field="mag" operator="greaterThan" value="10.232424"/>
																<ScoreDistribution value="0" recordCount="0.0"/>
																<ScoreDistribution value="1" recordCount="15.0"/>
															</Node>
														</Node>
													</Node>
													<Node id="80">
														<SimplePredicate field="fft2" operator="greaterThan" value="205.82654"/>
														<Node id="81">
															<SimplePredicate field="fft4" operator="lessOrEqual" value="16.12062"/>
															<Node id="82" score="1" recordCount="1.0">
																<SimplePredicate field="fft5" operator="lessOrEqual" value="4.7288537"/>
																<ScoreDistribution value="0" recordCount="0.0"/>
																<ScoreDistribution value="1" recordCount="1.0"/>
															</Node>
															<Node id="83" score="0" recordCount="4.0">
																<SimplePredicate field="fft5" operator="greaterThan" value="4.7288537"/>
																<ScoreDistribution value="0" recordCount="4.0"/>
																<ScoreDistribution value="1" recordCount="0.0"/>
															</Node>
														</Node>
														<Node id="84">
															<SimplePredicate field="fft4" operator="greaterThan" value="16.12062"/>
															<Node id="85" score="1" recordCount="25.0">
																<SimplePredicate field="qua1" operator="lessOrEqual" value="3.9568672"/>
																<ScoreDistribution value="0" recordCount="0.0"/>
																<ScoreDistribution value="1" recordCount="25.0"/>
															</Node>
															<Node id="86" score="0" recordCount="1.0">
																<SimplePredicate field="qua1" operator="greaterThan" value="3.9568672"/>
																<ScoreDistribution value="0" recordCount="1.0"/>
																<ScoreDistribution value="1" recordCount="0.0"/>
															</Node>
														</Node>
													</Node>
												</Node>
											</Node>
										</Node>
									</Node>
								</Node>
								<Node id="87">
									<SimplePredicate field="range" operator="greaterThan" value="7.747876"/>
									<Node id="88" score="1" recordCount="1.0">
										<SimplePredicate field="fft5" operator="lessOrEqual" value="36.58975"/>
										<ScoreDistribution value="0" recordCount="0.0"/>
										<ScoreDistribution value="1" recordCount="1.0"/>
									</Node>
									<Node id="89" score="0" recordCount="9.0">
										<SimplePredicate field="fft5" operator="greaterThan" value="36.58975"/>
										<ScoreDistribution value="0" recordCount="9.0"/>
										<ScoreDistribution value="1" recordCount="0.0"/>
									</Node>
								</Node>
							</Node>
						</Node>
					</Node>
				</TreeModel>
			</Segment>
			<Segment id="2">
				<True/>
				<TreeModel functionName="classification" splitCharacteristic="binarySplit">
					<MiningSchema>
						<MiningField name="mean"/>
						<MiningField name="var"/>
						<MiningField name="mad"/>
						<MiningField name="rms"/>
						<MiningField name="range"/>
						<MiningField name="kurt"/>
						<MiningField name="mag"/>
						<MiningField name="qua1"/>
						<MiningField name="qua2"/>
						<MiningField name="qua3"/>
						<MiningField name="fft1"/>
						<MiningField name="fft2"/>
						<MiningField name="fft3"/>
						<MiningField name="fft4"/>
						<MiningField name="fft5"/>
					</MiningSchema>
					<Node id="1">
						<True/>
						<Node id="2">
							<SimplePredicate field="qua3" operator="lessOrEqual" value="3.6671488"/>
							<Node id="3">
								<SimplePredicate field="fft3" operator="lessOrEqual" value="866.7901"/>
								<Node id="4" score="1" recordCount="9.0">
									<SimplePredicate field="mean" operator="lessOrEqual" value="-5.342431"/>
									<ScoreDistribution value="0" recordCount="0.0"/>
									<ScoreDistribution value="1" recordCount="9.0"/>
								</Node>
								<Node id="5">
									<SimplePredicate field="mean" operator="greaterThan" value="-5.342431"/>
									<Node id="6">
										<SimplePredicate field="qua3" operator="lessOrEqual" value="3.1308675"/>
										<Node id="7">
											<SimplePredicate field="fft3" operator="lessOrEqual" value="838.59454"/>
											<Node id="8">
												<SimplePredicate field="qua3" operator="lessOrEqual" value="-4.5208015"/>
												<Node id="9" score="0" recordCount="5.0">
													<SimplePredicate field="var" operator="lessOrEqual" value="0.5495992"/>
													<ScoreDistribution value="0" recordCount="5.0"/>
													<ScoreDistribution value="1" recordCount="0.0"/>
												</Node>
												<Node id="10" score="1" recordCount="3.0">
													<SimplePredicate field="var" operator="greaterThan" value="0.5495992"/>
													<ScoreDistribution value="0" recordCount="0.0"/>
													<ScoreDistribution value="1" recordCount="3.0"/>
												</Node>
											</Node>
											<Node id="11" score="0" recordCount="294.0">
												<SimplePredicate field="qua3" operator="greaterThan" value="-4.5208015"/>
												<ScoreDistribution value="0" recordCount="294.0"/>
												<ScoreDistribution value="1" recordCount="0.0"/>
											</Node>
										</Node>
										<Node id="12" score="1" recordCount="1.0">
											<SimplePredicate field="fft3" operator="greaterThan" value="838.59454"/>
											<ScoreDistribution value="0" recordCount="0.0"/>
											<ScoreDistribution value="1" recordCount="1.0"/>
										</Node>
									</Node>
									<Node id="13">
										<SimplePredicate field="qua3" operator="greaterThan" value="3.1308675"/>
										<Node id="14" score="0" recordCount="14.0">
											<SimplePredicate field="range" operator="lessOrEqual" value="1.3621413"/>
											<ScoreDistribution value="0" recordCount="14.0"/>
											<ScoreDistribution value="1" recordCount="0.0"/>
										</Node>
										<Node id="15">
											<SimplePredicate field="range" operator="greaterThan" value="1.3621413"/>
											<Node id="16">
												<SimplePredicate field="var" operator="lessOrEqual" value="5.56926"/>
												<Node id="17" score="0" recordCount="1.0">
													<SimplePredicate field="fft1" operator="lessOrEqual" value="7.248928"/>
													<ScoreDistribution value="0" recordCount="1.0"/>
													<ScoreDistribution value="1" recordCount="0.0"/>
												</Node>
												<Node id="18">
													<SimplePredicate field="fft1" operator="greaterThan" value="7.248928"/>
													<Node id="19">
														<SimplePredicate field="qua3" operator="lessOrEqual" value="3.3193312"/>
														<Node id="20" score="1" recordCount="3.0">
															<SimplePredicate field="kurt" operator="lessOrEqual" value="-0.5977202"/>
															<ScoreDistribution value="0" recordCount="0.0"/>
															<ScoreDistribution value="1" recordCount="3.0"/>
														</Node>
														<Node id="21" score="0" recordCount="1.0">
															<SimplePredicate field="kurt" operator="greaterThan" value="-0.5977202"/>
															<ScoreDistribution value="0" recordCount="1.0"/>
															<ScoreDistribution value="1" recordCount="0.0"/>
														</Node>
													</Node>
													<Node id="22" score="1" recordCount="7.0">
														<SimplePredicate field="qua3" operator="greaterThan" value="3.3193312"/>
														<ScoreDistribution value="0" recordCount="0.0"/>
														<ScoreDistribution value="1" recordCount="7.0"/>
													</Node>
												</Node>
											</Node>
											<Node id="23" score="0" recordCount="3.0">
												<SimplePredicate field="var" operator="greaterThan" value="5.56926"/>
												<ScoreDistribution value="0" recordCount="3.0"/>
												<ScoreDistribution value="1" recordCount="0.0"/>
											</Node>
										</Node>
									</Node>
								</Node>
							</Node>
							<Node id="24">
								<SimplePredicate field="fft3" operator="greaterThan" value="866.7901"/>
								<Node id="25">
									<SimplePredicate field="fft3" operator="lessOrEqual" value="2139.793"/>
									<Node id="26" score="1" recordCount="14.0">
										<SimplePredicate field="qua1" operator="lessOrEqual" value="-5.0802464"/>
										<ScoreDistribution value="0" recordCount="0.0"/>
										<ScoreDistribution value="1" recordCount="14.0"/>
									</Node>
									<Node id="27">
										<SimplePredicate field="qua1" operator="greaterThan" value="-5.0802464"/>
										<Node id="28" score="0" recordCount="1.0">
											<SimplePredicate field="qua3" operator="lessOrEqual" value="0.7394592"/>
											<ScoreDistribution value="0" recordCount="1.0"/>
											<ScoreDistribution value="1" recordCount="0.0"/>
										</Node>
										<Node id="29" score="1" recordCount="3.0">
											<SimplePredicate field="qua3" operator="greaterThan" value="0.7394592"/>
											<ScoreDistribution value="0" recordCount="0.0"/>
											<ScoreDistribution value="1" recordCount="3.0"/>
										</Node>
									</Node>
								</Node>
								<Node id="30" score="0" recordCount="1.0">
									<SimplePredicate field="fft3" operator="greaterThan" value="2139.793"/>
									<ScoreDistribution value="0" recordCount="1.0"/>
									<ScoreDistribution value="1" recordCount="0.0"/>
								</Node>
							</Node>
						</Node>
						<Node id="31">
							<SimplePredicate field="qua3" operator="greaterThan" value="3.6671488"/>
							<Node id="32">
								<SimplePredicate field="fft4" operator="lessOrEqual" value="131.36053"/>
								<Node id="33">
									<SimplePredicate field="mag" operator="lessOrEqual" value="9.712428"/>
									<Node id="34">
										<SimplePredicate field="rms" operator="lessOrEqual" value="4.9014454"/>
										<Node id="35">
											<SimplePredicate field="rms" operator="lessOrEqual" value="4.0447307"/>
											<Node id="36">
												<SimplePredicate field="range" operator="lessOrEqual" value="1.0683727"/>
												<Node id="37" score="1" recordCount="3.0">
													<SimplePredicate field="fft5" operator="lessOrEqual" value="1.7790682"/>
													<ScoreDistribution value="0" recordCount="0.0"/>
													<ScoreDistribution value="1" recordCount="3.0"/>
												</Node>
												<Node id="38" score="0" recordCount="2.0">
													<SimplePredicate field="fft5" operator="greaterThan" value="1.7790682"/>
													<ScoreDistribution value="0" recordCount="2.0"/>
													<ScoreDistribution value="1" recordCount="0.0"/>
												</Node>
											</Node>
											<Node id="39" score="1" recordCount="18.0">
												<SimplePredicate field="range" operator="greaterThan" value="1.0683727"/>
												<ScoreDistribution value="0" recordCount="0.0"/>
												<ScoreDistribution value="1" recordCount="18.0"/>
											</Node>
										</Node>
										<Node id="40">
											<SimplePredicate field="rms" operator="greaterThan" value="4.0447307"/>
											<Node id="41">
												<SimplePredicate field="qua3" operator="lessOrEqual" value="4.656453"/>
												<Node id="42">
													<SimplePredicate field="rms" operator="lessOrEqual" value="4.2290154"/>
													<Node id="43" score="0" recordCount="2.0">
														<SimplePredicate field="rms" operator="lessOrEqual" value="4.0818024"/>
														<ScoreDistribution value="0" recordCount="2.0"/>
														<ScoreDistribution value="1" recordCount="0.0"/>
													</Node>
													<Node id="44" score="1" recordCount="4.0">
														<SimplePredicate field="rms" operator="greaterThan" value="4.0818024"/>
														<ScoreDistribution value="0" recordCount="0.0"/>
														<ScoreDistribution value="1" recordCount="4.0"/>
													</Node>
												</Node>
												<Node id="45" score="0" recordCount="8.0">
													<SimplePredicate field="rms" operator="greaterThan" value="4.2290154"/>
													<ScoreDistribution value="0" recordCount="8.0"/>
													<ScoreDistribution value="1" recordCount="0.0"/>
												</Node>
											</Node>
											<Node id="46">
												<SimplePredicate field="qua3" operator="greaterThan" value="4.656453"/>
												<Node id="47" score="1" recordCount="11.0">
													<SimplePredicate field="mad" operator="lessOrEqual" value="0.73241246"/>
													<ScoreDistribution value="0" recordCount="0.0"/>
													<ScoreDistribution value="1" recordCount="11.0"/>
												</Node>
												<Node id="48">
													<SimplePredicate field="mad" operator="greaterThan" value="0.73241246"/>
													<Node id="49" score="0" recordCount="2.0">
														<SimplePredicate field="kurt" operator="lessOrEqual" value="-0.6012804"/>
														<ScoreDistribution value="0" recordCount="2.0"/>
														<ScoreDistribution value="1" recordCount="0.0"/>
													</Node>
													<Node id="50" score="1" recordCount="4.0">
														<SimplePredicate field="kurt" operator="greaterThan" value="-0.6012804"/>
														<ScoreDistribution value="0" recordCount="0.0"/>
														<ScoreDistribution value="1" recordCount="4.0"/>
													</Node>
												</Node>
											</Node>
										</Node>
									</Node>
									<Node id="51" score="0" recordCount="9.0">
										<SimplePredicate field="rms" operator="greaterThan" value="4.9014454"/>
										<ScoreDistribution value="0" recordCount="9.0"/>
										<ScoreDistribution value="1" recordCount="0.0"/>
									</Node>
								</Node>
								<Node id="52">
									<SimplePredicate field="mag" operator="greaterThan" value="9.712428"/>
									<Node id="53">
										<SimplePredicate field="fft1" operator="lessOrEqual" value="2.696209"/>
										<Node id="54" score="1" recordCount="4.0">
											<SimplePredicate field="mad" operator="lessOrEqual" value="0.09283239"/>
											<ScoreDistribution value="0" recordCount="0.0"/>
											<ScoreDistribution value="1" recordCount="4.0"/>
										</Node>
										<Node id="55">
											<SimplePredicate field="mad" operator="greaterThan" value="0.09283239"/>
											<Node id="56" score="0" recordCount="5.0">
												<SimplePredicate field="fft2" operator="lessOrEqual" value="2.8888383"/>
												<ScoreDistribution value="0" recordCount="5.0"/>
												<ScoreDistribution value="1" recordCount="0.0"/>
											</Node>
											<Node id="57" score="1" recordCount="2.0">
												<SimplePredicate field="fft2" operator="greaterThan" value="2.8888383"/>
												<ScoreDistribution value="0" recordCount="0.0"/>
												<ScoreDistribution value="1" recordCount="2.0"/>
											</Node>
										</Node>
									</Node>
									<Node id="58">
										<SimplePredicate field="fft1" operator="greaterThan" value="2.696209"/>
										<Node id="59">
											<SimplePredicate field="qua1" operator="lessOrEqual" value="3.3302846"/>
											<Node id="60">
												<SimplePredicate field="qua1" operator="lessOrEqual" value="3.2047086"/>
												<Node id="61" score="1" recordCount="15.0">
													<SimplePredicate field="fft2" operator="lessOrEqual" value="235.38376"/>
													<ScoreDistribution value="0" recordCount="0.0"/>
													<ScoreDistribution value="1" recordCount="15.0"/>
												</Node>
												<Node id="62">
													<SimplePredicate field="fft2" operator="greaterThan" value="235.38376"/>
													<Node id="63" score="1" recordCount="5.0">
														<SimplePredicate field="kurt" operator="lessOrEqual" value="0.11019112"/>
														<ScoreDistribution value="0" recordCount="0.0"/>
														<ScoreDistribution value="1" recordCount="5.0"/>
													</Node>
													<Node id="64" score="0" recordCount="4.0">
														<SimplePredicate field="kurt" operator="greaterThan" value="0.11019112"/>
														<ScoreDistribution value="0" recordCount="4.0"/>
														<ScoreDistribution value="1" recordCount="0.0"/>
													</Node>
												</Node>
											</Node>
											<Node id="65">
												<SimplePredicate field="qua1" operator="greaterThan" value="3.2047086"/>
												<Node id="66">
													<SimplePredicate field="fft1" operator="lessOrEqual" value="67.12062"/>
													<Node id="67" score="0" recordCount="1.0">
														<SimplePredicate field="mag" operator="lessOrEqual" value="9.82329"/>
														<ScoreDistribution value="0" recordCount="1.0"/>
														<ScoreDistribution value="1" recordCount="0.0"/>
													</Node>
													<Node id="68" score="1" recordCount="2.0">
														<SimplePredicate field="mag" operator="greaterThan" value="9.82329"/>
														<ScoreDistribution value="0" recordCount="0.0"/>
														<ScoreDistribution value="1" recordCount="2.0"/>
													</Node>
												</Node>
												<Node id="69" score="0" recordCount="3.0">
													<SimplePredicate field="fft1" operator="greaterThan" value="67.12062"/>
													<ScoreDistribution value="0" recordCount="3.0"/>
													<ScoreDistribution value="1" recordCount="0.0"/>
												</Node>
											</Node>
										</Node>
										<Node id="70">
											<SimplePredicate field="qua1" operator="greaterThan" value="3.3302846"/>
											<Node id="71">
												<SimplePredicate field="mean" operator="lessOrEqual" value="5.014148"/>
												<Node id="72">
													<SimplePredicate field="kurt" operator="lessOrEqual" value="-1.0275322"/>
													<Node id="73" score="0" recordCount="2.0">
														<SimplePredicate field="mean" operator="lessOrEqual" value="4.272167"/>
														<ScoreDistribution value="0" recordCount="2.0"/>
														<ScoreDistribution value="1" recordCount="0.0"/>
													</Node>
													<Node id="74" score="1" recordCount="2.0">
														<SimplePredicate field="mean" operator="greaterThan" value="4.272167"/>
														<ScoreDistribution value="0" recordCount="0.0"/>
														<ScoreDistribution value="1" recordCount="2.0"/>
													</Node>
												</Node>
												<Node id="75">
													<SimplePredicate field="kurt" operator="greaterThan" value="-1.0275322"/>
													<Node id="76">
														<SimplePredicate field="fft2" operator="lessOrEqual" value="0.98207414"/>
														<Node id="77" score="1" recordCount="12.0">
															<SimplePredicate field="qua2" operator="lessOrEqual" value="4.557852"/>
															<ScoreDistribution value="0" recordCount="0.0"/>
															<ScoreDistribution value="1" recordCount="12.0"/>
														</Node>
														<Node id="78" score="0" recordCount="1.0">
															<SimplePredicate field="qua2" operator="greaterThan" value="4.557852"/>
															<ScoreDistribution value="0" recordCount="1.0"/>
															<ScoreDistribution value="1" recordCount="0.0"/>
														</Node>
													</Node>
													<Node id="79" score="1" recordCount="61.0">
														<SimplePredicate field="fft2" operator="greaterThan" value="0.98207414"/>
														<ScoreDistribution value="0" recordCount="0.0"/>
														<ScoreDistribution value="1" recordCount="61.0"/>
													</Node>
												</Node>
											</Node>
											<Node id="80">
												<SimplePredicate field="mean" operator="greaterThan" value="5.014148"/>
												<Node id="81" score="0" recordCount="3.0">
													<SimplePredicate field="rms" operator="lessOrEqual" value="5.229245"/>
													<ScoreDistribution value="0" recordCount="3.0"/>
													<ScoreDistribution value="1" recordCount="0.0"/>
												</Node>
												<Node id="82">
													<SimplePredicate field="rms" operator="greaterThan" value="5.229245"/>
													<Node id="83">
														<SimplePredicate field="fft1" operator="lessOrEqual" value="23.995625"/>
														<Node id="84" score="0" recordCount="1.0">
															<SimplePredicate field="rms" operator="lessOrEqual" value="5.483048"/>
															<ScoreDistribution value="0" recordCount="1.0"/>
															<ScoreDistribution value="1" recordCount="0.0"/>
														</Node>
														<Node id="85" score="1" recordCount="1.0">
															<SimplePredicate field="rms" operator="greaterThan" value="5.483048"/>
															<ScoreDistribution value="0" recordCount="0.0"/>
															<ScoreDistribution value="1" recordCount="1.0"/>
														</Node>
													</Node>
													<Node id="86">
														<SimplePredicate field="fft1" operator="greaterThan" value="23.995625"/>
														<Node id="87">
															<SimplePredicate field="rms" operator="lessOrEqual" value="5.388839"/>
															<Node id="88" score="1" recordCount="6.0">
																<SimplePredicate field="rms" operator="lessOrEqual" value="5.314485"/>
																<ScoreDistribution value="0" recordCount="0.0"/>
																<ScoreDistribution value="1" recordCount="6.0"/>
															</Node>
															<Node id="89" score="0" recordCount="1.0">
																<SimplePredicate field="rms" operator="greaterThan" value="5.314485"/>
																<ScoreDistribution value="0" recordCount="1.0"/>
																<ScoreDistribution value="1" recordCount="0.0"/>
															</Node>
														</Node>
														<Node id="90" score="1" recordCount="19.0">
															<SimplePredicate field="rms" operator="greaterThan" value="5.388839"/>
															<ScoreDistribution value="0" recordCount="0.0"/>
															<ScoreDistribution value="1" recordCount="19.0"/>
														</Node>
													</Node>
												</Node>
											</Node>
										</Node>
									</Node>
								</Node>
							</Node>
							<Node id="91">
								<SimplePredicate field="fft4" operator="greaterThan" value="131.36053"/>
								<Node id="92" score="0" recordCount="12.0">
									<SimplePredicate field="fft3" operator="lessOrEqual" value="284.11853"/>
									<ScoreDistribution value="0" recordCount="12.0"/>
									<ScoreDistribution value="1" recordCount="0.0"/>
								</Node>
								<Node id="93">
									<SimplePredicate field="fft3" operator="greaterThan" value="284.11853"/>
									<Node id="94">
										<SimplePredicate field="rms" operator="lessOrEqual" value="5.5162153"/>
										<Node id="95">
											<SimplePredicate field="fft4" operator="lessOrEqual" value="280.3185"/>
											<Node id="96" score="0" recordCount="1.0">
												<SimplePredicate field="mag" operator="lessOrEqual" value="9.769877"/>
												<ScoreDistribution value="0" recordCount="1.0"/>
												<ScoreDistribution value="1" recordCount="0.0"/>
											</Node>
											<Node id="97" score="1" recordCount="2.0">
												<SimplePredicate field="mag" operator="greaterThan" value="9.769877"/>
												<ScoreDistribution value="0" recordCount="0.0"/>
												<ScoreDistribution value="1" recordCount="2.0"/>
											</Node>
										</Node>
										<Node id="98" score="1" recordCount="7.0">
											<SimplePredicate field="fft4" operator="greaterThan" value="280.3185"/>
											<ScoreDistribution value="0" recordCount="0.0"/>
											<ScoreDistribution value="1" recordCount="7.0"/>
										</Node>
									</Node>
									<Node id="99" score="0" recordCount="6.0">
										<SimplePredicate field="rms" operator="greaterThan" value="5.5162153"/>
										<ScoreDistribution value="0" recordCount="6.0"/>
										<ScoreDistribution value="1" recordCount="0.0"/>
									</Node>
								</Node>
							</Node>
						</Node>
					</Node>
				</TreeModel>
			</Segment>
			<Segment id="3">
				<True/>
				<TreeModel functionName="classification" splitCharacteristic="binarySplit">
					<MiningSchema>
						<MiningField name="mean"/>
						<MiningField name="std"/>
						<MiningField name="var"/>
						<MiningField name="mad"/>
						<MiningField name="rms"/>
						<MiningField name="range"/>
						<MiningField name="skew"/>
						<MiningField name="kurt"/>
						<MiningField name="mag"/>
						<MiningField name="qua1"/>
						<MiningField name="qua2"/>
						<MiningField name="qua3"/>
						<MiningField name="fft1"/>
						<MiningField name="fft2"/>
						<MiningField name="fft3"/>
						<MiningField name="fft4"/>
						<MiningField name="fft5"/>
					</MiningSchema>
					<Node id="1">
						<True/>
						<Node id="2">
							<SimplePredicate field="qua3" operator="lessOrEqual" value="3.6720572"/>
							<Node id="3">
								<SimplePredicate field="fft4" operator="lessOrEqual" value="552.4885"/>
								<Node id="4" score="1" recordCount="2.0">
									<SimplePredicate field="mean" operator="lessOrEqual" value="-5.4337873"/>
									<ScoreDistribution value="0" recordCount="0.0"/>
									<ScoreDistribution value="1" recordCount="2.0"/>
								</Node>
								<Node id="5">
									<SimplePredicate field="mean" operator="greaterThan" value="-5.4337873"/>
									<Node id="6">
										<SimplePredicate field="qua3" operator="lessOrEqual" value="3.1308675"/>
										<Node id="7">
											<SimplePredicate field="qua3" operator="lessOrEqual" value="-4.5459404"/>
											<Node id="8" score="1" recordCount="3.0">
												<SimplePredicate field="fft2" operator="lessOrEqual" value="21.847246"/>
												<ScoreDistribution value="0" recordCount="0.0"/>
												<ScoreDistribution value="1" recordCount="3.0"/>
											</Node>
											<Node id="9" score="0" recordCount="5.0">
												<SimplePredicate field="fft2" operator="greaterThan" value="21.847246"/>
												<ScoreDistribution value="0" recordCount="5.0"/>
												<ScoreDistribution value="1" recordCount="0.0"/>
											</Node>
										</Node>
										<Node id="10" score="0" recordCount="269.0">
											<SimplePredicate field="qua3" operator="greaterThan" value="-4.5459404"/>
											<ScoreDistribution value="0" recordCount="269.0"/>
											<ScoreDistribution value="1" recordCount="0.0"/>
										</Node>
									</Node>
									<Node id="11">
										<SimplePredicate field="qua3" operator="greaterThan" value="3.1308675"/>
										<Node id="12">
											<SimplePredicate field="rms" operator="lessOrEqual" value="3.9845455"/>
											<Node id="13">
												<SimplePredicate field="fft1" operator="lessOrEqual" value="16.469547"/>
												<Node id="14">
													<SimplePredicate field="qua3" operator="lessOrEqual" value="3.568787"/>
													<Node id="15" score="0" recordCount="1.0">
														<SimplePredicate field="qua2" operator="lessOrEqual" value="3.3361707"/>
														<ScoreDistribution value="0" recordCount="1.0"/>
														<ScoreDistribution value="1" recordCount="0.0"/>
													</Node>
													<Node id="16" score="1" recordCount="2.0">
														<SimplePredicate field="qua2" operator="greaterThan" value="3.3361707"/>
														<ScoreDistribution value="0" recordCount="0.0"/>
														<ScoreDistribution value="1" recordCount="2.0"/>
													</Node>
												</Node>
												<Node id="17" score="0" recordCount="4.0">
													<SimplePredicate field="qua3" operator="greaterThan" value="3.568787"/>
													<ScoreDistribution value="0" recordCount="4.0"/>
													<ScoreDistribution value="1" recordCount="0.0"/>
												</Node>
											</Node>
											<Node id="18" score="1" recordCount="7.0">
												<SimplePredicate field="fft1" operator="greaterThan" value="16.469547"/>
												<ScoreDistribution value="0" recordCount="0.0"/>
												<ScoreDistribution value="1" recordCount="7.0"/>
											</Node>
										</Node>
										<Node id="19" score="0" recordCount="19.0">
											<SimplePredicate field="rms" operator="greaterThan" value="3.9845455"/>
											<ScoreDistribution value="0" recordCount="19.0"/>
											<ScoreDistribution value="1" recordCount="0.0"/>
										</Node>
									</Node>
								</Node>
							</Node>
							<Node id="20">
								<SimplePredicate field="fft4" operator="greaterThan" value="552.4885"/>
								<Node id="21">
									<SimplePredicate field="mag" operator="lessOrEqual" value="10.440092"/>
									<Node id="22" score="1" recordCount="5.0">
										<SimplePredicate field="fft4" operator="lessOrEqual" value="763.39"/>
										<ScoreDistribution value="0" recordCount="0.0"/>
										<ScoreDistribution value="1" recordCount="5.0"/>
									</Node>
									<Node id="23">
										<SimplePredicate field="fft4" operator="greaterThan" value="763.39"/>
										<Node id="24" score="0" recordCount="1.0">
											<SimplePredicate field="var" operator="lessOrEqual" value="13.134516"/>
											<ScoreDistribution value="0" recordCount="1.0"/>
											<ScoreDistribution value="1" recordCount="0.0"/>
										</Node>
										<Node id="25" score="1" recordCount="2.0">
											<SimplePredicate field="var" operator="greaterThan" value="13.134516"/>
											<ScoreDistribution value="0" recordCount="0.0"/>
											<ScoreDistribution value="1" recordCount="2.0"/>
										</Node>
									</Node>
								</Node>
								<Node id="26" score="0" recordCount="2.0">
									<SimplePredicate field="mag" operator="greaterThan" value="10.440092"/>
									<ScoreDistribution value="0" recordCount="2.0"/>
									<ScoreDistribution value="1" recordCount="0.0"/>
								</Node>
							</Node>
						</Node>
						<Node id="27">
							<SimplePredicate field="qua3" operator="greaterThan" value="3.6720572"/>
							<Node id="28">
								<SimplePredicate field="qua2" operator="lessOrEqual" value="3.2440734"/>
								<Node id="29" score="1" recordCount="2.0">
									<SimplePredicate field="qua3" operator="lessOrEqual" value="3.816547"/>
									<ScoreDistribution value="0" recordCount="0.0"/>
									<ScoreDistribution value="1" recordCount="2.0"/>
								</Node>
								<Node id="30" score="0" recordCount="10.0">
									<SimplePredicate field="qua3" operator="greaterThan" value="3.816547"/>
									<ScoreDistribution value="0" recordCount="10.0"/>
									<ScoreDistribution value="1" recordCount="0.0"/>
								</Node>
							</Node>
							<Node id="31">
								<SimplePredicate field="qua2" operator="greaterThan" value="3.2440734"/>
								<Node id="32">
									<SimplePredicate field="rms" operator="lessOrEqual" value="4.56306"/>
									<Node id="33">
										<SimplePredicate field="range" operator="lessOrEqual" value="0.95456827"/>
										<Node id="34" score="1" recordCount="4.0">
											<SimplePredicate field="kurt" operator="lessOrEqual" value="-0.56534004"/>
											<ScoreDistribution value="0" recordCount="0.0"/>
											<ScoreDistribution value="1" recordCount="4.0"/>
										</Node>
										<Node id="35">
											<SimplePredicate field="kurt" operator="greaterThan" value="-0.56534004"/>
											<Node id="36" score="0" recordCount="6.0">
												<SimplePredicate field="fft5" operator="lessOrEqual" value="1.6559556"/>
												<ScoreDistribution value="0" recordCount="6.0"/>
												<ScoreDistribution value="1" recordCount="0.0"/>
											</Node>
											<Node id="37">
												<SimplePredicate field="fft5" operator="greaterThan" value="1.6559556"/>
												<Node id="38" score="1" recordCount="1.0">
													<SimplePredicate field="qua3" operator="lessOrEqual" value="4.335351"/>
													<ScoreDistribution value="0" recordCount="0.0"/>
													<ScoreDistribution value="1" recordCount="1.0"/>
												</Node>
												<Node id="39" score="0" recordCount="1.0">
													<SimplePredicate field="qua3" operator="greaterThan" value="4.335351"/>
													<ScoreDistribution value="0" recordCount="1.0"/>
													<ScoreDistribution value="1" recordCount="0.0"/>
												</Node>
											</Node>
										</Node>
									</Node>
									<Node id="40">
										<SimplePredicate field="range" operator="greaterThan" value="0.95456827"/>
										<Node id="41">
											<SimplePredicate field="fft3" operator="lessOrEqual" value="290.21933"/>
											<Node id="42">
												<SimplePredicate field="qua2" operator="lessOrEqual" value="3.338365"/>
												<Node id="43" score="0" recordCount="2.0">
													<SimplePredicate field="var" operator="lessOrEqual" value="0.64874035"/>
													<ScoreDistribution value="0" recordCount="2.0"/>
													<ScoreDistribution value="1" recordCount="0.0"/>
												</Node>
												<Node id="44" score="1" recordCount="2.0">
													<SimplePredicate field="var" operator="greaterThan" value="0.64874035"/>
													<ScoreDistribution value="0" recordCount="0.0"/>
													<ScoreDistribution value="1" recordCount="2.0"/>
												</Node>
											</Node>
											<Node id="45">
												<SimplePredicate field="qua2" operator="greaterThan" value="3.338365"/>
												<Node id="46" score="1" recordCount="76.0">
													<SimplePredicate field="qua1" operator="lessOrEqual" value="3.8362992"/>
													<ScoreDistribution value="0" recordCount="0.0"/>
													<ScoreDistribution value="1" recordCount="76.0"/>
												</Node>
												<Node id="47">
													<SimplePredicate field="qua1" operator="greaterThan" value="3.8362992"/>
													<Node id="48" score="0" recordCount="2.0">
														<SimplePredicate field="rms" operator="lessOrEqual" value="4.301185"/>
														<ScoreDistribution value="0" recordCount="2.0"/>
														<ScoreDistribution value="1" recordCount="0.0"/>
													</Node>
													<Node id="49" score="1" recordCount="6.0">
														<SimplePredicate field="rms" operator="greaterThan" value="4.301185"/>
														<ScoreDistribution value="0" recordCount="0.0"/>
														<ScoreDistribution value="1" recordCount="6.0"/>
													</Node>
												</Node>
											</Node>
										</Node>
										<Node id="50" score="0" recordCount="1.0">
											<SimplePredicate field="fft3" operator="greaterThan" value="290.21933"/>
											<ScoreDistribution value="0" recordCount="1.0"/>
											<ScoreDistribution value="1" recordCount="0.0"/>
										</Node>
									</Node>
								</Node>
								<Node id="51">
									<SimplePredicate field="rms" operator="greaterThan" value="4.56306"/>
									<Node id="52">
										<SimplePredicate field="qua3" operator="lessOrEqual" value="4.4704432"/>
										<Node id="53" score="1" recordCount="2.0">
											<SimplePredicate field="qua2" operator="lessOrEqual" value="3.4696074"/>
											<ScoreDistribution value="0" recordCount="0.0"/>
											<ScoreDistribution value="1" recordCount="2.0"/>
										</Node>
										<Node id="54">
											<SimplePredicate field="qua2" operator="greaterThan" value="3.4696074"/>
											<Node id="55" score="0" recordCount="16.0">
												<SimplePredicate field="fft3" operator="lessOrEqual" value="40.98964"/>
												<ScoreDistribution value="0" recordCount="16.0"/>
												<ScoreDistribution value="1" recordCount="0.0"/>
											</Node>
											<Node id="56">
												<SimplePredicate field="fft3" operator="greaterThan" value="40.98964"/>
												<Node id="57" score="1" recordCount="2.0">
													<SimplePredicate field="mean" operator="lessOrEqual" value="3.6500375"/>
													<ScoreDistribution value="0" recordCount="0.0"/>
													<ScoreDistribution value="1" recordCount="2.0"/>
												</Node>
												<Node id="58" score="0" recordCount="4.0">
													<SimplePredicate field="mean" operator="greaterThan" value="3.6500375"/>
													<ScoreDistribution value="0" recordCount="4.0"/>
													<ScoreDistribution value="1" recordCount="0.0"/>
												</Node>
											</Node>
										</Node>
									</Node>
									<Node id="59">
										<SimplePredicate field="qua3" operator="greaterThan" value="4.4704432"/>
										<Node id="60" score="0" recordCount="6.0">
											<SimplePredicate field="rms" operator="lessOrEqual" value="4.5836587"/>
											<ScoreDistribution value="0" recordCount="6.0"/>
											<ScoreDistribution value="1" recordCount="0.0"/>
										</Node>
										<Node id="61">
											<SimplePredicate field="rms" operator="greaterThan" value="4.5836587"/>
											<Node id="62">
												<SimplePredicate field="mad" operator="lessOrEqual" value="0.33454102"/>
												<Node id="63" score="1" recordCount="27.0">
													<SimplePredicate field="rms" operator="lessOrEqual" value="5.206064"/>
													<ScoreDistribution value="0" recordCount="0.0"/>
													<ScoreDistribution value="1" recordCount="27.0"/>
												</Node>
												<Node id="64">
													<SimplePredicate field="rms" operator="greaterThan" value="5.206064"/>
													<Node id="65" score="0" recordCount="1.0">
														<SimplePredicate field="fft4" operator="lessOrEqual" value="0.43146837"/>
														<ScoreDistribution value="0" recordCount="1.0"/>
														<ScoreDistribution value="1" recordCount="0.0"/>
													</Node>
													<Node id="66" score="1" recordCount="2.0">
														<SimplePredicate field="fft4" operator="greaterThan" value="0.43146837"/>
														<ScoreDistribution value="0" recordCount="0.0"/>
														<ScoreDistribution value="1" recordCount="2.0"/>
													</Node>
												</Node>
											</Node>
											<Node id="67">
												<SimplePredicate field="mad" operator="greaterThan" value="0.33454102"/>
												<Node id="68" score="0" recordCount="5.0">
													<SimplePredicate field="fft3" operator="lessOrEqual" value="1.688729"/>
													<ScoreDistribution value="0" recordCount="5.0"/>
													<ScoreDistribution value="1" recordCount="0.0"/>
												</Node>
												<Node id="69">
													<SimplePredicate field="fft3" operator="greaterThan" value="1.688729"/>
													<Node id="70" score="0" recordCount="4.0">
														<SimplePredicate field="fft2" operator="lessOrEqual" value="1.4954524"/>
														<ScoreDistribution value="0" recordCount="4.0"/>
														<ScoreDistribution value="1" recordCount="0.0"/>
													</Node>
													<Node id="71">
														<SimplePredicate field="fft2" operator="greaterThan" value="1.4954524"/>
														<Node id="72">
															<SimplePredicate field="kurt" operator="lessOrEqual" value="5.211291"/>
															<Node id="73">
																<SimplePredicate field="mean" operator="lessOrEqual" value="5.109423"/>
																<Node id="74" score="0" recordCount="2.0">
																	<SimplePredicate field="mad" operator="lessOrEqual" value="0.34802806"/>
																	<ScoreDistribution value="0" recordCount="2.0"/>
																	<ScoreDistribution value="1" recordCount="0.0"/>
																</Node>
																<Node id="75">
																	<SimplePredicate field="mad" operator="greaterThan" value="0.34802806"/>
																	<Node id="76" score="0" recordCount="1.0">
																		<SimplePredicate field="skew" operator="lessOrEqual" value="-1.1178725"/>
																		<ScoreDistribution value="0" recordCount="1.0"/>
																		<ScoreDistribution value="1" recordCount="0.0"/>
																	</Node>
																	<Node id="77">
																		<SimplePredicate field="skew" operator="greaterThan" value="-1.1178725"/>
																		<Node id="78" score="0" recordCount="1.0">
																			<SimplePredicate field="mag" operator="lessOrEqual" value="9.310621"/>
																			<ScoreDistribution value="0" recordCount="1.0"/>
																			<ScoreDistribution value="1" recordCount="0.0"/>
																		</Node>
																		<Node id="79">
																			<SimplePredicate field="mag" operator="greaterThan" value="9.310621"/>
																			<Node id="80">
																				<SimplePredicate field="qua3" operator="lessOrEqual" value="4.9467697"/>
																				<Node id="81">
																					<SimplePredicate field="var" operator="lessOrEqual" value="0.5900874"/>
																					<Node id="82" score="1" recordCount="1.0">
																						<SimplePredicate field="fft1" operator="lessOrEqual" value="20.251019"/>
																						<ScoreDistribution value="0" recordCount="0.0"/>
																						<ScoreDistribution value="1" recordCount="1.0"/>
																					</Node>
																					<Node id="83" score="0" recordCount="2.0">
																						<SimplePredicate field="fft1" operator="greaterThan" value="20.251019"/>
																						<ScoreDistribution value="0" recordCount="2.0"/>
																						<ScoreDistribution value="1" recordCount="0.0"/>
																					</Node>
																				</Node>
																				<Node id="84">
																					<SimplePredicate field="var" operator="greaterThan" value="0.5900874"/>
																					<Node id="85">
																						<SimplePredicate field="mag" operator="lessOrEqual" value="9.720318"/>
																						<Node id="86" score="1" recordCount="1.0">
																							<SimplePredicate field="fft3" operator="lessOrEqual" value="57.27728"/>
																							<ScoreDistribution value="0" recordCount="0.0"/>
																							<ScoreDistribution value="1" recordCount="1.0"/>
																						</Node>
																						<Node id="87" score="0" recordCount="2.0">
																							<SimplePredicate field="fft3" operator="greaterThan" value="57.27728"/>
																							<ScoreDistribution value="0" recordCount="2.0"/>
																							<ScoreDistribution value="1" recordCount="0.0"/>
																						</Node>
																					</Node>
																					<Node id="88" score="1" recordCount="12.0">
																						<SimplePredicate field="mag" operator="greaterThan" value="9.720318"/>
																						<ScoreDistribution value="0" recordCount="0.0"/>
																						<ScoreDistribution value="1" recordCount="12.0"/>
																					</Node>
																				</Node>
																			</Node>
																			<Node id="89">
																				<SimplePredicate field="qua3" operator="greaterThan" value="4.9467697"/>
																				<Node id="90">
																					<SimplePredicate field="std" operator="lessOrEqual" value="2.3623142"/>
																					<Node id="91">
																						<SimplePredicate field="mean" operator="lessOrEqual" value="4.195543"/>
																						<Node id="92" score="0" recordCount="1.0">
																							<SimplePredicate field="fft3" operator="lessOrEqual" value="16.406689"/>
																							<ScoreDistribution value="0" recordCount="1.0"/>
																							<ScoreDistribution value="1" recordCount="0.0"/>
																						</Node>
																						<Node id="93" score="1" recordCount="6.0">
																							<SimplePredicate field="fft3" operator="greaterThan" value="16.406689"/>
																							<ScoreDistribution value="0" recordCount="0.0"/>
																							<ScoreDistribution value="1" recordCount="6.0"/>
																						</Node>
																					</Node>
																					<Node id="94" score="1" recordCount="49.0">
																						<SimplePredicate field="mean" operator="greaterThan" value="4.195543"/>
																						<ScoreDistribution value="0" recordCount="0.0"/>
																						<ScoreDistribution value="1" recordCount="49.0"/>
																					</Node>
																				</Node>
																				<Node id="95">
																					<SimplePredicate field="std" operator="greaterThan" value="2.3623142"/>
																					<Node id="96" score="1" recordCount="1.0">
																						<SimplePredicate field="kurt" operator="lessOrEqual" value="-0.11570218"/>
																						<ScoreDistribution value="0" recordCount="0.0"/>
																						<ScoreDistribution value="1" recordCount="1.0"/>
																					</Node>
																					<Node id="97" score="0" recordCount="1.0">
																						<SimplePredicate field="kurt" operator="greaterThan" value="-0.11570218"/>
																						<ScoreDistribution value="0" recordCount="1.0"/>
																						<ScoreDistribution value="1" recordCount="0.0"/>
																					</Node>
																				</Node>
																			</Node>
																		</Node>
																	</Node>
																</Node>
															</Node>
															<Node id="98">
																<SimplePredicate field="mean" operator="greaterThan" value="5.109423"/>
																<Node id="99" score="1" recordCount="7.0">
																	<SimplePredicate field="fft2" operator="lessOrEqual" value="194.00893"/>
																	<ScoreDistribution value="0" recordCount="0.0"/>
																	<ScoreDistribution value="1" recordCount="7.0"/>
																</Node>
																<Node id="100" score="0" recordCount="6.0">
																	<SimplePredicate field="fft2" operator="greaterThan" value="194.00893"/>
																	<ScoreDistribution value="0" recordCount="6.0"/>
																	<ScoreDistribution value="1" recordCount="0.0"/>
																</Node>
															</Node>
														</Node>
														<Node id="101" score="0" recordCount="4.0">
															<SimplePredicate field="kurt" operator="greaterThan" value="5.211291"/>
															<ScoreDistribution value="0" recordCount="4.0"/>
															<ScoreDistribution value="1" recordCount="0.0"/>
														</Node>
													</Node>
												</Node>
											</Node>
										</Node>
									</Node>
								</Node>
							</Node>
						</Node>
					</Node>
				</TreeModel>
			</Segment>
			<Segment id="4">
				<True/>
				<TreeModel functionName="classification" splitCharacteristic="binarySplit">
					<MiningSchema>
						<MiningField name="mean"/>
						<MiningField name="std"/>
						<MiningField name="var"/>
						<MiningField name="mad"/>
						<MiningField name="rms"/>
						<MiningField name="range"/>
						<MiningField name="skew"/>
						<MiningField name="kurt"/>
						<MiningField name="mag"/>
						<MiningField name="qua1"/>
						<MiningField name="qua2"/>
						<MiningField name="qua3"/>
						<MiningField name="fft2"/>
						<MiningField name="fft3"/>
						<MiningField name="fft4"/>
						<MiningField name="fft5"/>
					</MiningSchema>
					<Node id="1">
						<True/>
						<Node id="2">
							<SimplePredicate field="mean" operator="lessOrEqual" value="2.4781444"/>
							<Node id="3">
								<SimplePredicate field="fft5" operator="lessOrEqual" value="389.0017"/>
								<Node id="4">
									<SimplePredicate field="qua3" operator="lessOrEqual" value="-4.699409"/>
									<Node id="5" score="0" recordCount="5.0">
										<SimplePredicate field="rms" operator="lessOrEqual" value="5.414643"/>
										<ScoreDistribution value="0" recordCount="5.0"/>
										<ScoreDistribution value="1" recordCount="0.0"/>
									</Node>
									<Node id="6" score="1" recordCount="3.0">
										<SimplePredicate field="rms" operator="greaterThan" value="5.414643"/>
										<ScoreDistribution value="0" recordCount="0.0"/>
										<ScoreDistribution value="1" recordCount="3.0"/>
									</Node>
								</Node>
								<Node id="7">
									<SimplePredicate field="qua3" operator="greaterThan" value="-4.699409"/>
									<Node id="8" score="0" recordCount="258.0">
										<SimplePredicate field="mad" operator="lessOrEqual" value="2.4467115"/>
										<ScoreDistribution value="0" recordCount="258.0"/>
										<ScoreDistribution value="1" recordCount="0.0"/>
									</Node>
									<Node id="9">
										<SimplePredicate field="mad" operator="greaterThan" value="2.4467115"/>
										<Node id="10" score="1" recordCount="1.0">
											<SimplePredicate field="var" operator="lessOrEqual" value="8.72637"/>
											<ScoreDistribution value="0" recordCount="0.0"/>
											<ScoreDistribution value="1" recordCount="1.0"/>
										</Node>
										<Node id="11" score="0" recordCount="10.0">
											<SimplePredicate field="var" operator="greaterThan" value="8.72637"/>
											<ScoreDistribution value="0" recordCount="10.0"/>
											<ScoreDistribution value="1" recordCount="0.0"/>
										</Node>
									</Node>
								</Node>
							</Node>
							<Node id="12">
								<SimplePredicate field="fft5" operator="greaterThan" value="389.0017"/>
								<Node id="13">
									<SimplePredicate field="fft4" operator="lessOrEqual" value="806.9304"/>
									<Node id="14" score="1" recordCount="4.0">
										<SimplePredicate field="fft3" operator="lessOrEqual" value="1194.8091"/>
										<ScoreDistribution value="0" recordCount="0.0"/>
										<ScoreDistribution value="1" recordCount="4.0"/>
									</Node>
									<Node id="15" score="0" recordCount="3.0">
										<SimplePredicate field="fft3" operator="greaterThan" value="1194.8091"/>
										<ScoreDistribution value="0" recordCount="3.0"/>
										<ScoreDistribution value="1" recordCount="0.0"/>
									</Node>
								</Node>
								<Node id="16" score="1" recordCount="9.0">
									<SimplePredicate field="fft4" operator="greaterThan" value="806.9304"/>
									<ScoreDistribution value="0" recordCount="0.0"/>
									<ScoreDistribution value="1" recordCount="9.0"/>
								</Node>
							</Node>
						</Node>
						<Node id="17">
							<SimplePredicate field="mean" operator="greaterThan" value="2.4781444"/>
							<Node id="18">
								<SimplePredicate field="mad" operator="lessOrEqual" value="0.21504673"/>
								<Node id="19">
									<SimplePredicate field="qua3" operator="lessOrEqual" value="4.604519"/>
									<Node id="20">
										<SimplePredicate field="fft2" operator="lessOrEqual" value="10.886856"/>
										<Node id="21">
											<SimplePredicate field="kurt" operator="lessOrEqual" value="-0.614722"/>
											<Node id="22" score="0" recordCount="3.0">
												<SimplePredicate field="kurt" operator="lessOrEqual" value="-0.73628867"/>
												<ScoreDistribution value="0" recordCount="3.0"/>
												<ScoreDistribution value="1" recordCount="0.0"/>
											</Node>
											<Node id="23" score="1" recordCount="3.0">
												<SimplePredicate field="kurt" operator="greaterThan" value="-0.73628867"/>
												<ScoreDistribution value="0" recordCount="0.0"/>
												<ScoreDistribution value="1" recordCount="3.0"/>
											</Node>
										</Node>
										<Node id="24">
											<SimplePredicate field="kurt" operator="greaterThan" value="-0.614722"/>
											<Node id="25">
												<SimplePredicate field="range" operator="lessOrEqual" value="0.13607056"/>
												<Node id="26" score="1" recordCount="2.0">
													<SimplePredicate field="fft5" operator="lessOrEqual" value="0.0093669435"/>
													<ScoreDistribution value="0" recordCount="0.0"/>
													<ScoreDistribution value="1" recordCount="2.0"/>
												</Node>
												<Node id="27" score="0" recordCount="3.0">
													<SimplePredicate field="fft5" operator="greaterThan" value="0.0093669435"/>
													<ScoreDistribution value="0" recordCount="3.0"/>
													<ScoreDistribution value="1" recordCount="0.0"/>
												</Node>
											</Node>
											<Node id="28" score="0" recordCount="26.0">
												<SimplePredicate field="range" operator="greaterThan" value="0.13607056"/>
												<ScoreDistribution value="0" recordCount="26.0"/>
												<ScoreDistribution value="1" recordCount="0.0"/>
											</Node>
										</Node>
									</Node>
									<Node id="29" score="1" recordCount="3.0">
										<SimplePredicate field="fft2" operator="greaterThan" value="10.886856"/>
										<ScoreDistribution value="0" recordCount="0.0"/>
										<ScoreDistribution value="1" recordCount="3.0"/>
									</Node>
								</Node>
								<Node id="30" score="1" recordCount="10.0">
									<SimplePredicate field="qua3" operator="greaterThan" value="4.604519"/>
									<ScoreDistribution value="0" recordCount="0.0"/>
									<ScoreDistribution value="1" recordCount="10.0"/>
								</Node>
							</Node>
							<Node id="31">
								<SimplePredicate field="mad" operator="greaterThan" value="0.21504673"/>
								<Node id="32">
									<SimplePredicate field="qua2" operator="lessOrEqual" value="3.1688159"/>
									<Node id="33">
										<SimplePredicate field="mean" operator="lessOrEqual" value="2.9104176"/>
										<Node id="34" score="1" recordCount="7.0">
											<SimplePredicate field="qua1" operator="lessOrEqual" value="2.281724"/>
											<ScoreDistribution value="0" recordCount="0.0"/>
											<ScoreDistribution value="1" recordCount="7.0"/>
										</Node>
										<Node id="35">
											<SimplePredicate field="qua1" operator="greaterThan" value="2.281724"/>
											<Node id="36" score="1" recordCount="1.0">
												<SimplePredicate field="rms" operator="lessOrEqual" value="4.7132034"/>
												<ScoreDistribution value="0" recordCount="0.0"/>
												<ScoreDistribution value="1" recordCount="1.0"/>
											</Node>
											<Node id="37" score="0" recordCount="3.0">
												<SimplePredicate field="rms" operator="greaterThan" value="4.7132034"/>
												<ScoreDistribution value="0" recordCount="3.0"/>
												<ScoreDistribution value="1" recordCount="0.0"/>
											</Node>
										</Node>
									</Node>
									<Node id="38" score="0" recordCount="6.0">
										<SimplePredicate field="mean" operator="greaterThan" value="2.9104176"/>
										<ScoreDistribution value="0" recordCount="6.0"/>
										<ScoreDistribution value="1" recordCount="0.0"/>
									</Node>
								</Node>
								<Node id="39">
									<SimplePredicate field="qua2" operator="greaterThan" value="3.1688159"/>
									<Node id="40">
										<SimplePredicate field="fft4" operator="lessOrEqual" value="839.46643"/>
										<Node id="41" score="0" recordCount="2.0">
											<SimplePredicate field="fft3" operator="lessOrEqual" value="0.5270435"/>
											<ScoreDistribution value="0" recordCount="2.0"/>
											<ScoreDistribution value="1" recordCount="0.0"/>
										</Node>
										<Node id="42">
											<SimplePredicate field="fft3" operator="greaterThan" value="0.5270435"/>
											<Node id="43" score="0" recordCount="3.0">
												<SimplePredicate field="mag" operator="lessOrEqual" value="9.12937"/>
												<ScoreDistribution value="0" recordCount="3.0"/>
												<ScoreDistribution value="1" recordCount="0.0"/>
											</Node>
											<Node id="44">
												<SimplePredicate field="mag" operator="greaterThan" value="9.12937"/>
												<Node id="45">
													<SimplePredicate field="qua1" operator="lessOrEqual" value="3.221588"/>
													<Node id="46" score="0" recordCount="1.0">
														<SimplePredicate field="fft5" operator="lessOrEqual" value="0.8382757"/>
														<ScoreDistribution value="0" recordCount="1.0"/>
														<ScoreDistribution value="1" recordCount="0.0"/>
													</Node>
													<Node id="47">
														<SimplePredicate field="fft5" operator="greaterThan" value="0.8382757"/>
														<Node id="48">
															<SimplePredicate field="mag" operator="lessOrEqual" value="9.697615"/>
															<Node id="49" score="1" recordCount="14.0">
																<SimplePredicate field="mag" operator="lessOrEqual" value="9.648487"/>
																<ScoreDistribution value="0" recordCount="0.0"/>
																<ScoreDistribution value="1" recordCount="14.0"/>
															</Node>
															<Node id="50" score="0" recordCount="2.0">
																<SimplePredicate field="mag" operator="greaterThan" value="9.648487"/>
																<ScoreDistribution value="0" recordCount="2.0"/>
																<ScoreDistribution value="1" recordCount="0.0"/>
															</Node>
														</Node>
														<Node id="51" score="1" recordCount="55.0">
															<SimplePredicate field="mag" operator="greaterThan" value="9.697615"/>
															<ScoreDistribution value="0" recordCount="0.0"/>
															<ScoreDistribution value="1" recordCount="55.0"/>
														</Node>
													</Node>
												</Node>
												<Node id="52">
													<SimplePredicate field="qua1" operator="greaterThan" value="3.221588"/>
													<Node id="53">
														<SimplePredicate field="range" operator="lessOrEqual" value="7.4957666"/>
														<Node id="54">
															<SimplePredicate field="mag" operator="lessOrEqual" value="9.659201"/>
															<Node id="55">
																<SimplePredicate field="qua3" operator="lessOrEqual" value="4.621338"/>
																<Node id="56">
																	<SimplePredicate field="rms" operator="lessOrEqual" value="4.284612"/>
																	<Node id="57" score="1" recordCount="3.0">
																		<SimplePredicate field="skew" operator="lessOrEqual" value="0.35885534"/>
																		<ScoreDistribution value="0" recordCount="0.0"/>
																		<ScoreDistribution value="1" recordCount="3.0"/>
																	</Node>
																	<Node id="58" score="0" recordCount="1.0">
																		<SimplePredicate field="skew" operator="greaterThan" value="0.35885534"/>
																		<ScoreDistribution value="0" recordCount="1.0"/>
																		<ScoreDistribution value="1" recordCount="0.0"/>
																	</Node>
																</Node>
																<Node id="59" score="0" recordCount="6.0">
																	<SimplePredicate field="rms" operator="greaterThan" value="4.284612"/>
																	<ScoreDistribution value="0" recordCount="6.0"/>
																	<ScoreDistribution value="1" recordCount="0.0"/>
																</Node>
															</Node>
															<Node id="60">
																<SimplePredicate field="qua3" operator="greaterThan" value="4.621338"/>
																<Node id="61" score="0" recordCount="2.0">
																	<SimplePredicate field="skew" operator="lessOrEqual" value="-1.1828575"/>
																	<ScoreDistribution value="0" recordCount="2.0"/>
																	<ScoreDistribution value="1" recordCount="0.0"/>
																</Node>
																<Node id="62">
																	<SimplePredicate field="skew" operator="greaterThan" value="-1.1828575"/>
																	<Node id="63" score="1" recordCount="13.0">
																		<SimplePredicate field="std" operator="lessOrEqual" value="0.8874129"/>
																		<ScoreDistribution value="0" recordCount="0.0"/>
																		<ScoreDistribution value="1" recordCount="13.0"/>
																	</Node>
																	<Node id="64">
																		<SimplePredicate field="std" operator="greaterThan" value="0.8874129"/>
																		<Node id="65" score="0" recordCount="1.0">
																			<SimplePredicate field="std" operator="lessOrEqual" value="0.9266508"/>
																			<ScoreDistribution value="0" recordCount="1.0"/>
																			<ScoreDistribution value="1" recordCount="0.0"/>
																		</Node>
																		<Node id="66" score="1" recordCount="2.0">
																			<SimplePredicate field="std" operator="greaterThan" value="0.9266508"/>
																			<ScoreDistribution value="0" recordCount="0.0"/>
																			<ScoreDistribution value="1" recordCount="2.0"/>
																		</Node>
																	</Node>
																</Node>
															</Node>
														</Node>
														<Node id="67">
															<SimplePredicate field="mag" operator="greaterThan" value="9.659201"/>
															<Node id="68">
																<SimplePredicate field="fft5" operator="lessOrEqual" value="1.8911021"/>
																<Node id="69">
																	<SimplePredicate field="fft5" operator="lessOrEqual" value="0.83956015"/>
																	<Node id="70">
																		<SimplePredicate field="fft4" operator="lessOrEqual" value="7.8281107"/>
																		<Node id="71" score="1" recordCount="14.0">
																			<SimplePredicate field="mag" operator="lessOrEqual" value="10.016909"/>
																			<ScoreDistribution value="0" recordCount="0.0"/>
																			<ScoreDistribution value="1" recordCount="14.0"/>
																		</Node>
																		<Node id="72">
																			<SimplePredicate field="mag" operator="greaterThan" value="10.016909"/>
																			<Node id="73" score="1" recordCount="1.0">
																				<SimplePredicate field="range" operator="lessOrEqual" value="3.5714307"/>
																				<ScoreDistribution value="0" recordCount="0.0"/>
																				<ScoreDistribution value="1" recordCount="1.0"/>
																			</Node>
																			<Node id="74" score="0" recordCount="2.0">
																				<SimplePredicate field="range" operator="greaterThan" value="3.5714307"/>
																				<ScoreDistribution value="0" recordCount="2.0"/>
																				<ScoreDistribution value="1" recordCount="0.0"/>
																			</Node>
																		</Node>
																	</Node>
																	<Node id="75" score="0" recordCount="2.0">
																		<SimplePredicate field="fft4" operator="greaterThan" value="7.8281107"/>
																		<ScoreDistribution value="0" recordCount="2.0"/>
																		<ScoreDistribution value="1" recordCount="0.0"/>
																	</Node>
																</Node>
																<Node id="76" score="0" recordCount="3.0">
																	<SimplePredicate field="fft5" operator="greaterThan" value="0.83956015"/>
																	<ScoreDistribution value="0" recordCount="3.0"/>
																	<ScoreDistribution value="1" recordCount="0.0"/>
																</Node>
															</Node>
															<Node id="77">
																<SimplePredicate field="fft5" operator="greaterThan" value="1.8911021"/>
																<Node id="78" score="0" recordCount="1.0">
																	<SimplePredicate field="mean" operator="lessOrEqual" value="3.6467655"/>
																	<ScoreDistribution value="0" recordCount="1.0"/>
																	<ScoreDistribution value="1" recordCount="0.0"/>
																</Node>
																<Node id="79">
																	<SimplePredicate field="mean" operator="greaterThan" value="3.6467655"/>
																	<Node id="80">
																		<SimplePredicate field="qua1" operator="lessOrEqual" value="4.8132133"/>
																		<Node id="81">
																			<SimplePredicate field="fft3" operator="lessOrEqual" value="306.0475"/>
																			<Node id="82">
																				<SimplePredicate field="fft2" operator="lessOrEqual" value="470.13635"/>
																				<Node id="83">
																					<SimplePredicate field="range" operator="lessOrEqual" value="1.9108922"/>
																					<Node id="84" score="1" recordCount="19.0">
																						<SimplePredicate field="range" operator="lessOrEqual" value="1.8557458"/>
																						<ScoreDistribution value="0" recordCount="0.0"/>
																						<ScoreDistribution value="1" recordCount="19.0"/>
																					</Node>
																					<Node id="85" score="0" recordCount="1.0">
																						<SimplePredicate field="range" operator="greaterThan" value="1.8557458"/>
																						<ScoreDistribution value="0" recordCount="1.0"/>
																						<ScoreDistribution value="1" recordCount="0.0"/>
																					</Node>
																				</Node>
																				<Node id="86" score="1" recordCount="75.0">
																					<SimplePredicate field="range" operator="greaterThan" value="1.9108922"/>
																					<ScoreDistribution value="0" recordCount="0.0"/>
																					<ScoreDistribution value="1" recordCount="75.0"/>
																				</Node>
																			</Node>
																			<Node id="87">
																				<SimplePredicate field="fft2" operator="greaterThan" value="470.13635"/>
																				<Node id="88" score="1" recordCount="1.0">
																					<SimplePredicate field="mag" operator="lessOrEqual" value="10.363459"/>
																					<ScoreDistribution value="0" recordCount="0.0"/>
																					<ScoreDistribution value="1" recordCount="1.0"/>
																				</Node>
																				<Node id="89" score="0" recordCount="1.0">
																					<SimplePredicate field="mag" operator="greaterThan" value="10.363459"/>
																					<ScoreDistribution value="0" recordCount="1.0"/>
																					<ScoreDistribution value="1" recordCount="0.0"/>
																				</Node>
																			</Node>
																		</Node>
																		<Node id="90" score="0" recordCount="1.0">
																			<SimplePredicate field="fft3" operator="greaterThan" value="306.0475"/>
																			<ScoreDistribution value="0" recordCount="1.0"/>
																			<ScoreDistribution value="1" recordCount="0.0"/>
																		</Node>
																	</Node>
																	<Node id="91">
																		<SimplePredicate field="qua1" operator="greaterThan" value="4.8132133"/>
																		<Node id="92" score="0" recordCount="3.0">
																			<SimplePredicate field="kurt" operator="lessOrEqual" value="-0.31838018"/>
																			<ScoreDistribution value="0" recordCount="3.0"/>
																			<ScoreDistribution value="1" recordCount="0.0"/>
																		</Node>
																		<Node id="93" score="1" recordCount="6.0">
																			<SimplePredicate field="kurt" operator="greaterThan" value="-0.31838018"/>
																			<ScoreDistribution value="0" recordCount="0.0"/>
																			<ScoreDistribution value="1" recordCount="6.0"/>
																		</Node>
																	</Node>
																</Node>
															</Node>
														</Node>
													</Node>
													<Node id="94" score="0" recordCount="3.0">
														<SimplePredicate field="range" operator="greaterThan" value="7.4957666"/>
														<ScoreDistribution value="0" recordCount="3.0"/>
														<ScoreDistribution value="1" recordCount="0.0"/>
													</Node>
												</Node>
											</Node>
										</Node>
									</Node>
									<Node id="95" score="0" recordCount="3.0">
										<SimplePredicate field="fft4" operator="greaterThan" value="839.46643"/>
										<ScoreDistribution value="0" recordCount="3.0"/>
										<ScoreDistribution value="1" recordCount="0.0"/>
									</Node>
								</Node>
							</Node>
						</Node>
					</Node>
				</TreeModel>
			</Segment>
			<Segment id="5">
				<True/>
				<TreeModel functionName="classification" splitCharacteristic="binarySplit">
					<MiningSchema>
						<MiningField name="mean"/>
						<MiningField name="std"/>
						<MiningField name="var"/>
						<MiningField name="mad"/>
						<MiningField name="rms"/>
						<MiningField name="range"/>
						<MiningField name="skew"/>
						<MiningField name="kurt"/>
						<MiningField name="mag"/>
						<MiningField name="qua1"/>
						<MiningField name="qua2"/>
						<MiningField name="qua3"/>
						<MiningField name="fft1"/>
						<MiningField name="fft2"/>
						<MiningField name="fft3"/>
						<MiningField name="fft4"/>
						<MiningField name="fft5"/>
					</MiningSchema>
					<Node id="1">
						<True/>
						<Node id="2">
							<SimplePredicate field="qua1" operator="lessOrEqual" value="1.9356223"/>
							<Node id="3">
								<SimplePredicate field="mad" operator="lessOrEqual" value="2.1566956"/>
								<Node id="4">
									<SimplePredicate field="qua2" operator="lessOrEqual" value="-5.1669965"/>
									<Node id="5" score="0" recordCount="1.0">
										<SimplePredicate field="mag" operator="lessOrEqual" value="10.11161"/>
										<ScoreDistribution value="0" recordCount="1.0"/>
										<ScoreDistribution value="1" recordCount="0.0"/>
									</Node>
									<Node id="6" score="1" recordCount="4.0">
										<SimplePredicate field="mag" operator="greaterThan" value="10.11161"/>
										<ScoreDistribution value="0" recordCount="0.0"/>
										<ScoreDistribution value="1" recordCount="4.0"/>
									</Node>
								</Node>
								<Node id="7">
									<SimplePredicate field="qua2" operator="greaterThan" value="-5.1669965"/>
									<Node id="8">
										<SimplePredicate field="mean" operator="lessOrEqual" value="-5.100216"/>
										<Node id="9" score="0" recordCount="3.0">
											<SimplePredicate field="mean" operator="lessOrEqual" value="-5.11156"/>
											<ScoreDistribution value="0" recordCount="3.0"/>
											<ScoreDistribution value="1" recordCount="0.0"/>
										</Node>
										<Node id="10" score="1" recordCount="2.0">
											<SimplePredicate field="mean" operator="greaterThan" value="-5.11156"/>
											<ScoreDistribution value="0" recordCount="0.0"/>
											<ScoreDistribution value="1" recordCount="2.0"/>
										</Node>
									</Node>
									<Node id="11" score="0" recordCount="276.0">
										<SimplePredicate field="mean" operator="greaterThan" value="-5.100216"/>
										<ScoreDistribution value="0" recordCount="276.0"/>
										<ScoreDistribution value="1" recordCount="0.0"/>
									</Node>
								</Node>
							</Node>
							<Node id="12">
								<SimplePredicate field="mad" operator="greaterThan" value="2.1566956"/>
								<Node id="13">
									<SimplePredicate field="kurt" operator="lessOrEqual" value="-0.6537763"/>
									<Node id="14">
										<SimplePredicate field="skew" operator="lessOrEqual" value="0.10081984"/>
										<Node id="15" score="1" recordCount="2.0">
											<SimplePredicate field="var" operator="lessOrEqual" value="7.5656805"/>
											<ScoreDistribution value="0" recordCount="0.0"/>
											<ScoreDistribution value="1" recordCount="2.0"/>
										</Node>
										<Node id="16" score="0" recordCount="7.0">
											<SimplePredicate field="var" operator="greaterThan" value="7.5656805"/>
											<ScoreDistribution value="0" recordCount="7.0"/>
											<ScoreDistribution value="1" recordCount="0.0"/>
										</Node>
									</Node>
									<Node id="17" score="1" recordCount="13.0">
										<SimplePredicate field="skew" operator="greaterThan" value="0.10081984"/>
										<ScoreDistribution value="0" recordCount="0.0"/>
										<ScoreDistribution value="1" recordCount="13.0"/>
									</Node>
								</Node>
								<Node id="18" score="0" recordCount="13.0">
									<SimplePredicate field="kurt" operator="greaterThan" value="-0.6537763"/>
									<ScoreDistribution value="0" recordCount="13.0"/>
									<ScoreDistribution value="1" recordCount="0.0"/>
								</Node>
							</Node>
						</Node>
						<Node id="19">
							<SimplePredicate field="qua1" operator="greaterThan" value="1.9356223"/>
							<Node id="20">
								<SimplePredicate field="fft5" operator="lessOrEqual" value="1.7900237"/>
								<Node id="21">
									<SimplePredicate field="fft1" operator="lessOrEqual" value="2.4596562"/>
									<Node id="22">
										<SimplePredicate field="std" operator="lessOrEqual" value="0.3527211"/>
										<Node id="23" score="1" recordCount="1.0">
											<SimplePredicate field="fft5" operator="lessOrEqual" value="0.0093669435"/>
											<ScoreDistribution value="0" recordCount="0.0"/>
											<ScoreDistribution value="1" recordCount="1.0"/>
										</Node>
										<Node id="24" score="0" recordCount="19.0">
											<SimplePredicate field="fft5" operator="greaterThan" value="0.0093669435"/>
											<ScoreDistribution value="0" recordCount="19.0"/>
											<ScoreDistribution value="1" recordCount="0.0"/>
										</Node>
									</Node>
									<Node id="25" score="1" recordCount="1.0">
										<SimplePredicate field="std" operator="greaterThan" value="0.3527211"/>
										<ScoreDistribution value="0" recordCount="0.0"/>
										<ScoreDistribution value="1" recordCount="1.0"/>
									</Node>
								</Node>
								<Node id="26">
									<SimplePredicate field="fft1" operator="greaterThan" value="2.4596562"/>
									<Node id="27">
										<SimplePredicate field="fft5" operator="lessOrEqual" value="1.4128648"/>
										<Node id="28">
											<SimplePredicate field="mean" operator="lessOrEqual" value="3.5476298"/>
											<Node id="29" score="1" recordCount="1.0">
												<SimplePredicate field="fft5" operator="lessOrEqual" value="0.38356066"/>
												<ScoreDistribution value="0" recordCount="0.0"/>
												<ScoreDistribution value="1" recordCount="1.0"/>
											</Node>
											<Node id="30" score="0" recordCount="6.0">
												<SimplePredicate field="fft5" operator="greaterThan" value="0.38356066"/>
												<ScoreDistribution value="0" recordCount="6.0"/>
												<ScoreDistribution value="1" recordCount="0.0"/>
											</Node>
										</Node>
										<Node id="31">
											<SimplePredicate field="mean" operator="greaterThan" value="3.5476298"/>
											<Node id="32">
												<SimplePredicate field="fft4" operator="lessOrEqual" value="5.8049016"/>
												<Node id="33">
													<SimplePredicate field="range" operator="lessOrEqual" value="0.9407617"/>
													<Node id="34" score="1" recordCount="5.0">
														<SimplePredicate field="kurt" operator="lessOrEqual" value="0.1702444"/>
														<ScoreDistribution value="0" recordCount="0.0"/>
														<ScoreDistribution value="1" recordCount="5.0"/>
													</Node>
													<Node id="35" score="0" recordCount="1.0">
														<SimplePredicate field="kurt" operator="greaterThan" value="0.1702444"/>
														<ScoreDistribution value="0" recordCount="1.0"/>
														<ScoreDistribution value="1" recordCount="0.0"/>
													</Node>
												</Node>
												<Node id="36" score="1" recordCount="18.0">
													<SimplePredicate field="range" operator="greaterThan" value="0.9407617"/>
													<ScoreDistribution value="0" recordCount="0.0"/>
													<ScoreDistribution value="1" recordCount="18.0"/>
												</Node>
											</Node>
											<Node id="37" score="0" recordCount="4.0">
												<SimplePredicate field="fft4" operator="greaterThan" value="5.8049016"/>
												<ScoreDistribution value="0" recordCount="4.0"/>
												<ScoreDistribution value="1" recordCount="0.0"/>
											</Node>
										</Node>
									</Node>
									<Node id="38">
										<SimplePredicate field="fft5" operator="greaterThan" value="1.4128648"/>
										<Node id="39" score="1" recordCount="1.0">
											<SimplePredicate field="std" operator="lessOrEqual" value="0.19921738"/>
											<ScoreDistribution value="0" recordCount="0.0"/>
											<ScoreDistribution value="1" recordCount="1.0"/>
										</Node>
										<Node id="40" score="0" recordCount="9.0">
											<SimplePredicate field="std" operator="greaterThan" value="0.19921738"/>
											<ScoreDistribution value="0" recordCount="9.0"/>
											<ScoreDistribution value="1" recordCount="0.0"/>
										</Node>
									</Node>
								</Node>
							</Node>
							<Node id="41">
								<SimplePredicate field="fft5" operator="greaterThan" value="1.7900237"/>
								<Node id="42">
									<SimplePredicate field="mag" operator="lessOrEqual" value="10.007204"/>
									<Node id="43">
										<SimplePredicate field="fft4" operator="lessOrEqual" value="259.04834"/>
										<Node id="44">
											<SimplePredicate field="skew" operator="lessOrEqual" value="0.49896616"/>
											<Node id="45">
												<SimplePredicate field="range" operator="lessOrEqual" value="9.613438"/>
												<Node id="46">
													<SimplePredicate field="fft3" operator="lessOrEqual" value="131.79295"/>
													<Node id="47">
														<SimplePredicate field="var" operator="lessOrEqual" value="0.34238344"/>
														<Node id="48" score="0" recordCount="2.0">
															<SimplePredicate field="kurt" operator="lessOrEqual" value="-1.1116297"/>
															<ScoreDistribution value="0" recordCount="2.0"/>
															<ScoreDistribution value="1" recordCount="0.0"/>
														</Node>
														<Node id="49">
															<SimplePredicate field="kurt" operator="greaterThan" value="-1.1116297"/>
															<Node id="50">
																<SimplePredicate field="fft2" operator="lessOrEqual" value="1.5777419"/>
																<Node id="51" score="1" recordCount="4.0">
																	<SimplePredicate field="range" operator="lessOrEqual" value="1.7444155"/>
																	<ScoreDistribution value="0" recordCount="0.0"/>
																	<ScoreDistribution value="1" recordCount="4.0"/>
																</Node>
																<Node id="52" score="0" recordCount="3.0">
																	<SimplePredicate field="range" operator="greaterThan" value="1.7444155"/>
																	<ScoreDistribution value="0" recordCount="3.0"/>
																	<ScoreDistribution value="1" recordCount="0.0"/>
																</Node>
															</Node>
															<Node id="53" score="1" recordCount="27.0">
																<SimplePredicate field="fft2" operator="greaterThan" value="1.5777419"/>
																<ScoreDistribution value="0" recordCount="0.0"/>
																<ScoreDistribution value="1" recordCount="27.0"/>
															</Node>
														</Node>
													</Node>
													<Node id="54">
														<SimplePredicate field="var" operator="greaterThan" value="0.34238344"/>
														<Node id="55" score="0" recordCount="1.0">
															<SimplePredicate field="skew" operator="lessOrEqual" value="-1.2060251"/>
															<ScoreDistribution value="0" recordCount="1.0"/>
															<ScoreDistribution value="1" recordCount="0.0"/>
														</Node>
														<Node id="56">
															<SimplePredicate field="skew" operator="greaterThan" value="-1.2060251"/>
															<Node id="57">
																<SimplePredicate field="fft1" operator="lessOrEqual" value="4.412958"/>
																<Node id="58" score="0" recordCount="1.0">
																	<SimplePredicate field="mean" operator="lessOrEqual" value="3.562756"/>
																	<ScoreDistribution value="0" recordCount="1.0"/>
																	<ScoreDistribution value="1" recordCount="0.0"/>
																</Node>
																<Node id="59" score="1" recordCount="4.0">
																	<SimplePredicate field="mean" operator="greaterThan" value="3.562756"/>
																	<ScoreDistribution value="0" recordCount="0.0"/>
																	<ScoreDistribution value="1" recordCount="4.0"/>
																</Node>
															</Node>
															<Node id="60" score="1" recordCount="76.0">
																<SimplePredicate field="fft1" operator="greaterThan" value="4.412958"/>
																<ScoreDistribution value="0" recordCount="0.0"/>
																<ScoreDistribution value="1" recordCount="76.0"/>
															</Node>
														</Node>
													</Node>
												</Node>
												<Node id="61">
													<SimplePredicate field="fft3" operator="greaterThan" value="131.79295"/>
													<Node id="62" score="0" recordCount="4.0">
														<SimplePredicate field="fft3" operator="lessOrEqual" value="152.19261"/>
														<ScoreDistribution value="0" recordCount="4.0"/>
														<ScoreDistribution value="1" recordCount="0.0"/>
													</Node>
													<Node id="63">
														<SimplePredicate field="fft3" operator="greaterThan" value="152.19261"/>
														<Node id="64" score="0" recordCount="2.0">
															<SimplePredicate field="mag" operator="lessOrEqual" value="9.523531"/>
															<ScoreDistribution value="0" recordCount="2.0"/>
															<ScoreDistribution value="1" recordCount="0.0"/>
														</Node>
														<Node id="65" score="1" recordCount="13.0">
															<SimplePredicate field="mag" operator="greaterThan" value="9.523531"/>
															<ScoreDistribution value="0" recordCount="0.0"/>
															<ScoreDistribution value="1" recordCount="13.0"/>
														</Node>
													</Node>
												</Node>
											</Node>
											<Node id="66" score="0" recordCount="1.0">
												<SimplePredicate field="range" operator="greaterThan" value="9.613438"/>
												<ScoreDistribution value="0" recordCount="1.0"/>
												<ScoreDistribution value="1" recordCount="0.0"/>
											</Node>
										</Node>
										<Node id="67">
											<SimplePredicate field="skew" operator="greaterThan" value="0.49896616"/>
											<Node id="68">
