<?xml version="1.0" encoding="UTF-8" standalone="yes"?>
<PMML xmlns="http://www.dmg.org/PMML-4_3" version="4.3">
	<Header>
		<Application name="JPMML-SkLearn" version="1.1.3"/>
		<Timestamp>2016-11-13T23:50:32Z</Timestamp>
	</Header>
	<DataDictionary>
		<DataField name="mean" optype="continuous" dataType="double"/>
		<DataField name="std" optype="continuous" dataType="double"/>
		<DataField name="var" optype="continuous" dataType="double"/>
		<DataField name="mad" optype="continuous" dataType="double"/>
		<DataField name="rms" optype="continuous" dataType="double"/>
		<DataField name="mag" optype="continuous" dataType="double"/>
		<DataField name="range" optype="continuous" dataType="double"/>
		<DataField name="skew" optype="continuous" dataType="double"/>
		<DataField name="kurt" optype="continuous" dataType="double"/>
		<DataField name="qua1" optype="continuous" dataType="double"/>
		<DataField name="qua2" optype="continuous" dataType="double"/>
		<DataField name="qua3" optype="continuous" dataType="double"/>
		<DataField name="fft1" optype="continuous" dataType="double"/>
		<DataField name="fft2" optype="continuous" dataType="double"/>
		<DataField name="fft3" optype="continuous" dataType="double"/>
		<DataField name="fft4" optype="continuous" dataType="double"/>
		<DataField name="fft5" optype="continuous" dataType="double"/>
		<DataField name="label" optype="categorical" dataType="integer">
			<Value value="0"/>
			<Value value="1"/>
		</DataField>
	</DataDictionary>
	<SupportVectorMachineModel functionName="classification" classificationMethod="OneAgainstOne">
		<MiningSchema>
			<MiningField name="label" usageType="target"/>
			<MiningField name="mean"/>
			<MiningField name="std"/>
			<MiningField name="var"/>
			<MiningField name="mad"/>
			<MiningField name="rms"/>
			<MiningField name="mag"/>
			<MiningField name="range"/>
			<MiningField name="skew"/>
			<MiningField name="kurt"/>
			<MiningField name="qua1"/>
			<MiningField name="qua2"/>
			<MiningField name="qua3"/>
			<MiningField name="fft1"/>
			<MiningField name="fft2"/>
			<MiningField name="fft3"/>
			<MiningField name="fft4"/>
			<MiningField name="fft5"/>
		</MiningSchema>
		<RadialBasisKernelType gamma="0.5"/>
		<VectorDictionary>
			<VectorFields>
				<FieldRef field="mean"/>
				<FieldRef field="std"/>
				<FieldRef field="var"/>
				<FieldRef field="mad"/>
				<FieldRef field="rms"/>
				<FieldRef field="mag"/>
				<FieldRef field="range"/>
				<FieldRef field="skew"/>
				<FieldRef field="kurt"/>
				<FieldRef field="qua1"/>
				<FieldRef field="qua2"/>
				<FieldRef field="qua3"/>
				<FieldRef field="fft1"/>
				<FieldRef field="fft2"/>
				<FieldRef field="fft3"/>
				<FieldRef field="fft4"/>
				<FieldRef field="fft5"/>
			</VectorFields>
			<VectorInstance id="0">
				<Array type="real">2.9315383246376814 1.1094728713439503 1.2966046044333701 0.9001478315689981 4.452319107187722 9.466322938642987 4.068307333333334 -0.8041688413717777 3.1418850469240245 2.0970112 2.7396149666666667 3.8686010166666662 16.961243933324354 16.16196377769319 34.816185071476376 9.905895090294482 7.181374500670429</Array>
			</VectorInstance>
			<VectorInstance id="1">
				<Array type="real">0.5937974773333329 4.546893490490657 21.74904981773774 4.113849362613332 5.851455366444276 10.122056789783839 12.861970533333334 0.1003149193921714 -1.4259643224912075 -3.846753916666667 0.010863600000000084 5.15528485 3776.8979334600317 409.8728794665798 418.51655856927 448.3443850613613 217.55748144748725</Array>
			</VectorInstance>
			<VectorInstance id="2">
				<Array type="real">2.258591320000001 2.8058807114910684 9.572775053722674 2.3146960495466664 5.356366901333806 10.34616693738957 11.465033866666667 -0.3739635094416383 -0.2149151935477683 0.4256590500000001 2.3403422333333332 4.746674416666667 559.2398275712886 354.22907404169155 835.3769195722689 64.94227558701196 352.39292645048226</Array>
			</VectorInstance>
			<VectorInstance id="3">
				<Array type="real">-1.3152495520000003 4.165597286970253 22.31774024246492 3.3891920745600004 6.082864740168439 10.484006342385532 15.116191533333334 0.14528807591466641 -0.09712584800214515 -3.76634875 -2.1334630666666663 2.0051139166666667 1208.6559369165286 2346.2127168220613 2823.689521867417 772.6995837528945 553.5756245467819</Array>
			</VectorInstance>
			<VectorInstance id="4">
				<Array type="real">-1.831838435999999 0.6787899707928094 0.6988270455628719 0.5810024365866667 4.876874944580971 9.429065931736702 2.5303519999999993 0.38106568800427826 -0.7156043649154459 -2.3724443833333333 -2.010720366666666 -1.3796885833333334 84.36074424417033 23.29787544477925 30.754927254389223 0.11112297241659551 1.1458390566310075</Array>
			</VectorInstance>
			<VectorInstance id="5">
				<Array type="real">-2.270625373333333 0.45287195008723424 0.2053885394635626 0.37271373685333353 5.007351797193876 9.555120834697934 1.5109009999999998 0.371610962787807 -0.8363307712711215 -2.6342902499999994 -2.3246001666666665 -1.931671783333333 132.65320971124615 20.799649807392232 18.99539141927945 0.8121931901400304 0.2735906139170688</Array>
			</VectorInstance>
			<VectorInstance id="6">
				<Array type="real">-2.402915097959184 0.24656446509548327 0.06133042016052478 0.2081634088018881 4.86093206821391 9.426570874296777 0.8202532666666666 -0.35152151110489277 -0.8726376452582044 -2.5672126 -2.376634266666666 -2.222288066666667 0.3110754146357487 9.094225845860217 2.0160665580650123 1.1466411277478261 0.044646504196291424</Array>
			</VectorInstance>
			<VectorInstance id="7">
				<Array type="real">-2.4108979529411765 0.2050094818408156 0.04748987707556965 0.16794840604895542 4.990443345457822 9.522081737350366 0.7899268666666664 -0.3066584761858568 -0.48684934705937666 -2.5739963333333336 -2.3676960000000005 -2.275598966666667 7.344820149832895 0.22145193233602786 0.762757092797952 0.933611681284817 0.5282853603830521</Array>
			</VectorInstance>
			<VectorInstance id="8">
				<Array type="real">-2.4523772733333336 0.12096368254264452 0.014740831397778917 0.09257196634666663 4.917068467469552 9.44499915775439 0.4941633333333339 0.11275115335108092 0.8647540573871324 -2.520326366666666 -2.4356114000000004 -2.3881265 4.256320071949212 1.8562230641492945 0.8841295876597777 0.05539528308816094 0.1328357300768583</Array>
			</VectorInstance>
			<VectorInstance id="9">
				<Array type="real">-2.514096574666668 0.07957952176106699 0.0065523752813636885 0.06811760448000026 4.908375742355802 9.453393427477971 0.2691080000000001 -0.20966245134949546 -0.7823519460757958 -2.568769000000001 -2.5236383000000004 -2.4400007 2.1399969778880994 0.44506964944595945 0.0031514876751062414 0.07766352485746018 0.008487108245429678</Array>
			</VectorInstance>
			<VectorInstance id="10">
				<Array type="real">-2.582031298666667 1.0546621696945455 1.195273334622329 0.7613419699200001 5.045046464373123 9.640631637359114 4.345635733333334 -0.3935793946222362 0.6084188227645096 -2.8968544 -2.5295440666666664 -2.0345826666666658 1075.3710083339872 311.24629022418674 353.49202351766456 46.21750687231132 17.14311836187875</Array>
			</VectorInstance>
			<VectorInstance id="11">
				<Array type="real">-2.042783562666667 1.0318587574805045 1.139171334491749 0.8324167994666668 4.715414695065686 9.352681957223323 4.1050982000000005 -0.377652352852386 0.201504245154858 -2.731574583333334 -1.7654744333333336 -1.2638890166666668 194.12580515694086 101.39587394373258 3.29804462570137 32.46925588312041 8.183586064001073</Array>
			</VectorInstance>
			<VectorInstance id="12">
				<Array type="real">-3.054531723999999 2.1427637665053996 4.636859972595758 1.69996676288 5.260908085457751 10.078083461938874 7.8438838 -1.049863483606783 0.3323568229401996 -3.9222909500000007 -2.4141434333333334 -1.5628053000000002 615.7601211372706 957.754463733063 157.47347799341935 528.0580465321119 57.0990994984184</Array>
			</VectorInstance>
			<VectorInstance id="13">
				<Array type="real">-4.273407025333333 1.0859863920612691 1.2525613937917384 0.86811099568 4.495814838672441 9.12601893312889 3.9604882666666668 0.011205315105204228 0.017911353587499807 -4.873866466666667 -4.2420366666666665 -3.6379395333333338 1021.0306619178392 246.03022991110714 151.37014026963655 89.78223874809566 88.51295423922485</Array>
			</VectorInstance>
			<VectorInstance id="14">
				<Array type="real">-5.331768684000001 1.315499007641101 1.7666533654214842 1.0647880828266665 5.500055610848125 10.083960345427245 5.254793933333335 -0.4114709336678377 -0.27316791783456934 -6.085212733333333 -5.177610800000001 -4.400931750000001 1645.2306804600366 32.742394479137786 163.27473863490349 194.37200114246704 4.4132746330833275</Array>
			</VectorInstance>
			<VectorInstance id="15">
				<Array type="real">-5.091777108000001 0.6199170981386728 0.4455269443932788 0.4938407019200001 5.130224270447514 9.709311138365129 2.596910866666667 0.08072929283801415 0.04181317974055698 -5.461164233333334 -5.0658016 -4.6939421 362.94807637343445 8.724918615493081 63.740952847321694 21.7033326236258 15.495918166184477</Array>
			</VectorInstance>
			<VectorInstance id="16">
				<Array type="real">-4.538991044 0.8229250780878322 0.7752251241909457 0.678754155253333 4.662311552795459 9.665391566403903 2.7868508666666667 0.28868034996475617 -0.7532305353192901 -5.128649333333334 -4.757747733333333 -3.807209666666667 90.79170969343743 58.40184301226684 54.438973266947876 18.470536213790332 6.671946354668299</Array>
			</VectorInstance>
			<VectorInstance id="17">
				<Array type="real">-4.208757204 1.112282720899895 1.4162857210349618 0.9865594752 4.592911130474593 9.745480192783324 3.4371158666666664 -0.26959382737603393 -1.1662080453718586 -5.208735516666667 -4.158000133333334 -3.2691926666666666 227.78712163645926 135.5052660585465 32.92056956889708 31.044356835788612 0.7000380397455076</Array>
			</VectorInstance>
			<VectorInstance id="18">
				<Array type="real">-4.5705179 0.8074061767269018 0.7307540342953053 0.6361348092266665 4.650182225338434 9.719458299085677 2.9407181333333337 0.09291792594944163 0.03704131787247652 -5.067477633333334 -4.611062899999999 -3.9926804666666666 259.9463526630771 299.35648748639954 74.30108837075798 70.0119516128602 45.36618298624723</Array>
			</VectorInstance>
			<VectorInstance id="19">
				<Array type="real">-4.3185201693333335 0.8383981738949591 0.8200080573338662 0.72010255536 4.4450188343658406 9.52365458591716 2.6800694666666662 -0.3372451899169442 -1.0434174363576856 -4.953673133333333 -4.286089933333333 -3.650469233333333 498.5196757517998 81.66959221195128 122.43095280738598 26.925146755454392 25.56248920312018</Array>
			</VectorInstance>
			<VectorInstance id="20">
				<Array type="real">-4.4396412346666665 0.7888426574171635 0.7404249171564729 0.6584510402133333 4.52417557731991 9.790405779908 2.811431133333334 0.12367029547903048 -0.7263320711323179 -5.05782085 -4.506356433333334 -3.8134345333333335 1357.4600802478478 305.25145580760625 58.174857506013296 73.8426215056138 3.1201319190673793</Array>
			</VectorInstance>
			<VectorInstance id="21">
				<Array type="real">-4.789648053333335 0.6728669797725401 0.5973128905847382 0.573113139626667 4.8371006849024765 9.788851012810833 2.477519866666667 -0.3460016500756946 -0.7750390077634486 -5.2438504 -4.703638766666667 -4.264981183333334 1440.5302290128993 242.79230806804637 43.489035158936005 14.224946167550716 11.82834076685727</Array>
			</VectorInstance>
			<VectorInstance id="22">
				<Array type="real">-4.673529201333333 0.7400950446300335 0.6422852712221455 0.6172620098133332 4.744259895224954 9.764658351113713 2.4862988 0.19970728208786317 -0.9095305255885369 -5.288861383333335 -4.655196066666667 -4.0932767666666665 1426.6267717764704 69.73052365521036 28.5594949543878 5.981570927542106 25.806821810505724</Array>
			</VectorInstance>
			<VectorInstance id="23">
				<Array type="real">-4.58440428 0.9161802641510786 0.8641301235206028 0.7528572702933333 4.6900177733878365 9.406503003494617 3.499365266666667 -0.6150282606216537 -0.3202520061605072 -5.267912166666667 -4.355521766666667 -3.9183006999999996 550.268216296999 44.08211669030469 32.81990402287352 58.09285879446742 8.472328673386341</Array>
			</VectorInstance>
			<VectorInstance id="24">
				<Array type="real">-4.843144002666667 1.0078533816826236 1.11029340116708 0.8567844476266666 4.952680443421411 9.813770985119112 3.3836454666666675 0.1512073906633348 -1.0436930363670125 -5.740527533333335 -4.9146476 -4.013190800000001 585.6026889292467 239.05716035364003 8.944418396929459 50.85053920238114 0.84914723473591</Array>
			</VectorInstance>
			<VectorInstance id="25">
				<Array type="real">-4.3019958721088445 0.6264360224394957 0.41244062374164486 0.5281312862418436 4.41056610138297 10.00449595177504 2.3989900666666664 -0.05735767380349769 -0.6229342660256173 -4.8319678 -4.2571998 -3.846514533333334 221.5023668521933 8.409101415624118 7.986033568151869 0.46528983817587655 11.587858299149158</Array>
			</VectorInstance>
			<VectorInstance id="26">
				<Array type="real">-4.298008824489797 0.9905047945712594 1.006625253155588 0.8303972889073997 5.085560322391685 9.915934139603051 3.2859622000000006 -0.02517841498174604 -0.9248476031408311 -5.123262466666667 -4.244111533333334 -3.6249710666666672 63.647714548855795 47.72591444355415 74.93075720387651 99.76320124506432 15.273269472976768</Array>
			</VectorInstance>
			<VectorInstance id="27">
				<Array type="real">-4.771199861333332 4.351797398160792 19.515625063440144 3.4429279284266676 6.547193831839473 10.790812081030044 15.580985733333334 0.40305453612091086 0.12130366232752439 -7.460442316666668 -4.560704833333333 -2.4280696833333333 7642.121165556331 4270.1357853089185 259.92343494014085 112.78535702077477 8.292528294879435</Array>
			</VectorInstance>
			<VectorInstance id="28">
				<Array type="real">2.3263025279999994 1.3095258627850577 1.8542169778828568 0.9240190713066667 4.623066055508972 9.724654449838983 6.8159728 -0.9941315209395728 2.6522629439589758 1.7867629000000003 2.5752133999999995 2.9188212499999993 717.3675749941588 138.51178773045172 660.2752337919874 176.13955171162814 154.31514934662363</Array>
			</VectorInstance>
			<VectorInstance id="29">
				<Array type="real">0.535982393333334 0.6442647491519371 0.5736022364676194 0.5190891126933335 4.922244411977114 9.43174999615145 2.2138384000000007 0.9896494824082627 0.033898940172714255 0.08245036666666679 0.2612973000000001 0.8552188833333331 9.868992725328578 0.857597531124334 1.5138714403490163 3.7734677333769016 1.5618708322434074</Array>
			</VectorInstance>
			<VectorInstance id="30">
				<Array type="real">0.6443247786666664 1.7339808976579068 3.394053434255109 1.2666775028800001 4.911572851896424 9.076147603281317 7.6860258 0.1923745140719788 0.28168595375478994 -0.5190529333333336 0.7172330333333331 1.0981505500000004 1830.40787499259 1548.907125788965 456.21439309253 39.85634736474121 15.71102771530007</Array>
			</VectorInstance>
			<VectorInstance id="31">
				<Array type="real">-2.845013574666666 2.9249731269441157 9.621288602148963 2.405911471893333 5.795770543219331 11.474898584778009 9.825325000000001 -0.5610023477341328 -0.5546641162204783 -4.529500483333333 -2.3777516000000003 -0.5660990666666667 336.74613150921886 1233.9874499810246 606.0099013594651 523.4816148533417 48.45851333592732</Array>
			</VectorInstance>
			<VectorInstance id="32">
				<Array type="real">-4.104788209333333 1.811412953131014 3.453331358469556 1.4654139203733336 4.809257685097803 9.808707732280885 7.040708933333335 -0.5712440614808781 0.1620590303839573 -5.395722750000001 -3.828478066666667 -2.850646233333333 1264.7597614184187 1127.0409430395646 178.38832376982117 6.8736019204713825 45.83008636025732</Array>
			</VectorInstance>
			<VectorInstance id="33">
				<Array type="real">-4.41873186 1.8544896686847114 3.7512696565489705 1.5558217257600002 5.019026123019074 9.676953286230422 6.614700666666667 0.2119958142921724 -0.10455372412751836 -5.852296733333334 -4.296384866666667 -2.924786683333334 4693.1757812951455 701.3757112413748 448.5392552391123 74.66875339510868 23.96001919193525</Array>
			</VectorInstance>
			<VectorInstance id="34">
				<Array type="real">-5.086934377333333 0.9220890615908006 0.997633037330354 0.7613687432533333 5.213510558515604 9.816570931532882 3.3552340666666676 -0.13773717395515064 -0.44070185222387853 -5.676163333333334 -5.103869333333333 -4.465774800000001 422.17483753007843 27.518108813434853 6.362019450797267 3.5662638438914955 5.589684181255364</Array>
			</VectorInstance>
			<VectorInstance id="35">
				<Array type="real">-5.171880648000001 1.7660102077838176 3.254421750200414 1.3746128218133336 5.591527509149155 10.19406483172731 6.400658733333334 -1.0570356143483597 0.453249368047274 -5.702938366666667 -4.597096666666666 -4.041163016666666 1938.8705602157302 49.09573427647386 17.57107004059855 0.7026633875705908 0.2909851911342015</Array>
			</VectorInstance>
			<VectorInstance id="36">
				<Array type="real">-5.225201153333335 1.2965899220973542 1.8475585457774608 1.117711952906667 5.395675671724926 9.740621308350223 4.071100666666667 -0.40275160270168575 -1.1173275452828724 -6.392428766666666 -4.903474666666667 -4.129668683333333 3518.0496973481595 0.8835305287648487 277.9272810680414 32.96330982584744 10.125853626715392</Array>
			</VectorInstance>
			<VectorInstance id="37">
				<Array type="real">-5.142633136 1.0261359658177849 1.0961003424042195 0.8570473345066668 5.251184319161723 9.55561355292658 3.549643466666667 -0.021255879857854664 -0.9948770616543463 -5.8921204000000005 -5.169151333333334 -4.31601745 441.2246054368073 191.04525336897018 81.5722180999602 16.170668879136322 5.520189866705513</Array>
			</VectorInstance>
			<VectorInstance id="38">
				<Array type="real">-5.114464541333334 0.6207783230219776 0.3969792144964213 0.447134227733333 5.158596496652692 9.34191405857324 2.3506270666666675 -0.7380636827462629 2.6870930446656374 -5.354223050000001 -5.067876533333334 -4.8617757 22.562224077473346 76.40059242503769 18.694546985623358 21.102986953497712 8.71398247252661</Array>
			</VectorInstance>
			<VectorInstance id="39">
				<Array type="real">-4.604972065333334 1.2632978944803928 1.631313777215712 1.0468764550933332 4.82630573615739 10.041852720264606 4.604368933333333 0.061673222249974846 -0.5830196393164363 -5.493366116666667 -4.830451566666667 -3.540336116666667 197.41555885333125 9.4065897999938 24.71353701891443 1.935095973748803 8.185122203754126</Array>
			</VectorInstance>
			<VectorInstance id="40">
				<Array type="real">-3.2988296599999996 2.1425370174571765 5.082683442186359 1.8559868069866672 4.964730123951825 10.809222191010088 7.3396646 0.706112161844321 -0.40532175536627096 -5.0976444 -3.2545081333333337 -1.9918859666666666 748.1067616862897 29.416429633831214 45.09435754296578 47.36554707146685 13.358341484104226</Array>
			</VectorInstance>
			<VectorInstance id="41">
				<Array type="real">-3.637095250666666 4.90032547945876 24.592237471489042 3.886727475893333 6.523145876862524 11.350782159130977 17.477033666666667 0.3180485938950088 -0.5414619802868704 -6.578099050000001 -4.648572033333334 -0.3256812666666667 16201.471806470918 2005.519239839874 2182.0021034257884 1509.9003149513742 63.645404644052405</Array>
			</VectorInstance>
			<VectorInstance id="42">
				<Array type="real">3.8555557866666663 1.4769833373994228 2.53058820349978 1.1168612538666667 4.986353375747501 9.688046371451824 6.508876533333335 -0.111251254260944 0.5932681315787057 2.911638533333333 3.804156933333333 4.556694516666666 294.7843031273725 99.76994669005249 167.575905200669 34.57605191670261 67.95963897283268</Array>
			</VectorInstance>
			<VectorInstance id="43">
				<Array type="real">1.162841792 4.41414867502268 23.74966344901056 4.027454438666667 5.871205376285541 10.186818408423338 13.224931666666668 -0.07090415863081118 -1.4046452854075608 -2.68017905 1.6437891 5.047505916666668 182.276546325579 348.7894056644569 96.49025358766887 2.482046341160516 1.9819406657308252</Array>
			</VectorInstance>
			<VectorInstance id="44">
				<Array type="real">-2.452868806666667 1.568927353302317 2.709797645666564 1.28717748384 4.340673890779013 9.500047844575995 6.180232733333334 0.21412153933724007 -0.6012134676076704 -3.5446853833333343 -2.6901948000000004 -1.3727853166666666 557.5758685983942 92.24127979500867 33.14057960371644 62.27789765588382 36.859211740102765</Array>
			</VectorInstance>
			<VectorInstance id="45">
				<Array type="real">-3.6391159146666663 2.5917916173412228 6.73550518186952 2.1751475884800002 4.94769246790686 9.624650441325524 9.216240066666666 -0.09447132641796217 -0.6473298772457028 -5.542566916666666 -3.8718928666666668 -1.6438091000000004 76.920992097402 276.897528631001 125.81455974800406 9.976609412577066 95.69052352274296</Array>
			</VectorInstance>
			<VectorInstance id="46">
				<Array type="real">-4.894970494666667 0.7086964996277612 0.5628976254856388 0.569566788 4.988870018408004 9.440295146894051 2.494279533333333 0.20604667464585 -0.39130831308605546 -5.3878218 -4.9448944333333325 -4.545741033333333 91.39632610186489 12.824862336504388 0.8725026108636417 2.9179780653522727 4.135756333726323</Array>
			</VectorInstance>
			<VectorInstance id="47">
				<Array type="real">-4.126712665333334 1.5239008931618938 2.5552692509074446 1.40317023136 4.7974541294359545 9.527730166047201 4.101586533333333 -0.19256385403464912 -1.568402832274388 -5.549350516666667 -4.080188533333334 -2.676867033333334 875.0698658225895 157.3097649969831 33.74497852245497 50.7510473662059 17.610797245882708</Array>
			</VectorInstance>
			<VectorInstance id="48">
				<Array type="real">-3.1229100799999987 0.2787463989900103 0.0918750160876497 0.2116184476266667 4.63270020294344 9.45798498611666 1.1294248666666669 -0.48187440380209295 0.13452522309108547 -3.253470633333334 -3.122986600000001 -2.9355206833333334 8.303327799009491 0.03625092309395913 1.8747445487554661 2.053871555990929 1.2769379488742414</Array>
			</VectorInstance>
			<VectorInstance id="49">
				<Array type="real">-3.1344692946666672 0.13820965335307225 0.019423392209027054 0.1138488074666666 4.630207564704613 9.475147802651877 0.5166688000000003 0.1941813892779548 -0.7730064415284602 -3.236391933333334 -3.1470883 -3.029253733333334 7.417111497535952 6.585510521928084 4.210951843582375 0.8785391265374186 0.26736056589386237</Array>
			</VectorInstance>
			<VectorInstance id="50">
				<Array type="real">-3.2801580280000007 0.11793227498674173 0.013979159474905503 0.0915887381333333 4.590005948755572 9.493112877874925 0.4470771999999998 0.4006831384739733 0.030756956916806466 -3.350914683333333 -3.282999133333334 -3.214764533333334 4.1674455491856675 5.685092568926823 1.892882024570123 0.269472734672553 0.3851232810518208</Array>
			</VectorInstance>
			<VectorInstance id="51">
				<Array type="real">-3.354221870666668 0.07448364574890314 0.005858036222655524 0.0572137173866667 4.510491075867443 9.493381744455421 0.3134806000000005 -0.7210384281302965 0.5908521472526972 -3.3870272499999996 -3.3358312333333333 -3.3127671666666667 0.38607678444206317 0.2534043189664357 0.6616437361309002 0.6758720380830794 0.14708823556389036</Array>
			</VectorInstance>
			<VectorInstance id="52">
				<Array type="real">-3.526604428000001 0.35476637166391733 0.13586968258670182 0.2946436496533334 4.563608718571509 9.500125934874905 1.2165738666666661 0.03195337062825395 -0.5241054666338547 -3.810521683333334 -3.456578766666667 -3.261491233333333 1.2141703264844654 26.869881445044303 1.6793018146490528 4.899452088763355 1.922769730332461</Array>
			</VectorInstance>
			<VectorInstance id="53">
				<Array type="real">-3.274392848 0.2613177754684363 0.0692232954520151 0.19824155189333337 4.627448901662142 9.44696086454711 1.1967817333333335 -0.937719897587979 2.81201460733056 -3.3952472500000006 -3.246926566666667 -3.101478683333333 16.188849206377284 16.905523755011767 14.82403035469003 11.010179113973685 0.5774748216283996</Array>
			</VectorInstance>
			<VectorInstance id="54">
				<Array type="real">-4.108171994666668 0.9701823064915994 0.9671821013602356 0.751352209173333 4.90326513075281 9.732654812992788 3.7849136666666663 0.4827349061507718 0.6356250743348102 -4.734404083333334 -4.078752033333333 -3.5798003666666673 145.30607173296997 133.5030309571191 109.15454942898361 56.818930182291545 2.564765461088797</Array>
			</VectorInstance>
			<VectorInstance id="55">
				<Array type="real">-3.2736781074829935 0.8896705465712972 0.8787616684798532 0.7210107171456338 4.956698816185162 9.384525771304618 3.4601002666666667 -0.015594186530767542 -0.4498193824280099 -3.8182629999999995 -3.3252171333333336 -2.4859694000000006 65.19421653742862 18.813995904474062 119.55264357223686 24.671155076737314 7.940849838731118</Array>
			</VectorInstance>
			<VectorInstance id="56">
				<Array type="real">-4.494628068 1.1119856340343521 1.501423888262772 0.9413578513066666 4.981853085498112 9.466913404060527 3.8104518666666665 0.4290372554227715 -0.8106751424002315 -5.363919616666667 -4.8191988 -3.5339913000000003 331.3219038955712 45.91429236640824 27.02563920691495 41.71413141195272 0.4459324610632593</Array>
			</VectorInstance>
			<VectorInstance id="57">
				<Array type="real">-5.165222 1.4802574350197693 2.2795634845325288 1.280849437805972 5.425971220280551 9.638278563224688 4.956157066666667 0.20914588309607185 -1.0989351375672216 -6.3486947 -5.325173533333334 -3.9970301000000004 728.6987660162056 37.692249588622595 95.90412266166483 98.22094886464714 17.89913309273023</Array>
			</VectorInstance>
			<VectorInstance id="58">
				<Array type="real">-5.117373062585034 1.946080086846651 4.2500577386858085 1.5077317321671524 5.527775789823916 10.753961744891011 7.250440666666666 0.5273923596100348 -0.42582302939428995 -6.306157733333333 -5.392849733333333 -4.2168178 1643.496111453782 479.41546474051086 180.13295928436412 9.248799908297958 101.4964097028764</Array>
			</VectorInstance>
			<VectorInstance id="59">
				<Array type="real">-4.391268904575164 1.6535135350641967 2.91994931181662 1.3161018222222223 4.912407337096554 9.659825139284493 6.116706533333333 0.0900808540667153 -0.05739453363577033 -5.652061766666667 -4.3713236 -3.368312533333333 137.56628326644653 360.59521250182286 291.40776513434275 48.96932326479433 69.97754526396548</Array>
			</VectorInstance>
			<VectorInstance id="60">
				<Array type="real">-3.7679748748299313 1.386851289027082 2.359603317660906 1.1439588075524092 4.360196578293724 10.00841354710699 5.2670840000000005 -0.2838078812255015 -0.13144380254736351 -4.739232533333333 -3.7655904000000007 -2.6846881999999996 2807.745170996127 961.034993364832 423.5752832381937 116.81428881705287 10.247106176914324</Array>
			</VectorInstance>
			<VectorInstance id="61">
				<Array type="real">-4.445106364 0.9437936259946995 1.1473425902041845 0.7511795478933331 4.57524811520998 10.635181072185674 3.6320039333333334 -0.42925190110395733 0.10407707784341635 -4.778976133333332 -4.223521366666666 -3.856809516666667 945.8354844526513 159.556247264966 52.647479794329584 7.366544728868115 6.749541851536639</Array>
			</VectorInstance>
			<VectorInstance id="62">
				<Array type="real">-3.827517305333334 1.2472484055926667 1.9148287725168365 1.0144111436266663 4.046795603121342 8.663173584789194 4.346114466666666 0.11342097066027963 -0.9003314370579094 -4.456437416666667 -4.111393033333333 -2.800926666666667 1223.7750349174783 75.80808059571528 113.7011525267077 57.50982680110947 28.450926203764965</Array>
			</VectorInstance>
			<VectorInstance id="92">
				<Array type="real">-2.4826750200000007 2.956523662331533 11.979819564536179 2.5145466754666663 5.223665531113613 9.643804908785901 9.667946133333333 0.45136690992403644 -0.5481540899644246 -4.963648933333334 -2.5000952 -0.24184420000000006 4667.534646851449 2535.0843379402163 1361.508730621463 803.3536494029283 507.5796322482657</Array>
			</VectorInstance>
			<VectorInstance id="93">
				<Array type="real">-4.919503089333333 0.9636172977394831 1.056538913651903 0.7959066164266666 5.072999820324763 10.260618125928278 3.5681586666666667 -0.6822802862874798 -0.49679753317187547 -5.557451 -4.5219187000000005 -4.314900033333333 119.70511749229678 26.317174504586966 20.067144840801994 8.941092885794696 6.639880915580147</Array>
			</VectorInstance>
			<VectorInstance id="94">
				<Array type="real">-4.107287713333335 0.790398934724933 0.7203986251294278 0.65636085664 4.20037489749118 9.455644276379873 2.744393533333333 -0.09601616485843294 -0.8523124524286336 -4.656233433333333 -4.087530733333334 -3.432916133333334 792.7067899764241 105.64468958857269 16.41314890237205 23.12824323696877 0.8526751538281199</Array>
			</VectorInstance>
			<VectorInstance id="95">
				<Array type="real">-4.330267714666666 0.8447562053422722 0.9352181480100077 0.7129014401600001 4.416460656570563 9.661844346118956 2.879586066666667 0.32986309971174604 -0.7824345533974332 -5.040901866666667 -4.413700800000001 -3.6223373833333334 566.6219888862404 410.6653317569686 62.95945648834952 54.646725051374325 31.161733983226082</Array>
			</VectorInstance>
			<VectorInstance id="96">
				<Array type="real">-4.115721722666666 0.6826281759417686 0.4950541831821284 0.5281031652266667 4.19804399751836 9.420111459592324 2.7214091333333337 -0.3433908142216062 -0.15732509697101418 -4.5030046666666665 -4.079230900000001 -3.564158216666667 507.8341267024616 13.127357118196775 133.2099005819108 1.003372022108072 22.421320698518876</Array>
			</VectorInstance>
			<VectorInstance id="97">
				<Array type="real">-4.094288814666665 0.5657491168509099 0.38178804721746035 0.4543097901866667 4.149895519590064 9.950029530689939 2.242888133333333 -0.6263112760231452 0.20260655918355308 -4.431896683333334 -4.051537866666667 -3.6297194666666663 600.9450348367 109.1759990730549 45.42751504110171 54.974619588585114 1.5276556531247234</Array>
			</VectorInstance>
			<VectorInstance id="98">
				<Array type="real">-4.146061032000001 0.43325314002032295 0.1929985116032039 0.35090520634666683 4.1796696047173185 9.410628387912357 1.731007933333333 -0.3354445403911166 -0.38105195126110275 -4.461145950000001 -4.0932769333333345 -3.814072983333333 5.497943088664776 11.06492888408229 181.79848754318664 17.683469408729373 17.02084333978353</Array>
			</VectorInstance>
			<VectorInstance id="99">
				<Array type="real">-4.402272552 1.0104281418097896 1.3333498994187991 0.860697866986667 4.521220427286594 9.660578339355913 3.503195666666667 -0.2048853760454105 -0.8786996269484847 -5.1387449 -4.295986033333334 -3.462524416666667 2581.9561561201062 635.8267754514014 108.45591963723106 108.08583149935023 23.36752896444089</Array>
			</VectorInstance>
			<VectorInstance id="100">
				<Array type="real">-4.536890482666666 1.0055986614993218 1.527367240175069 0.8382472893866666 4.644882945044493 9.624234954355064 3.7588965333333335 -0.4146475843338157 -0.6512604002968536 -5.3181504166666675 -4.333814366666667 -3.7730922000000002 4280.17015175602 94.84811517260073 101.2810004560704 14.175775806342433 28.5290871864474</Array>
			</VectorInstance>
			<VectorInstance id="101">
				<Array type="real">-4.353395749333335 1.0928522434857175 1.7454515237249526 0.9300421386133334 4.490359946299969 9.625216368944058 3.6241828666666667 -0.11650283138019017 -0.9360442775939765 -5.181641083333334 -4.257279733333334 -3.46076875 4717.686214419175 37.9554061893348 304.34837055983303 1.2793723361663458 57.77614010251607</Array>
			</VectorInstance>
			<VectorInstance id="102">
				<Array type="real">-4.4293174440000005 0.8363777521389043 0.8698979978681987 0.6995081041066663 4.513022663220965 9.70298212407567 2.8712862666666665 -0.02183253941428846 -0.5637471857742202 -5.014206566666666 -4.488799066666666 -3.8220137333333337 1301.4415141295387 121.53910745629636 17.730955635525557 16.192990384401803 9.963429040139143</Array>
			</VectorInstance>
			<VectorInstance id="103">
				<Array type="real">-4.410498981333332 0.9018312424931301 1.201905705129247 0.7462015175466665 4.500854888649678 9.756716350455282 3.1530038000000005 0.040534444309342055 -0.4787830664262979 -5.056623750000001 -4.421122966666668 -3.762198566666667 2958.6179324653694 66.40212279309019 36.84565464368066 54.914998626832826 4.8248161751509935</Array>
			</VectorInstance>
			<VectorInstance id="104">
				<Array type="real">-4.466338202666667 0.8623789911278439 0.9032251337924565 0.7437761845333335 4.554419058966263 9.61600742392104 2.8981014666666667 -0.0018050213061041969 -0.7224317361976347 -5.204146533333334 -4.3895195 -3.7965555833333333 2153.3008031741656 70.08119512617779 46.21575371126264 4.905020902174429 17.423653452514227</Array>
			</VectorInstance>
			<VectorInstance id="105">
				<Array type="real">-4.632661830666666 0.8517005256889583 0.9289579277822435 0.7202861769066665 4.710425421353096 9.58453932932581 2.9226818000000008 -0.1841561412031586 -0.885734530301808 -5.3847890666666665 -4.460467599999999 -3.9997036499999994 2080.9396423266217 66.95373314319468 46.2841648735219 57.28583503937823 13.976314491589722</Array>
			</VectorInstance>
			<VectorInstance id="106">
				<Array type="real">-4.711638518666667 0.9498544447701055 1.1240036602480243 0.7919431699199998 4.807379720304916 9.708570518466393 3.259146866666667 -0.9052257119542538 0.1517825655800701 -5.3715810500000005 -4.4346104 -3.945075766666667 2621.9043964073644 77.12912938075593 181.46875543333985 53.77545503337536 14.616676137134764</Array>
			</VectorInstance>
			<VectorInstance id="107">
				<Array type="real">-4.252456142666667 0.8212607391187632 0.7710102905750261 0.6718371192533333 4.3561656207041155 9.506884483214023 2.9807811333333336 0.043627276065437176 -0.6922276309044465 -4.838552016666667 -4.333654733333334 -3.619264783333333 632.321974230162 73.15371709987747 146.18061249741984 110.1505121565911 59.159861002767315</Array>
			</VectorInstance>
			<VectorInstance id="108">
				<Array type="real">-3.896004249333334 1.2267431389454828 1.5152966063305031 0.9888310640000001 4.686511042622931 9.535145968764526 5.102363 -0.08304964448304429 -0.41711621083364925 -4.7221937333333335 -3.966623566666667 -2.8872775500000003 114.85425657500046 144.61505100284512 88.0250694840849 36.70490771332122 80.29617663365815</Array>
			</VectorInstance>
			<VectorInstance id="109">
				<Array type="real">-3.3283326599999996 1.6821416271881493 3.2388253380317913 1.3574052486933335 4.3901789451179685 10.50910386624787 6.202419066666668 -0.43339128478000344 0.05218756652127032 -4.338323533333333 -3.2628879666666664 -2.0775586666666666 2165.811056959018 959.3197653083939 524.878274817655 90.1246171754859 0.7066412374954124</Array>
			</VectorInstance>
			<VectorInstance id="110">
				<Array type="real">-3.8366471906666675 0.7911166230199113 0.6985922362947092 0.6183377965333334 4.108184725443958 9.360716228365517 3.269522 -0.15697653070279607 0.15194093819496665 -4.281939950000001 -3.8746065333333335 -3.4061808833333327 1104.7359730025933 48.08536652849438 174.0946692565821 46.59736888178291 14.914554214499544</Array>
			</VectorInstance>
			<VectorInstance id="111">
				<Array type="real">-4.074589304 0.649284269876805 0.42371757563751505 0.5042446382400002 4.269973706548746 9.538019565521461 2.6578830666666677 -1.037485616954246 1.9011483959854942 -4.390516983333334 -4.0584812 -3.5629212666666668 333.39307829437536 16.333447353870486 20.254259605024828 13.043560826830493 0.9893266104142588</Array>
			</VectorInstance>
			<VectorInstance id="112">
				<Array type="real">-4.364504769333334 0.6577814411268756 0.4664157924881474 0.4899742018666666 4.49505713508592 9.358575359999456 2.787329466666666 0.9421687880073794 1.0589068075940298 -4.770317283333334 -4.477705766666666 -4.1223263999999995 17.07784589016197 27.593511684334732 42.996202623968585 26.21870765017274 3.1378811611640574</Array>
			</VectorInstance>
			<VectorInstance id="113">
				<Array type="real">-4.982106757333333 1.815014491344621 4.12903598115022 1.0567757441600003 5.5588518239041145 10.320110571661964 9.2939718 -0.7630671662194922 2.965242571201101 -5.095250416666667 -4.8060306666666675 -4.4623032333333335 35.30622287171488 54.079862853068086 123.12972813068443 29.229808363539355 7.671632094171809</Array>
			</VectorInstance>
			<VectorInstance id="114">
				<Array type="real">-5.17214564 1.0824971698063501 1.238047262221098 0.8801049856000001 5.293638250228628 10.398526825913745 4.417461666666667 0.33548620339801866 -0.2949199186106363 -6.1245176500000005 -4.9876706 -4.48500815 602.3653560144664 76.5067881278365 57.9932380442358 104.77404285841999 53.29651802887751</Array>
			</VectorInstance>
			<VectorInstance id="115">
				<Array type="real">-2.208318650666667 2.3187652576822564 6.136086435103336 1.9590937856000004 4.621141478781827 9.07301504927681 7.8414894 0.25558509013410063 -0.5630284720079309 -4.1028537 -2.2091199000000006 -0.32520245 1229.0583862710043 211.2115172009006 573.4419140204313 386.2157356139079 158.7264342663795</Array>
			</VectorInstance>
			<VectorInstance id="116">
				<Array type="real">-2.2941906826666667 2.0078468194397967 5.260818435354344 1.7862108330666666 5.2775293865289905 9.627932937069879 6.585810600000001 0.12136309204734348 -0.8290782922055017 -3.8540162666666666 -2.7858033333333334 -0.3650260000000003 522.8111717221351 43.630684144449994 12.590145345247233 21.33385886829726 4.1110287881979195</Array>
			</VectorInstance>
			<VectorInstance id="117">
				<Array type="real">-4.240440462666666 2.7443387108386186 7.771736831069535 2.32661242736 5.404445207564052 9.498310903191241 9.330523266666667 -0.02297010727503353 -0.7766017965583701 -6.32714695 -3.804456366666667 -2.32962815 2006.5897409549375 653.6264425508749 249.04679255841157 407.4984233190232 306.07808425436735</Array>
			</VectorInstance>
			<VectorInstance id="118">
				<Array type="real">-3.4734307866666665 2.4894136506387095 8.701759651867635 2.1550982922666666 5.422709037482634 11.042893549386415 8.766927866666668 0.01615974052825352 -0.9289708795969904 -5.745116366666667 -2.7830898000000004 -1.7134802166666667 284.65730098953094 40.213255000409625 4.967931985490199 154.8931957052455 6.077906227012818</Array>
			</VectorInstance>
			<VectorInstance id="119">
				<Array type="real">-2.807900181333333 1.252610936402015 1.6888894974253805 1.0389349170133333 4.355606865402838 9.750245056293824 4.439329066666667 0.7726687807685767 -0.4793984423884761 -3.727243083333334 -3.2716667000000004 -2.0863372833333336 563.0703451858982 17.727268913638913 20.252117518678023 2.896917393262236 2.602592177633459</Array>
			</VectorInstance>
			<VectorInstance id="120">
				<Array type="real">-3.7392095199999997 0.2530454853883173 0.0641689960120928 0.21824125754666665 3.950956356789616 9.64146643603467 0.8858546666666672 0.2736248782829302 -1.0133759216482512 -3.9244855666666667 -3.7996678 -3.5170723833333333 29.33474124120061 3.7101845098601656 0.3239309201487955 5.695132126105013 0.5009547876450693</Array>
			</VectorInstance>
			<VectorInstance id="121">
				<Array type="real">-4.212268652 1.4771666224297189 2.3659058028205937 1.02994676416 4.796766674071156 10.08518536541669 6.034026866666665 -0.9564002657732783 2.2687286057272877 -4.637518733333334 -3.9214529000000007 -3.6396155500000003 528.3394456968664 84.12721417458768 69.04342059461499 30.570720316076784 27.534650179251614</Array>
			</VectorInstance>
			<VectorInstance id="122">
				<Array type="real">1.3682611706666672 2.9450533409407407 9.891961363235867 2.4317931248 5.2742855833791635 9.719634284940357 8.8302948 -1.167052014972031 -0.06011753081134271 0.03420713333333344 2.8345054 3.4706848999999997 6059.089538499882 1835.2211617432702 861.8671119105796 458.605506770123 308.0820468124595</Array>
			</VectorInstance>
			<VectorInstance id="123">
				<Array type="real">3.605920946031746 0.21678089210926899 0.04799080924988832 0.1775263159486017 4.173027346231085 9.733389113845979 0.7773174000000003 -0.29727787807463596 -0.29035456698236795 3.448618133333334 3.5917912 3.7502874 0.6669757711136941 0.20401860537991326 0.08664894181684986 0.08531497699354004 0.24663277191067584</Array>
			</VectorInstance>
			<VectorInstance id="159">
				<Array type="real">2.991872904761905 0.5725589032768804 0.32845790358858973 0.344409988435374 3.987489015806745 9.69581969385903 2.2203827333333335 1.128860596842564 8.496565888540049 2.7626794666666665 2.9669048 3.1256802999999995 6.876299468717937 5.089619725438693 4.096794963620751 3.4762385979557013 2.9111075378002798</Array>
			</VectorInstance>
			<VectorInstance id="160">
				<Array type="real">5.306049780555557 1.570458503568842 2.637514721610063 1.3810673916087965 5.537135075016003 9.653051434835856 5.6126472000000005 -0.1628527555967358 -0.9870055346213329 3.941225116666667 5.540033100000001 6.465751233333333 172.4917267660249 269.1448951216267 139.4338232194032 47.364986186396905 116.22578746669623</Array>
			</VectorInstance>
			<VectorInstance id="161">
				<Array type="real">5.287713575510204 0.7213194650321949 0.5848693113688156 0.5844344502568374 5.359480073424838 9.919922341406991 2.897781933333333 0.2635085545088007 -0.520590036714446 4.8185802 5.1850528 5.773388000000001 74.21730361506262 29.741322349041475 27.441331883934414 48.50595489131619 0.026613221647461674</Array>
			</VectorInstance>
			<VectorInstance id="162">
				<Array type="real">5.253560216666667 0.6761994692345693 0.53135445545631 0.5552731260416668 5.341443341260642 10.226047013515709 2.4778389999999995 -0.41189078375877 -0.5385220005026293 4.841524816666667 5.333493233333333 5.7607387 11.038311578715208 16.741734622154205 21.795531392671457 10.051269556507718 3.1259472207593526</Array>
			</VectorInstance>
			<VectorInstance id="163">
				<Array type="real">5.333985727659574 0.34864716670594653 0.13879359000135183 0.29720382127659567 5.356677411544084 10.15588878802193 1.2301405999999995 0.30560086210166504 -0.8063510113874043 5.0278336 5.275074666666668 5.588715199999999 21.96243644748716 11.716686938809696 2.592542416531067 0.3857702833661679 1.8450232772919775</Array>
			</VectorInstance>
			<VectorInstance id="164">
				<Array type="real">5.027498368000002 0.627817037875121 0.5205745103795353 0.5140467339199999 5.163940939904207 10.159910288154292 2.2543804 -0.10174238029887749 -0.45182310074425097 4.461924116666666 5.011313533333333 5.446340016666667 27.430795951163567 2.0302194235490467 1.5046259943559677 3.538279477525805 3.3866913830594556</Array>
			</VectorInstance>
			<VectorInstance id="165">
				<Array type="real">4.3065659106666665 0.9212745925825558 0.8853583722927598 0.7501985021333334 4.649853968683242 9.62193839469672 3.2588275333333336 -0.01848812229577716 -0.6557415519475157 3.6038021166666674 4.325853733333333 4.8637509 28.067231164193302 113.40277536637839 107.49760482691617 5.1659372706430915 3.9160846514538017</Array>
			</VectorInstance>
			<VectorInstance id="166">
				<Array type="real">4.774412065333334 1.2512532622212966 1.62110162510474 1.0089101950400001 5.168603171804408 10.929062219412039 4.843629466666667 0.17144976163339312 -0.5113367310706814 3.9058308500000005 4.736938000000001 5.5399533000000005 620.7821801820496 510.6959217585239 53.04158071946123 14.51645025399164 8.954649694505873</Array>
			</VectorInstance>
			<VectorInstance id="195">
				<Array type="real">-3.2216182519999994 3.1878326291182995 11.54294788631897 2.457682751413333 6.673707808890986 11.47073878136102 12.573549266666667 -0.13259537364525537 0.3673174187082209 -4.9204335666666665 -2.8525217 -1.4357129999999998 2756.7071574901647 1696.4238490986347 833.0269503037744 34.105611464953405 33.040227992766035</Array>
			</VectorInstance>
			<VectorInstance id="196">
				<Array type="real">-3.716145453333335 1.0425740945593491 1.2418844728770209 0.9051532988266672 5.340224295915893 9.971587125972796 3.176946133333334 -0.04061967286532039 -0.6542619444479872 -4.717924116666667 -3.4559404000000007 -2.876743133333333 98.17560659312207 76.6190833546304 132.83397344850223 7.090326744478243 6.278743892502486</Array>
			</VectorInstance>
			<VectorInstance id="197">
				<Array type="real">-3.2646021893333343 0.8489270188914185 0.7659585733404487 0.6557096645333335 5.246004087033456 9.715866039780547 3.4058315333333327 -1.1698581340520073 1.2729047285253055 -3.6630787999999996 -3.0285755333333335 -2.67379465 400.3044416904082 55.38731587180926 21.226476586146703 92.42704443155233 28.00136262164106</Array>
			</VectorInstance>
			<VectorInstance id="198">
				<Array type="real">-3.8508207999999997 1.2296441298563299 1.5375066834256899 1.0763310639466666 4.948490993290437 9.38842318824701 3.9223407999999993 0.11053495249638924 -1.3812655531299705 -5.015722866666667 -3.8723716666666665 -2.6928283666666673 714.4872325902023 240.6200167984347 30.664533610947075 87.23078399501486 61.82288612618436</Array>
			</VectorInstance>
			<VectorInstance id="199">
				<Array type="real">-3.9567594586666672 1.253154105069871 1.827308097351558 0.9401933946133335 4.927197105273984 9.474050333227428 4.8401178666666675 -0.3625525752209655 -0.17560337838532133 -4.509708316666667 -3.8509038666666666 -3.2099759333333338 890.583688651009 179.7970861802332 147.01756280542347 82.84447881193935 6.452839519038754</Array>
			</VectorInstance>
			<VectorInstance id="200">
				<Array type="real">-3.716049604 1.3067792163104321 1.9062476521324074 1.0961838794133334 4.8920060386930055 9.528594489796184 4.587769133333333 -0.011410063701319658 -0.5754948683387372 -4.735601183333334 -3.5882599 -2.6188474999999998 2168.7688537188887 1313.74624272243 218.84444112479335 33.00166840223897 10.83443045538952</Array>
			</VectorInstance>
			<VectorInstance id="201">
				<Array type="real">-3.2156774719999994 1.4652936407950372 2.396267304938768 1.1554482612799999 5.334164712153204 10.05382540668428 5.510334866666668 -0.5630760148096902 0.16015159779585528 -4.128671183333334 -2.9446986 -2.2187765166666664 538.1259380590991 123.26419470715447 69.35903941239324 179.5087895452802 131.86993912159986</Array>
			</VectorInstance>
			<VectorInstance id="202">
				<Array type="real">0.35966059466666717 2.9350295319388473 8.798456040574893 2.5996880793600003 5.241496300626282 9.341052379362427 8.245471266666668 -0.6221569829806585 -1.1754668005107238 -2.1936373833333334 1.732215 2.7664703166666667 1443.2699503432939 635.5282716349411 218.87519770421338 174.63302509271568 152.0936084698551</Array>
			</VectorInstance>
			<VectorInstance id="203">
				<Array type="real">3.1464894489795907 0.2917499334174523 0.09226782603122922 0.23580363770651114 4.380492251601408 9.787891917039078 1.1932701999999997 0.12212840820246003 -0.10853579577507559 2.9301936000000004 3.1716888 3.353648133333334 13.730158121639775 1.7743347167444432 7.541875934767547 3.4876920470168784 1.4343761611170542</Array>
			</VectorInstance>
			<VectorInstance id="204">
				<Array type="real">3.1827219916666674 0.11472920382509703 0.01825609162078214 0.0857024958333335 4.217399984185541 9.567498927089964 0.3659937999999998 0.03144888133784466 1.7928718320424766 3.11933545 3.1695339000000007 3.2342971000000005 0.2871798671465994 0.29285092855229766 0.17715731508036034 0.2928509285522978 0.2871798671465994</Array>
			</VectorInstance>
			<VectorInstance id="229">
				<Array type="real">2.848830644444444 2.098540116795079 4.744104713442012 1.7971660608796298 4.6282812025653355 9.316184481600558 7.217880066666667 -0.6500086297292766 -0.4169916469602383 1.1439195333333334 3.6510080000000005 4.50817215 209.31268914003283 632.5807292027638 83.5386478438866 29.37043714615126 39.01001145957192</Array>
			</VectorInstance>
			<VectorInstance id="230">
				<Array type="real">0.9060215306122444 0.9755266807531259 1.7150940265241221 0.8455758470081909 5.075077529162315 9.469534060607568 3.1601867333333336 0.07513961356732705 -0.3136607062489741 0.08875506666666648 0.8287229999999998 1.6526476 579.6259239314824 293.05560181698024 102.01855129794168 36.372160327147434 97.91428816839404</Array>
			</VectorInstance>
			<VectorInstance id="231">
				<Array type="real">0.5556275440000006 0.23877051941071362 0.06187728897866059 0.18644495616 4.8637288205118505 9.379449834678912 0.8623914666666668 -0.38539290994710895 -0.6440980199372014 0.4209505833333325 0.5796461999999997 0.7474796666666664 6.752314724951566 0.5756257503393766 2.2225114434731963 0.8559444468397452 0.6109057616367238</Array>
			</VectorInstance>
			<VectorInstance id="233">
				<Array type="real">0.6309332026666669 0.06358715351569967 0.00575809706563322 0.04959254037333336 4.867893285983192 9.421749188798136 0.2293645999999995 0.782612066881217 -0.06475684956160539 0.5851927166666666 0.6152400333333331 0.6489184166666663 0.00976434154278981 0.21058713599246637 0.06715859403073449 0.2228200274437482 0.09049113157557863</Array>
			</VectorInstance>
			<VectorInstance id="234">
				<Array type="real">0.7619822093333338 0.08946675109920478 0.00977759038848833 0.06758141194666661 4.817681459481069 9.420520106659701 0.38722193333333293 -0.06262278959793294 0.9039100943211671 0.6986780000000005 0.7611267000000002 0.8101678333333329 0.6711984482940567 0.3694130467818476 0.06951351116946168 0.044974009537926705 0.14879459889057797</Array>
			</VectorInstance>
			<VectorInstance id="235">
				<Array type="real">0.6977186293333327 0.3266786360701597 0.11297604190294458 0.24693832176000027 4.799759822741663 9.358214133602262 1.331973999999999 -0.5952511444157803 2.1478152028914326 0.6147611999999997 0.7384615333333334 0.8428088166666668 20.895680285477003 13.779641911622708 11.366344156809877 6.334109066054372 3.779012955455785</Array>
			</VectorInstance>
			<VectorInstance id="236">
				<Array type="real">0.7698703480000004 0.2640858998407644 0.10150798616968482 0.21571706368 4.584112031030855 9.42400051253157 1.1099519333333332 0.43268850787523444 0.09670750890140296 0.5628868166666665 0.7690275666666665 0.9419287833333337 16.43495799571866 6.688852729755249 1.7536125149110606 2.186716061535316 1.550009537618612</Array>
			</VectorInstance>
			<VectorInstance id="237">
				<Array type="real">0.39976186933333313 0.1527406015261287 0.038213713818566246 0.12313566271999994 4.632917149144178 9.348330444754684 0.5929639333333332 0.17077620133803065 0.5447206661837116 0.2895089000000001 0.37238823333333365 0.4933354166666663 15.153654982562642 18.32212358040853 8.988292225120748 6.030430741454476 4.253280060567512</Array>
			</VectorInstance>
			<VectorInstance id="238">
				<Array type="real">0.4594349186666659 0.2564100203932815 0.07947489283966992 0.19810519925333328 4.565579891274438 9.336418349900406 0.9884859333333332 0.6398214207642621 0.33180885548359046 0.29242168333333307 0.4313652999999998 0.6312013999999998 70.7248542586449 3.9758771253329916 0.4897750976977654 1.9178247696845194 4.761677490483148</Array>
			</VectorInstance>
			<VectorInstance id="239">
				<Array type="real">0.631262007999999 0.21889543660479494 0.06918241414840114 0.17416931093333343 4.5554512356432175 9.3456202157794 0.8242437999999996 -0.33779543074479906 0.6042680612793973 0.5144042000000001 0.5936922000000001 0.7630820666666667 62.98315097691681 8.698590147191341 5.1183131588481245 3.7480385154019307 7.237588950091279</Array>
			</VectorInstance>
			<VectorInstance id="240">
				<Array type="real">0.9899421293333327 2.26778088805765 5.670091373430938 1.7981484961600003 5.829543556756796 10.17638213831346 7.992164266666667 -0.7240727072655657 0.521918741516771 -0.16439178333333349 1.0383751 2.5776873 587.2880206346402 396.9864177593768 56.311137986348314 41.13240932791125 33.33005910170287</Array>
			</VectorInstance>
			<VectorInstance id="241">
				<Array type="real">3.8184201373333324 1.6206787376334082 2.986654512522255 1.3364356909333335 4.683423033542093 9.108346105386243 5.6988384000000005 0.5725013421832615 -0.5404673912776641 2.4875456333333337 3.655955966666667 4.87767715 3267.1949030165592 615.3880576535205 244.415337011357 37.54219751060488 71.30244338302589</Array>
			</VectorInstance>
			<VectorInstance id="242">
				<Array type="real">3.81671866 0.8611292915970633 0.8475601378351788 0.7061495793066667 4.635876609773684 9.802463150830619 3.477657866666666 -0.21857788248368695 -0.44648829449683386 3.2174179666666674 3.9176422333333334 4.504580716666667 72.59699091950488 5.001679299608645 1.2921513955219965 46.33091216815254 26.313393746333695</Array>
			</VectorInstance>
			<VectorInstance id="243">
				<Array type="real">0.13613150666666515 3.225881701916499 11.53647160042042 2.729271491306667 5.689323344530759 9.967876676708125 11.302068400000001 0.39503707565088036 -0.5788131901363358 -2.42364035 -0.17309093333333317 2.8080493500000006 2248.236232773268 1279.2567695488344 205.32938934204816 82.09319845941955 81.84928971423697</Array>
			</VectorInstance>
			<VectorInstance id="244">
				<Array type="real">-1.7492097653333334 1.5654160922920992 2.458995132808098 1.2613865034666667 4.597387111689723 9.512978844704003 5.465164333333334 -0.6963638874236975 -0.36309490065485645 -2.414302983333333 -1.3354757333333334 -0.7118660166666668 1236.7922355676674 170.57913289589604 138.19481860236283 72.12210894257178 64.32172043064433</Array>
			</VectorInstance>
			<VectorInstance id="245">
				<Array type="real">-2.56278506 1.2585556012390662 2.0483899962054912 1.0642155258666663 4.391999156884296 9.863187825743543 4.749617466666667 -0.4072468881424522 -0.6538754087173392 -3.413642783333334 -2.1619541666666673 -1.625333866666667 554.5557454227212 270.32170003082626 377.8466774077925 52.878192597494106 14.803613584689302</Array>
			</VectorInstance>
			<VectorInstance id="246">
				<Array type="real">-3.2674336493333342 1.8103884961657457 3.308486757796935 1.2354207158933335 4.590068556080196 9.651467849850834 8.513142933333333 1.0365497921796611 2.301756942931909 -4.2310632 -3.587780966666666 -3.001441 1195.4388114419066 209.65949152408714 26.4694963473924 68.46334338328622 155.69483705349685</Array>
			</VectorInstance>
			<VectorInstance id="247">
				<Array type="real">-3.8815623786666666 2.9148653199320482 10.357957539027526 2.5107902743466664 5.419989986977697 10.01738916031926 9.791487066666667 0.31789718664083916 -0.004823403926573248 -6.1473024999999994 -3.422581166666667 -1.5995961 4416.193170147856 1309.1597668387315 642.9413932024718 297.8055619794232 137.16802043710427</Array>
			</VectorInstance>
			<VectorInstance id="248">
				<Array type="real">-3.5108314426666674 2.2575397211832327 5.646633663797846 1.7444318234133334 5.704405122310724 10.69585284103694 9.207780466666668 -0.4944562999547652 0.2168981909595947 -4.723470633333334 -3.1614535666666668 -2.0718523999999996 451.95245344420294 29.858504762692792 239.68018388576263 20.888847537563322 2.4965961888987134</Array>
			</VectorInstance>
			<VectorInstance id="249">
				<Array type="real">-4.717834742666667 1.4016171255558927 2.2457853550002724 1.2071152273066665 5.174406613019193 10.024235909462368 4.5722868 -0.10403394024012765 -1.021807701766997 -5.877914766666667 -4.707549266666667 -3.3430139333333337 1417.4674953202684 273.1268594955055 247.5780970399316 113.41348920510625 44.12665417003835</Array>
			</VectorInstance>
			<VectorInstance id="250">
				<Array type="real">-4.573135525333334 1.8241857825378485 3.4753463734368846 1.5634840459200001 5.03231344599697 9.011902307468784 6.5163785333333335 -0.13649267290854902 -1.0623855972997924 -5.991958716666667 -4.376510800000001 -3.035957516666667 3733.6016420636297 512.2960500209163 175.32076992299054 10.94222910347594 8.939433072309871</Array>
			</VectorInstance>
			<VectorInstance id="251">
				<Array type="real">-4.570339098666666 2.2945000887192077 5.626460738528841 1.799971159146667 5.675693604667941 10.193757761741837 9.050561333333334 0.22106702714952742 -0.20857708622509774 -6.010034966666669 -4.693104166666667 -3.328529066666667 163.31752436461747 990.326838211495 522.0137639285962 102.64394905990179 363.72837522817315</Array>
			</VectorInstance>
			<VectorInstance id="252">
				<Array type="real">-1.3747566439999994 2.08709688209456 4.586201885834131 1.7641194540266667 5.466924028887806 10.11302066965721 7.615476666666666 0.14431351842666926 -0.08801081461550948 -2.7867211666666662 -1.4546272333333334 0.3214714333333341 906.3571408578246 271.3583454616543 39.68514713342541 79.34368384103335 50.77976400341586</Array>
			</VectorInstance>
			<VectorInstance id="253">
				<Array type="real">3.5941025560000006 1.6228275056366044 2.676917901934896 1.3664849414933335 4.21192973079852 9.209053100870069 6.131231333333333 -0.06596669483553205 -0.6279855825746431 2.2631691166666665 3.965207066666667 4.582232683333333 142.35126801773916 842.2817885640593 417.30298239994204 212.88554223471536 1.86393487791065</Array>
			</VectorInstance>
			<VectorInstance id="254">
				<Array type="real">3.7225849800000006 0.24995718508777687 0.07682088754057347 0.19361798949333323 4.059642886594176 9.652994482863472 1.0741983333333327 -0.3096755391279902 0.6572230237796818 3.5887187333333332 3.723791566666667 3.865528416666667 4.91441245589437 5.638169601021669 1.005883158793321 0.21320653653967067 2.3916565469670292</Array>
			</VectorInstance>
			<VectorInstance id="255">
				<Array type="real">3.5092488213333333 0.11306861775565058 0.01948903466688047 0.0943223684266667 3.9851410932955296 9.613334195628136 0.3513090666666663 -0.2976970038708407 -0.04208975195144834 3.43704595 3.4783063000000003 3.579141933333334 18.18013462827959 3.2356998355711375 0.8555289115703002 0.726643949388918 0.5175913615382634</Array>
			</VectorInstance>
			<VectorInstance id="289">
				<Array type="real">3.8771897573333334 0.1831996068297531 0.03966999758701135 0.14390176021333337 3.9141445109599178 9.73404320476177 0.7859368000000003 -0.07132198051276654 -0.3419182517479465 3.7621386500000003 3.882766633333334 3.9941767 24.183588514123144 14.382484392301572 8.00857667823042 0.836381565187213 1.3244208522668797</Array>
			</VectorInstance>
			<VectorInstance id="290">
				<Array type="real">4.126869902666667 0.3326159577660983 0.1309940575913107 0.2875346756800001 4.168449756252618 9.724492756603025 1.1426728000000004 0.09558370366979714 -0.9703104809219995 3.8384340333333338 4.125698300000001 4.428923966666667 20.0133197365421 58.75415657252781 2.1522143511410787 9.235054521863498 0.9364740910663448</Array>
			</VectorInstance>
			<VectorInstance id="291">
				<Array type="real">0.8783436093333332 3.833787095026112 16.350839626631167 3.3894891163200014 6.3336190287291245 10.611286996376133 11.548830933333335 -0.5388270679434425 -1.1808168125346292 -2.969079433333333 1.9032406333333336 4.135474516666666 565.1350270299254 2.171666633785737 1067.1116178637628 529.0145006633647 292.51353503727717</Array>
			</VectorInstance>
			<VectorInstance id="292">
				<Array type="real">-3.503351976 1.653010871143177 2.8874595170557527 1.2633827948800003 5.802410553839725 11.193108587589009 7.106948266666666 0.23947963059178798 -0.06388387358708798 -4.283216866666667 -3.690651866666667 -2.4737191666666667 569.8117486257221 158.1880591164069 242.6075939642282 9.617722935354124 76.82792965214031</Array>
			</VectorInstance>
			<VectorInstance id="293">
				<Array type="real">-2.690769492 2.3829502768960915 5.798963139442841 1.870691823466667 5.124862348428128 9.08471568009573 8.653762200000001 -0.05832349807966789 -0.5998380393219215 -4.232220483333333 -2.5593119333333334 -1.2312481166666667 1003.0184499610932 578.8517604738673 478.80980009032885 150.76863710680178 117.22185248665782</Array>
			</VectorInstance>
			<VectorInstance id="294">
				<Array type="real">-3.957241532 0.8546414637153572 0.7844195505556675 0.6838408650133335 4.732542890571173 9.910295295802237 3.165932733333333 -0.15857519541559287 -0.4675703970200387 -4.500690183333333 -4.004930833333334 -3.3311624833333333 101.69493001030239 17.58537377748836 8.040437732747737 36.481536212573815 23.128615654343903</Array>
			</VectorInstance>
			<VectorInstance id="295">
				<Array type="real">-4.012665714666666 1.2050852087107626 1.636409546245672 1.0633756361600002 4.856262610210922 10.211900264187232 3.720110466666666 -0.2868043418527959 -1.0543462939483546 -4.976418016666667 -4.0423602333333335 -2.9097033833333334 45.11655173035511 253.44332740716195 114.1955627271615 5.881554937200035 1.494606808663099</Array>
			</VectorInstance>
			<VectorInstance id="296">
				<Array type="real">-3.8575789120000015 0.7452280987934926 0.567721065334132 0.5559834566400008 4.5101408727985275 9.754117737644389 3.1102278000000005 -0.5408313280859101 1.6687818181713865 -4.226434383333333 -3.6923279333333334 -3.4706248666666677 39.25948489822614 76.50786811902492 119.34659806875993 21.726947322904056 7.677943402928118</Array>
			</VectorInstance>
			<VectorInstance id="297">
				<Array type="real">-3.407025258666667 0.9816198560083391 1.0259768005333008 0.8160313032533333 4.812242700652532 9.689978466549455 3.2435050666666676 0.09896171434990957 -1.0154172273140383 -4.107681950000001 -3.422341833333334 -2.7187657499999998 16.317731358996475 26.542962133006224 7.350364349040072 23.31347259718768 0.8805151235597025</Array>
			</VectorInstance>
			<VectorInstance id="298">
				<Array type="real">-3.7777625586666654 1.3931854389636695 1.963979350291127 1.0931432205866665 5.039289131545984 9.679486657033621 5.169560333333333 -0.20450050243297171 -0.45364103682643897 -4.662338633333333 -3.613000066666667 -2.890948633333334 1098.932863024696 29.939288295252354 154.27573686095738 29.52072772750595 4.51316726837618</Array>
			</VectorInstance>
			<VectorInstance id="299">
				<Array type="real">-3.705377868 0.9022765449574099 0.8242842197975113 0.7748218873066666 4.872817255576957 9.44227140674813 3.1510884666666663 -0.04504130937981704 -0.7550315932245296 -4.4498134333333335 -3.732869666666667 -2.923829083333333 330.0444098260019 185.1461440719833 73.32946653968996 5.790463666108569 20.45302313894675</Array>
			</VectorInstance>
			<VectorInstance id="300">
				<Array type="real">-4.410431965333333 0.9454482106945167 0.9104513771524442 0.7370124028266662 4.889574766027341 9.791510455336196 3.7767734 -0.1045733165702799 1.4712388276531012 -4.868599233333334 -4.3228010333333335 -3.999823266666667 331.2209186468114 13.684020401856046 32.07975491084221 109.84089394335736 48.83004282263684</Array>
			</VectorInstance>
			<VectorInstance id="301">
				<Array type="real">-3.1585741226666664 3.234836315935508 10.729820168721595 2.80095384144 5.261984177646767 9.372809876492488 10.272082933333335 0.03255934236617025 -1.3013585852043612 -5.890364616666666 -3.3100536666666667 0.10794858333333342 2587.353068369018 1366.5772188329506 680.0629458064324 57.857568688778585 93.94602365858786</Array>
			</VectorInstance>
			<VectorInstance id="302">
				<Array type="real">-3.7032109428571416 0.9755229258799342 0.9882325920965491 0.7539992819103154 4.863769014178779 9.605712702218907 3.6856340000000003 -0.27798593520387577 -0.25770480192298245 -4.218733 -3.718823733333334 -3.027697600000001 48.83070500452446 29.328579753889926 4.4947251114801166 3.5866602647632186 2.502596728992555</Array>
			</VectorInstance>
			<VectorInstance id="303">
				<Array type="real">-3.9682165039999995 1.3348234067908564 1.8341489925425176 1.1344789630933334 5.0493717489787135 9.783794544826215 4.340687533333335 -0.6401587422228939 -0.7013726780860704 -4.8218323666666665 -3.646518833333333 -2.867485483333333 767.9810822424807 116.30590374201867 54.359716444097884 18.436147543832888 23.22565103439916</Array>
			</VectorInstance>
			<VectorInstance id="304">
				<Array type="real">-4.4122866720000005 1.0353797327766212 1.160107489325305 0.8702625684266666 4.636919779369687 9.55659270463284 3.6993608666666664 -0.09508958957975082 -0.9589620780658549 -5.173460833333333 -4.488719133333333 -3.487942816666667 69.41568752635794 55.466471969648445 43.01074726944749 9.597419491568381 4.288937679702394</Array>
			</VectorInstance>
			<VectorInstance id="305">
				<Array type="real">-4.824178745333334 1.3821916815201218 2.019948229202576 1.2079275178666669 5.060430182789649 9.671541334443445 4.513548933333333 0.04371569936182488 -1.2788994715416444 -6.0275124333333325 -4.902756433333334 -3.526449533333334 137.62690422421795 37.92861474143899 15.728517967120942 2.0578175031299266 3.6308836429211957</Array>
			</VectorInstance>
			<VectorInstance id="306">
				<Array type="real">-5.298224261333334 0.9878630786617998 1.050764327734225 0.8465323763733336 5.409075053615459 9.620280385617825 3.1624212000000007 -0.28833178301839396 -0.622265575393315 -6.051055333333334 -5.284073066666667 -4.495462766666667 49.66775783400879 51.20995080387818 13.61125830846725 2.0193348018261608 1.074886425001413</Array>
			</VectorInstance>
			<VectorInstance id="307">
				<Array type="real">-5.1500838799999995 0.3016061332637132 0.09971436303681526 0.24821796213333336 5.163425430938843 9.560818336791181 1.1581550000000005 -0.04341718357517147 -0.5585375148534574 -5.379721333333333 -5.146725533333334 -4.93447955 70.06139798553026 7.164050009980032 5.889537509377751 5.663018321720551 1.0660939782066192</Array>
			</VectorInstance>
			<VectorInstance id="308">
				<Array type="real">-5.111715949333333 0.584540902800676 0.41428963291968496 0.4539805739200003 5.176905878497442 9.622174933620277 2.2781626666666677 -0.2196424259289537 -0.15551036677832256 -5.370902633333333 -5.141777566666667 -4.747572333333333 448.6679704743022 85.60206089061884 28.26803843736218 43.33917384707862 19.00274440460737</Array>
			</VectorInstance>
			<VectorInstance id="309">
				<Array type="real">-4.690061945333334 1.1826367728637954 1.4090708387221624 1.0002740972266668 4.96265143835781 9.536372411210028 3.9753324000000005 -0.26003006501120235 -0.9348331726932847 -5.561800266666668 -4.660542966666667 -3.750706466666667 225.37052413828698 13.995124464306603 14.775713508736231 10.034439048495974 5.059029051460891</Array>
			</VectorInstance>
			<VectorInstance id="310">
				<Array type="real">-4.6740049106666675 1.0285216232055523 1.1851638279974424 0.8595936068800002 4.846815634698957 10.030845315275878 3.5482068666666664 -0.43060006529893097 -0.2985083900033607 -5.343409283333333 -4.695418633333333 -3.8090053666666672 96.61700350991565 30.85278523366111 16.001594768131515 12.669096901815163 3.2270563298387143</Array>
			</VectorInstance>
			<VectorInstance id="311">
				<Array type="real">-4.577234436000001 1.3413364671649173 1.8903991823535293 1.1523283958400004 5.0155039012555545 9.946935379768975 4.2530599333333345 -0.272980306772512 -1.117194328053057 -5.742323216666667 -4.412583566666667 -3.346645166666667 371.74319229793423 28.215297654105328 9.79639009685988 58.92224184875637 24.356083214480904</Array>
			</VectorInstance>
			<VectorInstance id="312">
				<Array type="real">-4.6571560466666675 1.0288387307014828 1.1685262698538827 0.8505176156800002 4.8068595312351805 9.795154633804135 3.621150133333334 -0.15301067499603513 -0.6849257583188582 -5.300513216666666 -4.6618997333333345 -3.8037380499999998 143.9608702305713 64.23312660549388 1.0859254924217951 3.9780807871713346 1.4810563132640922</Array>
			</VectorInstance>
			<VectorInstance id="313">
				<Array type="real">-4.865703747999999 1.2334594216556891 1.6982622196455939 1.0695465412799998 5.082731394288948 10.181456462624404 3.991772733333333 0.1971210710803931 -1.0386433845011889 -5.877635316666667 -4.9539923 -3.8807116833333333 250.3663001420865 121.75598495077118 4.6790850232655785 6.0215943383114325 3.1365578669285346</Array>
			</VectorInstance>
			<VectorInstance id="314">
				<Array type="real">-4.549372284000001 0.9968519225907088 1.010555185246721 0.7649104413866668 4.797962508192916 9.630320606450603 3.996880533333334 -0.47108610012003016 0.5956796464337085 -4.9690358833333335 -4.5421099 -3.9587226833333333 442.5430369577949 242.89873086056735 36.241036454442266 4.080057139666808 25.08954935776261</Array>
			</VectorInstance>
			<VectorInstance id="315">
				<Array type="real">-4.638803732 0.6395004595996091 0.4345116154379592 0.5210468653333332 4.792732105889649 10.249273742119273 2.4674642666666666 -0.2608072870083275 -0.5230512054418263 -5.103430516666666 -4.550649233333334 -4.157880333333334 704.8302907504474 7.530127208732444 72.07465760725222 21.843490631246713 4.228696908736303</Array>
			</VectorInstance>
			<VectorInstance id="316">
				<Array type="real">-4.605907417333334 0.6130676963066757 0.3774839258925387 0.5010680317866668 4.686816320061617 9.870138592111124 2.251507333333334 0.1302761837302862 -0.5576918363806265 -5.093414916666667 -4.648651933333333 -4.172524933333334 128.89001083549226 16.200769316788023 26.095503081322867 30.772278506079505 24.259458319848395</Array>
			</VectorInstance>
			<VectorInstance id="317">
				<Array type="real">-4.933204303999999 0.605269565772811 0.36921035113089345 0.5048263462933332 4.981052359209658 9.792126645820066 2.2192655333333335 -0.07537601418067065 -0.8772729596109317 -5.348516900000001 -4.9345196 -4.4306198666666665 118.83641624289928 109.8086456589324 35.92081300089174 38.49814557824889 12.833928942771674</Array>
			</VectorInstance>
			<VectorInstance id="318">
				<Array type="real">-4.835437892000001 0.524039282725003 0.29201141379117873 0.41499417936 4.868574152052979 9.72741582335495 2.098757066666666 0.6612417570966765 0.006833438369184079 -5.200555283333333 -4.9351579 -4.52890185 10.993288375155439 99.59864419109253 22.50272488575754 0.8543396479481173 6.146615057725627</Array>
			</VectorInstance>
			<VectorInstance id="319">
				<Array type="real">-5.107495786666668 0.537633977100698 0.30515301841888975 0.43563733935999993 5.142363518876481 10.144662378539197 2.069388266666667 0.6395492323520967 -0.1879503869952671 -5.520819583333332 -5.203867233333334 -4.799007716666667 11.805702712363432 28.14330935519442 52.10851945205231 16.022976606127905 0.6725157828049204</Array>
			</VectorInstance>
			<VectorInstance id="320">
				<Array type="real">-4.83362154 0.8905649059488433 0.8054051077909542 0.7744176182933332 4.975846195731957 9.571965530740608 2.7932353333333335 -0.10742094124200097 -1.2734268422588262 -5.572295000000001 -4.838113033333333 -4.030708400000001 111.79625123884882 221.32179903768633 48.53081667360303 19.419310111819243 23.020043807277286</Array>
			</VectorInstance>
			<VectorInstance id="321">
				<Array type="real">-4.413509263999999 1.1457424411072914 1.4778777611537037 0.9317156331733335 4.8648713861186685 9.642488732976334 4.101267400000001 -0.4801081075886871 -0.698922395604107 -5.225574533333333 -4.276114033333333 -3.5414133333333333 206.26843096541415 43.04173966889531 0.46216719201760514 9.521683878388469 4.562149117165947</Array>
			</VectorInstance>
			<VectorInstance id="322">
				<Array type="real">-4.390451577333333 1.1984183128477381 1.5990003418395384 0.9939091043200001 5.151740325689244 10.261783110749684 4.1285612 0.027957513715093568 -0.8427336519387373 -5.297759983333333 -4.4892779 -3.474894416666667 106.80252936980878 31.4798886439066 11.880352039371761 8.69818327071089 0.7628812818015706</Array>
			</VectorInstance>
			<VectorInstance id="323">
				<Array type="real">-4.109512763999999 0.9042930430343846 0.9802117920352122 0.7803945914133331 4.853437208118766 9.679758854949583 3.0778261333333337 -0.27234402025533316 -1.0223467829444084 -4.802479366666667 -4.034459233333334 -3.3027513333333336 36.12616968103876 1.6982840103988186 9.979336571827053 2.4208427761382705 0.21567255661825674</Array>
			</VectorInstance>
			<VectorInstance id="324">
				<Array type="real">-4.3268871173333325 0.966170883817564 1.0052683983448405 0.8057742714666668 4.782011557936958 9.610439529736801 3.5453340666666673 -0.22870041726879617 -0.8585117164165409 -5.025419433333333 -4.262626766666667 -3.5454834500000003 277.73842785929423 123.25032854076677 4.759363711782473 9.29305831308023 4.7321302602171755</Array>
			</VectorInstance>
			<VectorInstance id="325">
				<Array type="real">-4.785986425333333 1.1966532186978325 1.5233117193382324 1.0539134343466667 5.168532878761088 10.192928376373047 3.8351918666666673 0.09319943536424996 -1.304443452018683 -5.775961783333334 -4.856628100000001 -3.6886567333333335 797.2530009593894 234.26319191757727 11.155813277500254 13.16643259887614 10.277735945176177</Array>
			</VectorInstance>
			<VectorInstance id="326">
				<Array type="real">-5.344556906666668 1.336322380206381 2.1715073538548846 1.1968366948266664 5.567550866244001 9.696351144285288 3.931758066666667 -0.2919347083561274 -1.0714872452016515 -6.415213666666666 -5.656770366666667 -4.057523383333334 286.13025005762535 470.3872200987081 166.1546372958701 11.164761739149284 71.23150480325604</Array>
			</VectorInstance>
			<VectorInstance id="327">
				<Array type="real">-4.865639813605443 1.5041097043556215 2.878367998848182 1.2444262046369567 5.41413738481739 9.98673274033846 4.725515733333334 -0.022066973884954193 -0.7713899847465431 -5.754054933333333 -4.787435666666667 -3.458973066666667 1381.3600234302182 722.016628156188 288.10528271342554 156.56583769720308 129.10029424028264</Array>
			</VectorInstance>
			<VectorInstance id="328">
				<Array type="real">-5.408641730666669 1.2128596146402915 1.5374564438770661 0.937870241706667 5.559606090706418 10.05285918344922 4.761747933333333 0.45848236231619294 0.574483370119415 -6.288719983333333 -5.335947433333334 -4.665411283333333 522.0988670008409 247.69968317165865 108.53980434624859 50.40015329393451 34.675171197787854</Array>
			</VectorInstance>
			<VectorInstance id="329">
				<Array type="real">-4.155803777333333 1.0238094634091461 1.0707423930940545 0.8755899833066665 4.822003993035724 9.44558181930873 3.419398866666667 -0.024992161628152543 -1.0408296638350778 -4.944734866666667 -4.180984366666667 -3.215283166666667 239.54025894755614 36.60767305804753 69.00930533820379 0.43347612096276233 17.425022135674077</Array>
			</VectorInstance>
			<VectorInstance id="330">
				<Array type="real">-3.6213733413333338 0.8264559099665232 0.7170470636200362 0.7096185124266667 5.130137964923048 9.623870893925117 2.7156630000000006 -0.12070129961237962 -0.819834705432779 -4.125478916666667 -3.8152301666666673 -2.8336474666666667 135.80469350031737 3.6269451112260023 50.830573892418954 9.591143329573502 9.545129656891428</Array>
			</VectorInstance>
			<VectorInstance id="331">
				<Array type="real">-3.346049696 0.677076727852525 0.4874505169455185 0.5291610053333334 5.445101212027768 9.840020832939938 2.673525333333334 0.16593868910293097 0.00639350106066372 -3.7922459833333337 -3.4074179333333334 -2.932527933333333 27.201927174272463 180.81992996713979 170.48033213246038 40.40119454280267 18.660695393274192</Array>
			</VectorInstance>
			<VectorInstance id="332">
				<Array type="real">-3.3534525226666667 0.9793838018997486 0.9913159456403541 0.7835388739733333 5.160833853535764 9.681525619810992 3.967671266666668 -0.1940204810316155 0.031084296712615405 -3.946232866666667 -3.330564066666667 -2.6459819166666665 386.66253025583904 85.10699465474497 5.293584833591388 13.9127383892692 4.234455723259622</Array>
			</VectorInstance>
			<VectorInstance id="333">
				<Array type="real">-3.0501678560000003 1.0985595928633207 1.2652007387501099 0.9033724228266667 5.395812030787781 9.63202364441458 3.9285656000000007 -0.4930935124984123 -0.46979070401895634 -3.7148334 -2.9274602333333335 -2.1116759000000003 347.83671428505204 77.82674291572776 77.8966336077604 1.2221760070970422 15.786568151937086</Array>
			</VectorInstance>
			<VectorInstance id="334">
				<Array type="real">-2.795811056 0.7517345805093378 0.5877774112793773 0.6109314461333336 5.362372502980635 9.663554956062205 2.8283500666666668 0.146222422431061 -0.6678898964478713 -3.372342783333334 -2.8411093333333333 -2.3286303833333335 73.7869947445008 34.99498275449673 15.544113720894648 7.698968034222742 5.0763825675203025</Array>
			</VectorInstance>
			<VectorInstance id="335">
				<Array type="real">-3.348919577333333 0.7644881610047971 0.5904516407424939 0.64576952976 5.097367448247371 9.674461065509112 2.839842133333334 -0.27236842460386734 -0.826881584643857 -3.9298327 -3.2078212333333327 -2.7787005666666666 61.51009202642678 48.14401229058546 17.48931465357485 10.354957498116374 12.98001822102901</Array>
			</VectorInstance>
			<VectorInstance id="336">
				<Array type="real">-3.035722888 0.6234676831147533 0.4173261434857442 0.5201187074133334 4.9839353643341315 9.363630354921296 2.1788832000000005 0.21860057937222974 -0.8577410709887842 -3.5145186833333333 -3.1016784666666664 -2.5117071500000008 140.0272328296217 12.763273476445487 50.36410306371467 5.650937249138261 2.855243942389222</Array>
			</VectorInstance>
			<VectorInstance id="337">
				<Array type="real">-3.3052237760000005 0.6349261454177865 0.4253751159220632 0.4978617928000002 5.244310858865191 9.73572279913373 2.5900474000000004 -0.17929997209309578 -0.19210662808918869 -3.6538210833333338 -3.3071806333333336 -2.8541177500000003 46.265086308008605 39.69239926196581 45.82312017062951 14.654204235646345 11.159246768113007</Array>
			</VectorInstance>
			<VectorInstance id="338">
				<Array type="real">-3.3991754840000006 0.49213744973950163 0.26307756168073904 0.39213169434666667 5.049153333535287 9.609276966636168 1.926853666666667 -0.40587385640381096 -0.17945384346282825 -3.7040994333333344 -3.348201366666667 -3.0219513666666664 38.48206765622743 12.86831713988682 33.11684256967597 1.4787592935845477 3.7812567836770965</Array>
			</VectorInstance>
			<VectorInstance id="339">
				<Array type="real">-2.866523037333334 0.26519814871989383 0.07130218960107197 0.20486969557333357 5.213941376624063 9.561374361456393 1.1184114 -0.5504316576417644 0.3809905268913914 -3.014449533333334 -2.8138156 -2.7241127000000005 9.038715526795231 8.088676481151065 11.263359001775713 0.9162128762151706 0.4756512638747185</Array>
			</VectorInstance>
			<VectorInstance id="340">
				<Array type="real">-2.7737747880000008 0.1326869386902667 0.018924396072425683 0.09823098383999988 5.128861012266625 9.531375520019656 0.5570508666666661 -0.08487532359469685 1.2006366803815487 -2.8398724333333334 -2.766250566666667 -2.7030037666666664 3.927817110208644 2.4087178121259964 5.979931307732804 1.551972568966479 0.1944753675264936</Array>
			</VectorInstance>
			<VectorInstance id="341">
				<Array type="real">-2.815941546666666 0.13737629431751464 0.02333832598876177 0.10435449386666673 5.157129763877939 9.573565456714734 0.6052540666666668 0.3014969595148766 1.1648110483977154 -2.8891531333333327 -2.815651166666667 -2.7345672333333333 0.230750105531172 0.42409886667028834 0.28962226550634673 0.16542649761544906 0.20795948724532531</Array>
			</VectorInstance>
			<VectorInstance id="342">
				<Array type="real">-3.0166107639999997 0.11283412604441467 0.012985855926107593 0.0924008603199999 5.156055088286878 9.573301288366315 0.43542539999999974 0.31061622376147935 -0.4080588335506759 -3.1130507 -3.0109382 -2.9420649166666664 1.5144569249973285 4.957761635940196 0.6117945202220637 1.9272765216767533 0.559583365218848</Array>
			</VectorInstance>
			<VectorInstance id="344">
				<Array type="real">-3.125945953333332 0.11506035796198899 0.013437954774519542 0.09045141925333328 5.116565044644976 9.563337977009747 0.46782693333333264 0.17882458711655858 -0.2210310619452732 -3.2084996 -3.1293712333333334 -3.0543528666666675 2.5925720980353635 2.870615236565135 2.6419165016586335 1.1814515256390474 0.9548864799134003</Array>
			</VectorInstance>
			<VectorInstance id="346">
				<Array type="real">-2.9434375466666665 0.14564898623453704 0.02372959095206267 0.1164166786666666 5.147129174954878 9.585741330393711 0.6542555333333334 -0.14075781997060346 0.20342312310859212 -3.033682783333333 -2.9403889 -2.844341533333333 3.7104630753492835 1.2422724896258919 2.256274773914655 0.37592134879055383 0.6580225870660423</Array>
			</VectorInstance>
			<VectorInstance id="347">
				<Array type="real">-2.9623389293333333 0.07898519313073345 0.006779791095087722 0.06071233984000002 5.1252162526506915 9.553238249742618 0.39919313333333334 0.20013492921380469 0.5239797370729066 -3.00830435 -2.9677626000000004 -2.914930616666666 2.4399827501889653 0.09615742613518334 0.5829415865597867 0.04149841917178808 0.10318581861336673</Array>
			</VectorInstance>
			<VectorInstance id="348">
				<Array type="real">-2.9859170533333335 0.095016282064408 0.009564477887991437 0.07222917237333339 5.128625392673823 9.57338371161759 0.48761886666666676 -0.1909583090057121 0.6198634764039643 -3.037433966666667 -2.9819682333333333 -2.93097175 2.9654418488546264 0.4031218435129203 0.19487554354881947 0.172001026134538 0.04660070569216765</Array>
			</VectorInstance>
			<VectorInstance id="349">
				<Array type="real">-2.9397440933333336 0.14875825929837486 0.023604867331610376 0.12293272591999994 5.099468476062573 9.555007222629499 0.5754064666666664 -0.17987954435778908 -0.7104478185087396 -3.0418232166666663 -2.9391120333333336 -2.8282604666666664 1.3934089353968633 2.359497551980428 1.1583270185158232 0.2396925458246869 0.4156637054491224</Array>
			</VectorInstance>
			<VectorInstance id="350">
				<Array type="real">-3.2059154760000013 0.37855862729332307 0.16422158798767572 0.3227007355733333 5.053693875971226 9.575322818743517 1.3436259999999998 -0.5582606392735312 -0.6692912019543753 -3.469387866666667 -3.1191560000000003 -2.9246270833333337 2.9777163324361355 39.83601206269681 16.544791885959206 7.544528746396169 5.5835119867622645</Array>
			</VectorInstance>
			<VectorInstance id="351">
				<Array type="real">-3.6612351613333334 0.17010718255054402 0.03179847860344063 0.1472545896533333 4.632432815877664 9.458867836102815 0.5881754666666661 -0.03735002805384893 -1.1856781578128335 -3.8146315333333334 -3.6402937333333334 -3.5282054666666673 4.449531309013192 1.0036500012620078 1.1641210675288614 0.16620644711375282 0.056780448874710614</Array>
			</VectorInstance>
			<VectorInstance id="352">
				<Array type="real">-3.6335327079999984 0.20167371725129868 0.04737324640172099 0.16287146949333386 4.714663896053477 9.415859870782814 0.6708554000000003 0.20335404091882495 -0.6068025586061294 -3.8097236166666666 -3.6254499 -3.5033455666666664 17.972318622857443 0.3570671997788365 0.49367076323080183 0.12734417595790143 0.2287761291108879</Array>
			</VectorInstance>
			<VectorInstance id="353">
				<Array type="real">-3.707711430666668 0.24320399476220603 0.0660053814846923 0.20352476474666661 5.017311821146486 9.725703274415844 0.8868123333333336 0.43319658779505893 -0.3771588139820972 -3.884342983333333 -3.7323109000000003 -3.5383807 9.807455358504379 1.9288667484053035 0.6798752053317417 0.36636033832123954 0.005970624837592139</Array>
			</VectorInstance>
			<VectorInstance id="354">
				<Array type="real">-3.274782333333333 0.12498225928288369 0.017708233883405738 0.09320623727999984 4.8592512486683725 9.466731798199918 0.5126785333333334 -0.1740881078777411 1.9138950670729618 -3.3085772666666657 -3.259775566666667 -3.2065044166666667 11.228902586394874 10.140553893535394 2.120841349618341 0.7449176345008007 0.6423605169721126</Array>
			</VectorInstance>
			<VectorInstance id="355">
				<Array type="real">-3.204127806666667 0.17613425531014315 0.03187869129814747 0.15234814672000008 4.936436940439377 9.487733856233127 0.6082869333333335 0.34953233953149027 -0.9813663617663297 -3.3419364999999996 -3.256503466666667 -3.046332283333333 6.74022248702126 0.7491727432864536 0.07082560982721242 0.2412434524276328 0.377834332019196</Array>
			</VectorInstance>
			<VectorInstance id="356">
				<Array type="real">-3.0603384626666674 0.18132104217298636 0.03430226843703107 0.14942178501333334 5.25198589664756 9.658769899237136 0.6517015999999997 -0.011032588197902834 -0.6641312913625883 -3.183639766666667 -3.0797315333333333 -2.913733533333333 10.37997920191515 2.510194077598231 0.7879003500163637 0.4820826040716436 0.1728717234876894</Array>
			</VectorInstance>
			<VectorInstance id="357">
				<Array type="real">-3.046084969333334 0.07305003776775083 0.005339541040838405 0.05921787061333322 5.069187601695664 9.52618821957311 0.2780467333333336 -0.19116296849550143 -0.39872457298865555 -3.0956129166666666 -3.0412645999999994 -3.0005632 4.3365216421030635 0.38543237249237056 0.06692073745427582 0.01696634450203861 0.006211108217747129</Array>
			</VectorInstance>
			<VectorInstance id="358">
				<Array type="real">-3.037389213333334 0.045892943062760004 0.002181900939175301 0.03783708933333331 5.103481914655132 9.544934170128005 0.17828826666666645 -0.034974782257351816 -0.7786430748450432 -3.069276783333334 -3.037673266666667 -3.002797833333334 1.1142195449483194 0.08262742330595343 0.0027595260548455487 0.12599439092439368 0.07327118906654714</Array>
			</VectorInstance>
			<VectorInstance id="359">
				<Array type="real">-3.24364172 0.20582651083627604 0.05515112821597276 0.18634986911999987 5.086084016989531 9.592335709181057 0.5849833333333329 -0.40967052575831975 -1.2267160515834619 -3.4665547333333335 -3.1872312666666667 -3.059739933333334 3.3378119121498333 4.649703591660166 3.231962345410829 1.2510909351678943 0.6332370892157727</Array>
			</VectorInstance>
			<VectorInstance id="360">
				<Array type="real">-3.391188350666667 0.07185847193939285 0.005423309578967782 0.05439143765333334 4.895044929106027 9.50359426579781 0.3115655333333329 0.2121170759706168 0.7882937530195347 -3.4342328500000003 -3.3920949 -3.3573391333333333 4.279540647569619 0.15695525023461396 1.203358926809036 0.07036465705115671 0.1055379634502013</Array>
			</VectorInstance>
			<VectorInstance id="361">
				<Array type="real">-3.502381532 0.9664016275535374 1.1669211744809629 0.8388511708799999 5.071377780336285 9.591800518511581 3.1804576 -0.5628706296063855 -0.8955495930585019 -4.29223515 -3.148445033333333 -2.7255094 50.498795840604 121.83889817605967 273.4166857545528 17.708474896029312 16.80317799055119</Array>
			</VectorInstance>
			<VectorInstance id="362">
				<Array type="real">-4.139730813333333 0.7957742644591592 0.6517522020108956 0.7062685914666665 4.649930294628025 9.61096753622202 2.428199333333334 0.21586185438798736 -1.1302153481683677 -4.783645033333333 -4.2303849 -3.402868966666667 42.77329737688617 88.82362908146489 6.75275259990566 40.45849004997404 9.792375107702203</Array>
			</VectorInstance>
			<VectorInstance id="363">
				<Array type="real">-4.059837853333334 0.529764158243573 0.28977787044546116 0.4066568776000001 4.545001315581157 9.59383063893566 2.0294848666666665 0.07562397979757673 -0.25687175653693534 -4.3656971 -4.087371066666667 -3.7687029666666674 203.2617570497275 31.514437028536115 1.7778462280405818 3.523379036880186 0.24519452654212284</Array>
			</VectorInstance>
			<VectorInstance id="364">
				<Array type="real">-3.6001288333333332 0.1993412890663294 0.043996499181598585 0.15998378805333333 4.687479722733628 9.493429347346554 0.7302316000000001 0.7382099291321719 0.030112299846035768 -3.769142 -3.6269663000000008 -3.4982778499999996 7.951561007373903 1.4170952502374656 3.471535638561284 1.221742374530946 0.12628345442320202</Array>
			</VectorInstance>
			<VectorInstance id="365">
				<Array type="real">-3.6005118680000003 0.13852458885411115 0.022238592342412284 0.08865578506666683 4.751005894348172 9.574528707604703 0.6864971999999995 -1.6639651213320394 5.014181864473621 -3.639176583333333 -3.570383266666667 -3.5309188333333332 0.16159838462454457 4.871890592896011 2.114084063169984 0.892321648611624 0.8707199885163501</Array>
			</VectorInstance>
			<VectorInstance id="366">
				<Array type="real">-2.7971773493333334 0.5593826846425096 0.31563671246791214 0.4243741147199998 5.121719526832161 9.50169026728485 2.1871830666666665 -1.0395776299893542 0.8007927532905218 -2.9997651666666667 -2.659868266666667 -2.4380455500000004 97.51134935249318 10.27307496354712 6.728743624943543 7.78024807816422 10.185604005416348</Array>
			</VectorInstance>
			<VectorInstance id="367">
				<Array type="real">-2.770004758666668 0.1690489210201094 0.02996020080248497 0.13083718448000012 4.9580874445945495 9.496855396669151 0.6766013333333328 0.24631912863303262 0.19162204438113348 -2.8755459333333335 -2.7881974666666665 -2.7041610666666664 3.7471041892059898 12.434400902000288 9.432222828568124 2.200534875835944 0.1760330296966341</Array>
			</VectorInstance>
			<VectorInstance id="368">
				<Array type="real">-2.9728096333333336 0.18587929789775692 0.034988197409914386 0.1521845485333332 4.92447048471535 9.524815757521015 0.6864977333333334 -0.16151743303639185 -0.7819844508115098 -3.099044683333334 -2.9606599333333334 -2.8427055500000002 13.336290737279313 1.7636449964313212 1.4733923679067988 0.5115372124636551 0.13917347662425752</Array>
			</VectorInstance>
			<VectorInstance id="369">
				<Array type="real">-2.8914323026666664 0.20936767541401444 0.04628110748349206 0.16810475781333345 4.967968414820265 9.500553506423653 0.7889692666666669 0.16143193593606212 -0.4560951099488781 -3.053155716666667 -2.879815733333333 -2.7649737333333335 0.5546192691364825 4.355047014039172 4.205680963812911 0.1834233373321874 0.05045220580796569</Array>
			</VectorInstance>
			<VectorInstance id="370">
				<Array type="real">-2.9092610999999997 0.16201624148033986 0.027603189938780925 0.13126699637333336 4.951967664398205 9.535200425411613 0.6473921999999996 -0.1438172051122958 -0.26666398487525234 -3.0185595333333333 -2.9012038333333336 -2.7986921000000002 7.553893350550972 1.7702536616260798 2.877488335498857 1.2553695356815264 0.9174614510146655</Array>
			</VectorInstance>
			<VectorInstance id="371">
				<Array type="real">-2.885705312000001 0.08962450648648683 0.008497981719740881 0.0745116696533334 4.9501438468527 9.511560883585757 0.3477978000000001 0.09243336794323441 -0.7636956300631451 -2.9466537500000007 -2.8887539333333336 -2.820998083333334 0.14658164659750017 1.1628199002729054 0.6802984602172297 0.3815319781366101 0.03110859140140659</Array>
			</VectorInstance>
			<VectorInstance id="372">
				<Array type="real">-2.901944457333333 0.12100425239474309 0.014778484730585184 0.1017178631466667 4.875639345382385 9.504154852505282 0.43542533333333405 -0.32050257399840537 -0.7561617548683758 -2.9925028499999997 -2.8779799666666666 -2.811780316666667 3.6259977422334915 1.7357077732840716 0.19483490989584137 0.7422290446251493 0.6727715271698439</Array>
			</VectorInstance>
			<VectorInstance id="373">
				<Array type="real">-2.936519930666666 0.12393887480715261 0.015557200362835318 0.10070244303999994 4.900002229856166 9.505623488329979 0.5038998000000001 -0.34927774260362043 -0.38343707762831974 -3.0215523166666665 -2.9162873 -2.843264116666667 3.3772994488685306 1.962619441190803 1.9557994512080072 2.1415945835583603 0.4848249043142197</Array>
			</VectorInstance>
			<VectorInstance id="374">
				<Array type="real">-2.879962474666666 0.23040192818071994 0.06662793391944734 0.16085129994666705 4.898479775593735 9.474939977391218 0.9560848000000003 0.6708893713114884 0.21681149284799459 -2.9924629166666663 -2.9090249 -2.858946166666667 0.37859285124143227 0.7324274951140812 0.568221902013178 0.47813124728720235 0.2934119868059517</Array>
			</VectorInstance>
			<VectorInstance id="375">
				<Array type="real">-2.7305738600000002 0.13738143690530766 0.020498583942467914 0.11135311866666658 4.899667311033107 9.529246159556731 0.5174669333333336 -0.1362776622386043 -0.5237676258293432 -2.8374381666666664 -2.729619266666667 -2.6358066000000004 6.749727261422332 1.13376437978444 0.9872238926250045 0.3773332501599353 0.23307706502640757</Array>
			</VectorInstance>
			<VectorInstance id="376">
				<Array type="real">-2.8560779213333323 0.20732273705534335 0.04410121441436551 0.16445245824000024 4.8975073149495385 9.504830992374218 0.7798715333333335 0.6146152032355343 -0.1575610010165017 -3.0053117499999993 -2.8816511666666673 -2.7656919833333333 1.2361706452740906 0.8344280070385448 3.608106273717843 2.250379362981392 0.5794437214705359</Array>
			</VectorInstance>
			<VectorInstance id="377">
				<Array type="real">-2.91354834 0.1268369800129299 0.01624705617270638 0.09857398346666672 4.957296768992356 9.556172783686922 0.5029421333333327 -0.3155695740398368 -0.06423975490310656 -2.985639383333334 -2.9023212333333333 -2.8398723500000003 1.015296881093511 0.02610275387017126 2.1334493867167788 0.6028144572274807 0.19626441992662635</Array>
			</VectorInstance>
			<VectorInstance id="378">
				<Array type="real">-3.3865212586666673 0.2836813577482598 0.09817653770652078 0.2135633327466668 4.453031579038172 9.402395116150595 1.1176135333333332 0.4954064660482244 1.3170011077684272 -3.554142516666667 -3.4485181666666676 -3.3120887000000003 70.5682143915221 21.31994438211862 14.5038009166512 5.774429440197094 4.08234010701455</Array>
			</VectorInstance>
			<VectorInstance id="379">
				<Array type="real">-3.002660478666666 0.38797569433086426 0.18610365534386367 0.3131689693866671 4.880917360179531 9.49174515541553 1.3524047999999997 0.206852913810209 -0.4377471100164681 -3.2781708833333334 -2.9857989000000003 -2.7025647833333344 110.12162109552109 19.315806793577103 11.421849333359773 13.66509046189457 11.387796300166206</Array>
			</VectorInstance>
			<VectorInstance id="380">
				<Array type="real">-2.9579496253333333 0.20201050618669716 0.04130988588045462 0.16513442293333327 5.034561715085111 9.53395084884543 0.7398083999999999 -0.5759392359760444 -0.37213946486365873 -3.074983083333333 -2.9318497000000003 -2.7906714833333335 13.251755405403049 1.4041025561549532 0.8767756168636303 0.02748154169611022 0.14082729278945877</Array>
			</VectorInstance>
			<VectorInstance id="381">
				<Array type="real">-3.076408337333333 0.07596736451328394 0.006321729456606037 0.05772172858666663 4.969384987589758 9.52533153458699 0.30597926666666675 0.36354194102724186 -0.04876922277851762 -3.1277751666666664 -3.0845995 -3.033882516666667 1.462635747788465 1.7257659506701049 0.2960029387200885 0.22845618696570458 0.07400965359167705</Array>
			</VectorInstance>
			<VectorInstance id="382">
				<Array type="real">-3.053382511999999 0.3774214918877399 0.1475773738190227 0.3197727822933334 5.098030459595592 9.57340293505034 1.1934296666666664 0.333120107149695 -0.881957215229242 -3.355463666666667 -3.1205925333333333 -2.758270000000001 32.09590571150363 0.0020080490578867484 3.0285096331164 1.1289425818641916 0.516281966153689</Array>
			</VectorInstance>
			<VectorInstance id="384">
				<Array type="real">-2.9299533986666666 0.11211102430834304 0.014106803941318911 0.08108208271999999 5.212236765171006 9.594605370839027 0.5054957333333331 0.680342488985988 1.5272294114518907 -2.9916647666666676 -2.9526791333333335 -2.8966549166666673 3.5249244815818344 0.5622965563085603 0.36268120050982355 0.793574645221659 0.05420608419564338</Array>
			</VectorInstance>
			<VectorInstance id="385">
				<Array type="real">-2.809857065333333 0.21403210166849332 0.05226214287305663 0.17614238847999988 4.999572914880974 9.53013420976911 0.7495449333333329 -0.2875867717380562 -0.652931301712571 -2.996533000000001 -2.778939866666667 -2.6477775833333332 0.2546376810559195 6.587614723588399 2.0396715650237485 0.1323929933418811 0.033831514670517274</Array>
			</VectorInstance>
			<VectorInstance id="386">
				<Array type="real">-2.892383573333333 0.08992854422535435 0.008733906739901534 0.0702750031466666 5.049392590859493 9.544559419371296 0.3691858666666669 -0.6549901028733707 0.4431575476064382 -2.9400697166666667 -2.8850030333333336 -2.824589316666667 0.029088214007281284 0.3855288047672603 0.44011885047021354 0.09721227354489136 0.08650713071243431</Array>
			</VectorInstance>
			<VectorInstance id="389">
				<Array type="real">-2.9359325373333327 0.17756321843136602 0.038640887819310084 0.1266162349333332 5.096930156471764 9.552933850089751 0.7768387333333332 0.7675482293355276 1.1722411677797695 -3.03839165 -2.9559513 -2.8932631000000004 1.0273523359593941 1.1913980763448568 3.9986265933348237 1.289115904347788 0.35571732930986955</Array>
			</VectorInstance>
			<VectorInstance id="390">
				<Array type="real">-2.7465415693333335 0.20832505889953645 0.04357800109777555 0.15907548400000013 4.884180625444644 9.489375900818972 0.9315041333333337 -0.6063647023947353 0.8019627325840677 -2.8488507166666666 -2.727704033333334 -2.613580383333333 12.476141390411412 17.10459517642971 2.182768045310145 3.3983716207396837 6.194612115045835</Array>
			</VectorInstance>
			<VectorInstance id="391">
				<Array type="real">-2.837227566666666 0.1650300665942758 0.02747876658980011 0.11761825178666635 4.938335921359977 9.52752636944891 0.7208142000000003 0.6154275249077892 1.5097859395092386 -2.9134541499999997 -2.844780533333333 -2.7740317833333337 22.746671059070223 1.6989534199888974 1.5213976478119624 0.49585001871941065 0.0804026905015132</Array>
			</VectorInstance>
			<VectorInstance id="392">
				<Array type="real">-2.7509341346666663 0.14952002845920873 0.02307075111016983 0.12367484970666671 4.9370517569609405 9.507070459525806 0.5369393999999997 0.3425973861705988 -0.6994081357611465 -2.8769026666666666 -2.7560354000000005 -2.6622225333333334 5.874852278945504 3.392691845115742 0.28164040670285234 1.0594306138212877 0.09774752158774047</Array>
			</VectorInstance>
			<VectorInstance id="393">
				<Array type="real">-2.8448858586666677 0.18426487906491484 0.03634058063885083 0.14001982090666668 4.904724701460409 9.503587501386804 0.7769982666666665 -0.4121692666329111 0.04479660862949686 -2.9352014499999997 -2.831133733333333 -2.7391162999999996 17.543754566156124 2.168133287389756 0.2716445498927591 0.13856474415509337 0.3328192133566988</Array>
			</VectorInstance>
			<VectorInstance id="394">
				<Array type="real">-2.8833782240000008 0.05695061580512082 0.0033539388838765634 0.04760960426666667 4.897628577613219 9.508786533084663 0.2140414666666667 0.17369486071196386 -0.8535263348751679 -2.9262631999999997 -2.8878761333333336 -2.8439425333333332 0.4412545652943336 0.8781995060557894 1.9268631481770423E-4 0.15347773357682878 0.10548075548137113</Array>
			</VectorInstance>
			<VectorInstance id="395">
				<Array type="real">-2.870807077333334 0.12033717567510764 0.015088118678285365 0.08640421109333311 4.909384272118422 9.52013725193587 0.4978341999999998 1.5779042345548702 2.0981196522559986 -2.950085383333333 -2.9034383333333325 -2.8504467333333334 5.793414614141879 3.29992240136491 2.166733677225293 0.13947737914368438 0.11358695777434412</Array>
			</VectorInstance>
			<VectorInstance id="396">
				<Array type="real">-2.918991134666667 0.1349025149210388 0.01859461082625712 0.10720060394666665 4.861914146370172 9.515065644867196 0.5508259333333333 -0.7213138148977881 0.08975204164768913 -2.9820880166666672 -2.9059922 -2.8245094333333327 0.06165129517426713 7.824636643540435 4.954800115491467 0.10149636880614533 1.428848943580775</Array>
			</VectorInstance>
			<VectorInstance id="397">
				<Array type="real">-2.845010309333333 0.1497202773208271 0.023249460236899968 0.10870647338666677 4.792351296464095 9.464806777632765 0.6983089333333329 -0.18493470502244366 1.2250724059541904 -2.9197987333333337 -2.841668 -2.772156316666667 6.072057241249642 1.2499115946672132 7.725043445426388 2.7274600116484615 0.07545929462905904</Array>
			</VectorInstance>
			<VectorInstance id="398">
				<Array type="real">-2.7725681653333325 0.06371480455635366 0.0040679973428672045 0.04735666117333313 4.8300008762793665 9.487589198078048 0.2957638666666666 -0.42212563774135203 1.0750538672825423 -2.799849233333333 -2.763696933333334 -2.7321732000000005 0.9471954520322321 0.6245405959844267 1.0134098915493914 0.024477919646101624 0.16936949257306155</Array>
			</VectorInstance>
			<VectorInstance id="399">
