<?xml version="1.0" encoding="UTF-8" standalone="yes"?>
<PMML xmlns="http://www.dmg.org/PMML-4_3" version="4.3">
	<Header>
		<Application name="JPMML-SkLearn" version="1.1.3"/>
		<Timestamp>2016-11-09T23:25:48Z</Timestamp>
	</Header>
	<DataDictionary>
		<DataField name="mean" optype="continuous" dataType="double"/>
		<DataField name="std" optype="continuous" dataType="double"/>
		<DataField name="var" optype="continuous" dataType="double"/>
		<DataField name="mad" optype="continuous" dataType="double"/>
		<DataField name="rms" optype="continuous" dataType="double"/>
		<DataField name="range" optype="continuous" dataType="double"/>
		<DataField name="skew" optype="continuous" dataType="double"/>
		<DataField name="kurt" optype="continuous" dataType="double"/>
		<DataField name="mag" optype="continuous" dataType="double"/>
		<DataField name="qua1" optype="continuous" dataType="double"/>
		<DataField name="qua2" optype="continuous" dataType="double"/>
		<DataField name="qua3" optype="continuous" dataType="double"/>
		<DataField name="fft1" optype="continuous" dataType="double"/>
		<DataField name="fft2" optype="continuous" dataType="double"/>
		<DataField name="fft3" optype="continuous" dataType="double"/>
		<DataField name="fft4" optype="continuous" dataType="double"/>
		<DataField name="fft5" optype="continuous" dataType="double"/>
		<DataField name="label" optype="categorical" dataType="integer">
			<Value value="0"/>
			<Value value="1"/>
		</DataField>
	</DataDictionary>
	<SupportVectorMachineModel functionName="classification" classificationMethod="OneAgainstOne">
		<MiningSchema>
			<MiningField name="label" usageType="target"/>
			<MiningField name="mean"/>
			<MiningField name="std"/>
			<MiningField name="var"/>
			<MiningField name="mad"/>
			<MiningField name="rms"/>
			<MiningField name="range"/>
			<MiningField name="skew"/>
			<MiningField name="kurt"/>
			<MiningField name="mag"/>
			<MiningField name="qua1"/>
			<MiningField name="qua2"/>
			<MiningField name="qua3"/>
			<MiningField name="fft1"/>
			<MiningField name="fft2"/>
			<MiningField name="fft3"/>
			<MiningField name="fft4"/>
			<MiningField name="fft5"/>
		</MiningSchema>
		<LinearKernelType/>
		<VectorDictionary>
			<VectorFields>
				<FieldRef field="mean"/>
				<FieldRef field="std"/>
				<FieldRef field="var"/>
				<FieldRef field="mad"/>
				<FieldRef field="rms"/>
				<FieldRef field="range"/>
				<FieldRef field="skew"/>
				<FieldRef field="kurt"/>
				<FieldRef field="mag"/>
				<FieldRef field="qua1"/>
				<FieldRef field="qua2"/>
				<FieldRef field="qua3"/>
				<FieldRef field="fft1"/>
				<FieldRef field="fft2"/>
				<FieldRef field="fft3"/>
				<FieldRef field="fft4"/>
				<FieldRef field="fft5"/>
			</VectorFields>
			<VectorInstance id="0">
				<Array type="real">2.9315383246376814 1.1094728713439503 1.2966046044333701 0.9001478315689981 4.452319107187722 4.068307333333334 -0.8041688413717777 3.1418850469240245 9.466322938642987 2.0970112 2.7396149666666667 3.8686010166666662 16.961243933324354 16.16196377769319 34.816185071476376 9.905895090294482 7.181374500670429</Array>
			</VectorInstance>
			<VectorInstance id="1">
				<Array type="real">0.5937974773333329 4.546893490490657 21.74904981773774 4.113849362613332 5.851455366444276 12.861970533333334 0.1003149193921714 -1.4259643224912075 10.122056789783839 -3.846753916666667 0.010863600000000084 5.15528485 3776.8979334600317 409.8728794665798 418.51655856927 448.3443850613613 217.55748144748725</Array>
			</VectorInstance>
			<VectorInstance id="2">
				<Array type="real">2.258591320000001 2.8058807114910684 9.572775053722674 2.3146960495466664 5.356366901333806 11.465033866666667 -0.3739635094416383 -0.2149151935477683 10.34616693738957 0.4256590500000001 2.3403422333333332 4.746674416666667 559.2398275712886 354.22907404169155 835.3769195722689 64.94227558701196 352.39292645048226</Array>
			</VectorInstance>
			<VectorInstance id="3">
				<Array type="real">-1.3152495520000003 4.165597286970253 22.31774024246492 3.3891920745600004 6.082864740168439 15.116191533333334 0.14528807591466641 -0.09712584800214515 10.484006342385532 -3.76634875 -2.1334630666666663 2.0051139166666667 1208.6559369165286 2346.2127168220613 2823.689521867417 772.6995837528945 553.5756245467819</Array>
			</VectorInstance>
			<VectorInstance id="28">
				<Array type="real">2.3263025279999994 1.3095258627850577 1.8542169778828568 0.9240190713066667 4.623066055508972 6.8159728 -0.9941315209395728 2.6522629439589758 9.724654449838983 1.7867629000000003 2.5752133999999995 2.9188212499999993 717.3675749941588 138.51178773045172 660.2752337919874 176.13955171162814 154.31514934662363</Array>
			</VectorInstance>
			<VectorInstance id="29">
				<Array type="real">0.535982393333334 0.6442647491519371 0.5736022364676194 0.5190891126933335 4.922244411977114 2.2138384000000007 0.9896494824082627 0.033898940172714255 9.43174999615145 0.08245036666666679 0.2612973000000001 0.8552188833333331 9.868992725328578 0.857597531124334 1.5138714403490163 3.7734677333769016 1.5618708322434074</Array>
			</VectorInstance>
			<VectorInstance id="30">
				<Array type="real">0.6443247786666664 1.7339808976579068 3.394053434255109 1.2666775028800001 4.911572851896424 7.6860258 0.1923745140719788 0.28168595375478994 9.076147603281317 -0.5190529333333336 0.7172330333333331 1.0981505500000004 1830.40787499259 1548.907125788965 456.21439309253 39.85634736474121 15.71102771530007</Array>
			</VectorInstance>
			<VectorInstance id="41">
				<Array type="real">-3.637095250666666 4.90032547945876 24.592237471489042 3.886727475893333 6.523145876862524 17.477033666666667 0.3180485938950088 -0.5414619802868704 11.350782159130977 -6.578099050000001 -4.648572033333334 -0.3256812666666667 16201.471806470918 2005.519239839874 2182.0021034257884 1509.9003149513742 63.645404644052405</Array>
			</VectorInstance>
			<VectorInstance id="42">
				<Array type="real">3.8555557866666663 1.4769833373994228 2.53058820349978 1.1168612538666667 4.986353375747501 6.508876533333335 -0.111251254260944 0.5932681315787057 9.688046371451824 2.911638533333333 3.804156933333333 4.556694516666666 294.7843031273725 99.76994669005249 167.575905200669 34.57605191670261 67.95963897283268</Array>
			</VectorInstance>
			<VectorInstance id="92">
				<Array type="real">-2.4826750200000007 2.956523662331533 11.979819564536179 2.5145466754666663 5.223665531113613 9.667946133333333 0.45136690992403644 -0.5481540899644246 9.643804908785901 -4.963648933333334 -2.5000952 -0.24184420000000006 4667.534646851449 2535.0843379402163 1361.508730621463 803.3536494029283 507.5796322482657</Array>
			</VectorInstance>
			<VectorInstance id="122">
				<Array type="real">1.3682611706666672 2.9450533409407407 9.891961363235867 2.4317931248 5.2742855833791635 8.8302948 -1.167052014972031 -0.06011753081134271 9.719634284940357 0.03420713333333344 2.8345054 3.4706848999999997 6059.089538499882 1835.2211617432702 861.8671119105796 458.605506770123 308.0820468124595</Array>
			</VectorInstance>
			<VectorInstance id="123">
				<Array type="real">3.605920946031746 0.21678089210926899 0.04799080924988832 0.1775263159486017 4.173027346231084 0.7773174000000003 -0.29727787807463596 -0.29035456698236795 9.733389113845979 3.448618133333334 3.5917912 3.7502874 0.6669757711136941 0.20401860537991326 0.08664894181684986 0.08531497699354004 0.24663277191067584</Array>
			</VectorInstance>
			<VectorInstance id="159">
				<Array type="real">2.991872904761905 0.5725589032768804 0.32845790358858973 0.344409988435374 3.987489015806745 2.2203827333333335 1.128860596842564 8.496565888540049 9.69581969385903 2.7626794666666665 2.9669048 3.1256802999999995 6.876299468717937 5.089619725438693 4.096794963620751 3.4762385979557013 2.9111075378002798</Array>
			</VectorInstance>
			<VectorInstance id="160">
				<Array type="real">5.306049780555557 1.570458503568842 2.637514721610063 1.3810673916087965 5.537135075016003 5.6126472000000005 -0.1628527555967358 -0.9870055346213329 9.653051434835856 3.941225116666667 5.540033100000001 6.465751233333333 172.4917267660249 269.1448951216267 139.4338232194032 47.364986186396905 116.22578746669623</Array>
			</VectorInstance>
			<VectorInstance id="161">
				<Array type="real">5.287713575510204 0.7213194650321949 0.5848693113688156 0.5844344502568374 5.359480073424838 2.897781933333333 0.2635085545088007 -0.520590036714446 9.919922341406991 4.8185802 5.1850528 5.773388000000001 74.21730361506262 29.741322349041475 27.441331883934414 48.50595489131619 0.026613221647461674</Array>
			</VectorInstance>
			<VectorInstance id="162">
				<Array type="real">5.253560216666667 0.6761994692345693 0.53135445545631 0.5552731260416668 5.341443341260642 2.4778389999999995 -0.41189078375877 -0.5385220005026293 10.226047013515709 4.841524816666667 5.333493233333333 5.7607387 11.038311578715208 16.741734622154205 21.795531392671457 10.051269556507718 3.1259472207593526</Array>
			</VectorInstance>
			<VectorInstance id="163">
				<Array type="real">5.333985727659574 0.34864716670594653 0.13879359000135183 0.29720382127659567 5.356677411544084 1.2301405999999995 0.30560086210166504 -0.8063510113874043 10.15588878802193 5.0278336 5.275074666666668 5.588715199999999 21.96243644748716 11.716686938809696 2.592542416531067 0.3857702833661679 1.8450232772919775</Array>
			</VectorInstance>
			<VectorInstance id="164">
				<Array type="real">5.027498368000002 0.627817037875121 0.5205745103795353 0.5140467339199999 5.163940939904207 2.2543804 -0.10174238029887749 -0.45182310074425097 10.159910288154292 4.461924116666666 5.011313533333333 5.446340016666667 27.430795951163567 2.0302194235490467 1.5046259943559677 3.538279477525805 3.3866913830594556</Array>
			</VectorInstance>
			<VectorInstance id="165">
				<Array type="real">4.3065659106666665 0.9212745925825558 0.8853583722927598 0.7501985021333334 4.649853968683242 3.2588275333333336 -0.01848812229577716 -0.6557415519475157 9.62193839469672 3.6038021166666674 4.325853733333333 4.8637509 28.067231164193302 113.40277536637839 107.49760482691617 5.1659372706430915 3.9160846514538017</Array>
			</VectorInstance>
			<VectorInstance id="166">
				<Array type="real">4.774412065333334 1.2512532622212966 1.62110162510474 1.0089101950400001 5.168603171804408 4.843629466666667 0.17144976163339312 -0.5113367310706814 10.929062219412039 3.9058308500000005 4.736938000000001 5.5399533000000005 620.7821801820496 510.6959217585239 53.04158071946123 14.51645025399164 8.954649694505873</Array>
			</VectorInstance>
			<VectorInstance id="202">
				<Array type="real">0.35966059466666717 2.9350295319388473 8.798456040574893 2.5996880793600003 5.241496300626282 8.245471266666668 -0.6221569829806585 -1.1754668005107238 9.341052379362427 -2.1936373833333334 1.732215 2.7664703166666667 1443.2699503432939 635.5282716349411 218.87519770421338 174.63302509271568 152.0936084698551</Array>
			</VectorInstance>
			<VectorInstance id="203">
				<Array type="real">3.1464894489795907 0.2917499334174523 0.09226782603122922 0.23580363770651114 4.380492251601408 1.1932701999999997 0.12212840820246003 -0.10853579577507559 9.787891917039078 2.9301936000000004 3.1716888 3.353648133333334 13.730158121639775 1.7743347167444432 7.541875934767547 3.4876920470168784 1.4343761611170542</Array>
			</VectorInstance>
			<VectorInstance id="204">
				<Array type="real">3.1827219916666674 0.11472920382509703 0.01825609162078214 0.0857024958333335 4.217399984185541 0.3659937999999998 0.03144888133784466 1.7928718320424766 9.567498927089964 3.11933545 3.1695339000000007 3.2342971000000005 0.2871798671465994 0.29285092855229766 0.17715731508036034 0.2928509285522978 0.2871798671465994</Array>
			</VectorInstance>
			<VectorInstance id="229">
				<Array type="real">2.848830644444444 2.098540116795079 4.744104713442012 1.7971660608796298 4.6282812025653355 7.217880066666667 -0.6500086297292766 -0.4169916469602383 9.316184481600558 1.1439195333333334 3.6510080000000005 4.50817215 209.31268914003283 632.5807292027638 83.5386478438866 29.37043714615126 39.01001145957192</Array>
			</VectorInstance>
			<VectorInstance id="230">
				<Array type="real">0.9060215306122444 0.9755266807531259 1.7150940265241221 0.8455758470081909 5.075077529162315 3.1601867333333336 0.07513961356732705 -0.3136607062489741 9.469534060607568 0.08875506666666648 0.8287229999999998 1.6526476 579.6259239314824 293.05560181698024 102.01855129794168 36.372160327147434 97.91428816839404</Array>
			</VectorInstance>
			<VectorInstance id="231">
				<Array type="real">0.5556275440000006 0.23877051941071362 0.06187728897866059 0.18644495616 4.8637288205118505 0.8623914666666668 -0.38539290994710895 -0.6440980199372014 9.379449834678912 0.4209505833333325 0.5796461999999997 0.7474796666666664 6.752314724951566 0.5756257503393766 2.2225114434731963 0.8559444468397452 0.6109057616367238</Array>
			</VectorInstance>
			<VectorInstance id="232">
				<Array type="real">0.6219278280000005 0.03719884196386559 0.0014162669267201325 0.028766528213333267 4.868827979176834 0.1532287999999995 0.42234661042537996 -0.14123039045108557 9.408463783694808 0.5947297999999996 0.6195494666666667 0.6381046499999998 0.1653778584777854 0.096968550248397 0.07210665586854725 0.08523521052292303 0.15909829026763567</Array>
			</VectorInstance>
			<VectorInstance id="233">
				<Array type="real">0.6309332026666669 0.06358715351569967 0.00575809706563322 0.04959254037333336 4.867893285983192 0.2293645999999995 0.782612066881217 -0.06475684956160539 9.421749188798136 0.5851927166666666 0.6152400333333331 0.6489184166666663 0.00976434154278981 0.21058713599246637 0.06715859403073449 0.2228200274437482 0.09049113157557863</Array>
			</VectorInstance>
			<VectorInstance id="234">
				<Array type="real">0.7619822093333338 0.08946675109920478 0.00977759038848833 0.06758141194666661 4.817681459481069 0.38722193333333293 -0.06262278959793294 0.9039100943211671 9.420520106659701 0.6986780000000005 0.7611267000000002 0.8101678333333329 0.6711984482940567 0.3694130467818476 0.06951351116946168 0.044974009537926705 0.14879459889057797</Array>
			</VectorInstance>
			<VectorInstance id="235">
				<Array type="real">0.6977186293333327 0.3266786360701597 0.11297604190294458 0.24693832176000027 4.799759822741663 1.331973999999999 -0.5952511444157803 2.1478152028914326 9.358214133602262 0.6147611999999997 0.7384615333333334 0.8428088166666668 20.895680285477003 13.779641911622708 11.366344156809877 6.334109066054372 3.779012955455785</Array>
			</VectorInstance>
			<VectorInstance id="236">
				<Array type="real">0.7698703480000004 0.2640858998407644 0.10150798616968482 0.21571706368 4.584112031030855 1.1099519333333332 0.43268850787523444 0.09670750890140296 9.42400051253157 0.5628868166666665 0.7690275666666665 0.9419287833333337 16.43495799571866 6.688852729755249 1.7536125149110606 2.186716061535316 1.550009537618612</Array>
			</VectorInstance>
			<VectorInstance id="237">
				<Array type="real">0.39976186933333313 0.1527406015261287 0.038213713818566246 0.12313566271999994 4.632917149144178 0.5929639333333332 0.17077620133803065 0.5447206661837116 9.348330444754684 0.2895089000000001 0.37238823333333365 0.4933354166666663 15.153654982562642 18.32212358040853 8.988292225120748 6.030430741454476 4.253280060567512</Array>
			</VectorInstance>
			<VectorInstance id="238">
				<Array type="real">0.4594349186666659 0.2564100203932815 0.07947489283966992 0.19810519925333328 4.565579891274438 0.9884859333333332 0.6398214207642621 0.33180885548359046 9.336418349900406 0.29242168333333307 0.4313652999999998 0.6312013999999998 70.7248542586449 3.9758771253329916 0.4897750976977654 1.9178247696845194 4.761677490483148</Array>
			</VectorInstance>
			<VectorInstance id="239">
				<Array type="real">0.631262007999999 0.21889543660479494 0.06918241414840114 0.17416931093333343 4.5554512356432175 0.8242437999999996 -0.33779543074479906 0.6042680612793973 9.3456202157794 0.5144042000000001 0.5936922000000001 0.7630820666666667 62.98315097691681 8.698590147191341 5.1183131588481245 3.7480385154019307 7.237588950091279</Array>
			</VectorInstance>
			<VectorInstance id="240">
				<Array type="real">0.9899421293333327 2.26778088805765 5.670091373430938 1.7981484961600003 5.829543556756796 7.992164266666667 -0.7240727072655657 0.521918741516771 10.17638213831346 -0.16439178333333349 1.0383751 2.5776873 587.2880206346402 396.9864177593768 56.311137986348314 41.13240932791125 33.33005910170287</Array>
			</VectorInstance>
			<VectorInstance id="241">
				<Array type="real">3.8184201373333324 1.6206787376334082 2.986654512522255 1.3364356909333335 4.683423033542093 5.6988384000000005 0.5725013421832615 -0.5404673912776641 9.108346105386243 2.4875456333333337 3.655955966666667 4.87767715 3267.1949030165592 615.3880576535205 244.415337011357 37.54219751060488 71.30244338302589</Array>
			</VectorInstance>
			<VectorInstance id="242">
				<Array type="real">3.81671866 0.8611292915970633 0.8475601378351788 0.7061495793066667 4.635876609773684 3.477657866666666 -0.21857788248368695 -0.44648829449683386 9.802463150830619 3.2174179666666674 3.9176422333333334 4.504580716666667 72.59699091950488 5.001679299608645 1.2921513955219965 46.33091216815254 26.313393746333695</Array>
			</VectorInstance>
			<VectorInstance id="243">
				<Array type="real">0.13613150666666515 3.225881701916499 11.53647160042042 2.729271491306667 5.689323344530759 11.302068400000001 0.39503707565088036 -0.5788131901363358 9.967876676708125 -2.42364035 -0.17309093333333317 2.8080493500000006 2248.236232773268 1279.2567695488344 205.32938934204816 82.09319845941955 81.84928971423697</Array>
			</VectorInstance>
			<VectorInstance id="253">
				<Array type="real">3.5941025560000006 1.6228275056366044 2.676917901934896 1.3664849414933335 4.21192973079852 6.131231333333333 -0.06596669483553205 -0.6279855825746431 9.209053100870069 2.2631691166666665 3.965207066666667 4.582232683333333 142.35126801773916 842.2817885640593 417.30298239994204 212.88554223471536 1.86393487791065</Array>
			</VectorInstance>
			<VectorInstance id="254">
				<Array type="real">3.7225849800000006 0.24995718508777687 0.07682088754057347 0.19361798949333323 4.059642886594176 1.0741983333333327 -0.3096755391279902 0.6572230237796818 9.652994482863472 3.5887187333333332 3.723791566666667 3.865528416666667 4.91441245589437 5.638169601021669 1.005883158793321 0.21320653653967067 2.3916565469670292</Array>
			</VectorInstance>
			<VectorInstance id="255">
				<Array type="real">3.5092488213333333 0.11306861775565058 0.01948903466688047 0.0943223684266667 3.9851410932955296 0.3513090666666663 -0.2976970038708407 -0.04208975195144834 9.613334195628136 3.43704595 3.4783063000000003 3.579141933333334 18.18013462827959 3.2356998355711375 0.8555289115703002 0.726643949388918 0.5175913615382634</Array>
			</VectorInstance>
			<VectorInstance id="289">
				<Array type="real">3.8771897573333334 0.1831996068297531 0.03966999758701135 0.14390176021333337 3.9141445109599178 0.7859368000000003 -0.07132198051276654 -0.3419182517479465 9.73404320476177 3.7621386500000003 3.882766633333334 3.9941767 24.183588514123144 14.382484392301572 8.00857667823042 0.836381565187213 1.3244208522668797</Array>
			</VectorInstance>
			<VectorInstance id="290">
				<Array type="real">4.126869902666667 0.3326159577660983 0.1309940575913107 0.2875346756800001 4.168449756252618 1.1426728000000004 0.09558370366979714 -0.9703104809219995 9.724492756603025 3.8384340333333338 4.125698300000001 4.428923966666667 20.0133197365421 58.75415657252781 2.1522143511410787 9.235054521863498 0.9364740910663448</Array>
			</VectorInstance>
			<VectorInstance id="291">
				<Array type="real">0.8783436093333332 3.833787095026112 16.350839626631167 3.3894891163200014 6.3336190287291245 11.548830933333335 -0.5388270679434425 -1.1808168125346292 10.611286996376133 -2.969079433333333 1.9032406333333336 4.135474516666666 565.1350270299254 2.171666633785737 1067.1116178637628 529.0145006633647 292.51353503727717</Array>
			</VectorInstance>
			<VectorInstance id="409">
				<Array type="real">-3.606992132 2.567869014222697 7.854188022783181 2.101563967413333 5.07932974100962 8.4068402 -0.3019241557507432 -0.7949350453483017 9.554117217816096 -5.308453783333334 -3.2646436333333337 -1.34812505 6277.272318448548 804.8904894894793 388.9672638511069 154.43469103602087 330.7166477709094</Array>
			</VectorInstance>
			<VectorInstance id="427">
				<Array type="real">2.386623667999999 0.8159532903968815 0.794929493920426 0.6231501557866668 4.076242088592923 3.4235488000000007 -0.5018161955824101 -0.04586929284218918 9.34976750846692 1.9616991333333331 2.5626039666666665 2.8489503500000004 64.91100447247942 90.00673347281581 8.507140349188905 10.620928028398062 16.431419540460674</Array>
			</VectorInstance>
			<VectorInstance id="428">
				<Array type="real">2.5956293151515157 0.2505819798763144 0.0792557683209882 0.2049119019283748 3.7135651921584487 0.7157064666666676 0.24901660413091353 -0.5154610333708085 9.483612728251627 2.4112106 2.5587730666666664 2.769382933333333 1.3187104429006618 0.3665372810604623 0.11248884413912835 0.02854512319601467 0.02854512319601467</Array>
			</VectorInstance>
			<VectorInstance id="429">
				<Array type="real">2.9777020124999987 0.34125996298498396 0.12233406862140395 0.30178015190972246 3.485246068357237 1.1910356 -0.23073140812757567 -1.199424780781625 9.401840033448524 2.7125209499999996 2.9969121333333333 3.277392833333334 0.6234598697260797 16.871757010765723 0.8620558910759267 6.490660601831752 1.5089398338603668</Array>
			</VectorInstance>
			<VectorInstance id="430">
				<Array type="real">-1.7713513746666674 2.026726255985889 4.2315351811300275 1.5265246196266666 5.797387154029661 7.459215066666666 1.0671594234696993 0.3117448362090512 10.14987488885962 -3.142699016666667 -2.1986653000000005 -1.2197958666666668 373.6083212292989 2334.0473111445863 58.271925869820706 216.6791102434209 138.97969283216952</Array>
			</VectorInstance>
			<VectorInstance id="437">
				<Array type="real">-0.08991621200000004 1.8020766643926673 3.342869034886583 1.4315569543466664 5.147563580948691 6.941109933333334 0.252087545872885 -0.3654323262810781 9.457973326358353 -1.370431016666667 -0.07389116666666684 0.9801961333333337 1332.9132215807676 869.2081262020005 208.50055501735005 97.44570508323767 54.973210974946014</Array>
			</VectorInstance>
			<VectorInstance id="441">
				<Array type="real">0.626237413333334 1.136103853429792 1.9496044293751689 0.8764862346666665 5.186733051447984 4.2806732 0.17219504109997832 0.8375262312520904 9.633709593262502 0.057830049999999744 0.44245833333333334 1.1048144166666667 935.3866742517143 440.67001328744897 237.03982562760345 196.13096650953568 97.23794361160891</Array>
			</VectorInstance>
			<VectorInstance id="442">
				<Array type="real">3.811984494666666 1.9207178070589725 4.608677016626958 1.3099632933333338 5.6307688256677935 8.656316066666667 -0.19659548015751768 1.0054144341404025 9.996777377962106 2.884982966666667 3.8961741333333335 4.377089650000001 299.71913240655806 943.5374922739218 567.0818461673634 134.28540668977232 132.75314621217413</Array>
			</VectorInstance>
			<VectorInstance id="443">
				<Array type="real">3.89822998 0.23630764040620775 0.05776644450542467 0.19036405104 5.019076056494087 0.9390059333333336 -0.1685839318644431 -0.58616683278381 9.691757955334916 3.7530009500000006 3.9083845000000004 4.061653316666667 5.593244363309549 5.061566753370405 7.956182230669279 11.824600530353566 1.170477798468432</Array>
			</VectorInstance>
			<VectorInstance id="444">
				<Array type="real">4.079595661333333 0.502393492033977 0.2671414181379704 0.3557353254400002 4.948697896800534 2.334027533333334 0.5761099842822217 1.9092539315156383 9.716875242484598 3.8138537500000003 3.9909048666666664 4.255025116666666 19.166310385562202 3.8536642605512714 2.6604695325398473 12.182095151844763 19.314146523757746</Array>
			</VectorInstance>
			<VectorInstance id="445">
				<Array type="real">4.263457528 0.6738509477533735 0.5916703254520786 0.4160259350400002 4.806759107096519 3.5595395333333326 -0.5285841087887803 5.3735007961099015 9.692595541486467 4.131963150000001 4.2697495 4.50713455 361.6260360230841 149.30027969969052 327.8727383148529 275.25834366270306 124.83485601964527</Array>
			</VectorInstance>
			<VectorInstance id="446">
				<Array type="real">4.7411518426666674 0.4367917014559494 0.30058746666710207 0.35510712101333325 4.774492585958639 1.9353128666666668 -0.03194092731854551 -0.0981399604855046 9.823217966020971 4.454621650000001 4.637818166666667 5.029908566666667 108.94342595369632 0.7544384338706827 8.943635381821208 22.906929303881185 37.139047727665165</Array>
			</VectorInstance>
			<VectorInstance id="477">
				<Array type="real">4.020327903999999 0.2579674193025077 0.07914024481077732 0.20771706906666676 4.080532731464987 0.9398039333333332 0.24441986180097638 0.20222748601190332 9.677601490122766 3.8308923499999996 3.9814076333333346 4.1640055 43.503151511629184 7.90623017993194 3.251735642519232 0.8405092728698504 0.26368736082376965</Array>
			</VectorInstance>
			<VectorInstance id="478">
				<Array type="real">4.554129533333333 0.24981397599521582 0.06394991728892377 0.21701326437333368 4.566599390729669 0.8738836666666668 -0.43492582044956024 -0.8565848480560057 9.674261814255551 4.367871766666667 4.574690866666667 4.775125566666667 4.271137750760147 8.262113632002958 1.571912648093194 1.060810949340794 1.721678495282126</Array>
			</VectorInstance>
			<VectorInstance id="479">
				<Array type="real">4.729863968 1.3676299865040271 2.115193267958283 1.15475813056 5.064885406624539 5.320554733333334 0.08075452999466932 -0.8388334149718805 9.935185158125718 3.5424307999999995 4.6268845333333335 5.789469100000001 523.7609584537513 726.6538826563992 323.44389929524243 940.8665590798217 145.34761007979247</Array>
			</VectorInstance>
			<VectorInstance id="480">
				<Array type="real">4.107013974666667 0.3237760707290748 0.10733411637717398 0.2633549377066666 4.929761800655901 1.243069466666667 0.09421820259179907 -0.07921329912722615 9.70483375394119 3.858704833333334 4.120032033333334 4.3460447 14.123694371877038 6.020334580626079 5.738881044399954 3.401034943998593 1.6452433884295772</Array>
			</VectorInstance>
			<VectorInstance id="481">
				<Array type="real">3.9153980733333333 0.059688660919517654 0.003617821356144888 0.04549321205333335 4.965009017772956 0.2539452 -0.8614827984040775 0.9917993765341414 9.710825200957293 3.8879141333333336 3.9175624666666677 3.9615758333333333 0.34833734240458036 0.6418787392739521 0.41111736810164173 0.030667671263981927 0.2180512006805125</Array>
			</VectorInstance>
			<VectorInstance id="482">
				<Array type="real">3.7353508719999997 0.1012980978591006 0.012122017467058148 0.0889650598400001 5.009128857741995 0.32688826666666704 0.3293044507417257 -0.7545046199880181 9.705667787210038 3.646778266666667 3.7251483000000007 3.8086660833333337 1.4670797682538221 0.1340070885790003 0.20427070279995665 0.030859379435995718 0.13734692048803465</Array>
			</VectorInstance>
			<VectorInstance id="483">
				<Array type="real">3.607251514666667 0.04816124693714987 0.00275493101144697 0.037958543146666544 5.018822604470441 0.19137666666666622 0.5218054859017786 0.2802736301530094 9.68550973632691 3.5730367666666667 3.5998519000000004 3.6326922833333337 0.4999368842371068 0.034613383641814134 0.01459656310451952 0.09041940178236497 0.03360098451620677</Array>
			</VectorInstance>
			<VectorInstance id="484">
				<Array type="real">3.6299165853333335 0.03770242464072731 0.001517012695866668 0.03183203658666667 5.010991021076556 0.1369485333333332 -0.37354464109257607 -0.602209340341734 9.688457887167598 3.599572566666667 3.6333707333333334 3.66385685 0.5954738114466098 0.013469245617715486 0.012584913369486816 0.0032660509704055423 0.11063736700064797</Array>
			</VectorInstance>
			<VectorInstance id="485">
				<Array type="real">3.632409730666667 0.04422752002247734 0.002000229349607948 0.03617323594666643 5.011508858368277 0.1647210666666671 -0.09107892803159752 -0.1660207926376449 9.697566058045188 3.6036425500000004 3.6308966333333337 3.6651337000000006 0.31059939545423193 0.09102036586081959 0.037131950204208196 0.0065973226460293525 0.12277798866748638</Array>
			</VectorInstance>
			<VectorInstance id="486">
				<Array type="real">3.608512429333334 0.03244880635415902 0.0011813083096000228 0.026333423786666643 5.01733665200457 0.12386000000000008 -0.3554827912362119 -0.5076230426040037 9.699018068641628 3.5876412 3.611822833333333 3.6320937500000006 0.17294872957601362 0.0590658077340646 0.09581304411537833 0.0020381260785922247 0.3155542649706122</Array>
			</VectorInstance>
			<VectorInstance id="487">
				<Array type="real">3.591328504000001 0.0249787837198371 6.467996994145665E-4 0.02055332762666667 5.010191252514726 0.10949486666666648 -0.058620840560069394 -0.0032403559433794213 9.689063746830726 3.5735556833333333 3.5913922 3.6084709666666677 0.013797335381996043 0.11996782483985664 0.06435294295989574 0.058321948191738415 0.06239709656316537</Array>
			</VectorInstance>
			<VectorInstance id="488">
				<Array type="real">3.557065874666666 0.014475011586501973 2.1347542062274974E-4 0.010751833173333364 5.0165548260854935 0.06799546666666705 0.4993605346649659 0.7682546436824075 9.688606832332178 3.5486958333333334 3.5558783333333337 3.564696866666667 0.029104052193489438 0.030287393681132504 0.032129358222348435 0.0038347562712465343 0.014564361220696664</Array>
			</VectorInstance>
			<VectorInstance id="489">
				<Array type="real">3.6230405199999995 0.6026601724285808 0.45701075185183887 0.488862922293334 5.132976699012729 1.869711933333333 0.1694892280470217 0.1712366689495597 9.735409078212646 3.287528216666667 3.560108066666667 3.8677231000000005 140.18530516410257 44.43846415164389 14.034963728248947 11.526603155182727 12.142133298585112</Array>
			</VectorInstance>
			<VectorInstance id="490">
				<Array type="real">3.8641684786666666 0.7691771663811516 0.6583492056944794 0.6249938813866667 4.654342458096892 3.2000900000000008 -0.02129767590230532 -0.039947820375497045 9.58866184393278 3.3053650833333337 3.9457340666666667 4.368869316666667 22.01475851611693 72.83924456324551 143.78086719957713 38.11039376286331 9.10609016978941</Array>
			</VectorInstance>
			<VectorInstance id="491">
				<Array type="real">4.2193020893333335 0.9548575580149069 1.0216514947272062 0.7044752468266667 4.7376083636502315 4.592398 -0.4885957635131932 2.866960080572332 9.611146325255321 3.7146139166666674 4.2363903333333335 4.4700644 155.8433713420342 437.66464359100735 29.618985703185707 407.9654867175622 370.50474389169824</Array>
			</VectorInstance>
			<VectorInstance id="492">
				<Array type="real">1.282721094666666 3.2767423474269073 10.770005487379256 2.5962839250133336 5.956447778230463 13.036428333333333 -0.1908632561540733 -0.25649378255273364 9.855133230498227 -0.9091082999999999 1.4125092333333333 3.556596683333334 760.5689106193755 328.529257708367 256.21979624754084 244.11929821549873 257.02655221757755</Array>
			</VectorInstance>
			<VectorInstance id="493">
				<Array type="real">0.7546336279999991 0.37469860993903653 0.1437839967188381 0.2923914098666668 4.728483762475799 1.587036733333333 -0.1607144544141433 0.5488724465647752 9.377874581394007 0.5113316000000001 0.7968801000000004 1.014752433333333 8.12019926736804 13.205966617772024 10.898774831811343 0.09890854730405485 2.430919609408712</Array>
			</VectorInstance>
			<VectorInstance id="494">
				<Array type="real">0.768746653333333 0.3084514096808062 0.09699456623355025 0.25010746208000006 4.725324141353908 1.1872048000000006 0.20517201630694673 -0.5457751814054416 9.41976210692115 0.5871480833333335 0.7284857999999996 0.9438042499999998 3.148704093053882 27.21598857190965 12.833360808541412 1.983310764718619 1.2777961857966167</Array>
			</VectorInstance>
			<VectorInstance id="495">
				<Array type="real">0.9115368440000005 0.24789876395170385 0.0643020258650208 0.1923939422933334 4.642591866908404 1.0623868666666667 -0.011087551588147967 0.8833130828558343 9.458104946394569 0.7948452000000001 0.8884184666666665 1.0779194166666664 17.28681880296127 4.956441658045323 8.959674773318545 0.8698654208962064 1.4106108804372812</Array>
			</VectorInstance>
			<VectorInstance id="496">
				<Array type="real">1.1465261733333334 0.5045186616149486 0.2595547488008429 0.38041577696 4.5450782858830925 1.8644446666666665 0.9564746872062019 0.39951481454732346 9.556214569873845 0.7953239166666665 1.035183 1.32256705 141.36442966549902 12.002339858803127 3.678145989992623 7.130354951785034 6.3325240587937754</Array>
			</VectorInstance>
			<VectorInstance id="497">
				<Array type="real">3.7123155146666673 1.0377363730235678 1.2889065859796374 0.8027749693866665 4.414307177174081 4.062481600000001 -0.7531412599224229 -0.009603620686286174 9.514728836663574 3.329187400000001 3.8567496333333335 4.4943656999999995 68.10792494445519 265.107106271105 212.99049581872455 82.68103538878856 50.18185260794229</Array>
			</VectorInstance>
			<VectorInstance id="498">
				<Array type="real">3.830585826666668 1.2737320395603995 1.76009739548087 1.0008274048533332 5.227234074789592 5.506185266666667 0.033301733362488505 0.888067471211536 9.80871678815222 2.9898889499999997 3.782609266666667 4.523455 107.35391548682813 266.39592320605857 112.35513714789249 2.687702329505698 50.367060269197516</Array>
			</VectorInstance>
			<VectorInstance id="499">
				<Array type="real">3.583149874666667 0.5148196455146313 0.2911426518174514 0.41110994112000016 4.976327125276419 1.886311533333334 0.6705403195576117 0.8369787432680688 9.751074469909232 3.2297881000000004 3.400973366666667 3.8272611333333333 38.60066723042753 4.606802871486565 4.906393531404542 10.279925792945445 5.871769002381047</Array>
			</VectorInstance>
			<VectorInstance id="500">
				<Array type="real">3.3463856253333346 0.08881134601065732 0.009480774417045678 0.06801754272000009 4.959043009260066 0.35785339999999993 0.28916390521577545 0.6594678034011202 9.71339746216076 3.290640566666667 3.329466666666667 3.3752756833333337 2.1609837329263017 0.12651086684703589 0.21773821928918838 0.10660049064383478 0.11019594375558435</Array>
			</VectorInstance>
			<VectorInstance id="501">
				<Array type="real">3.897728857333334 1.3727871422237738 2.056273823924531 1.240920378826667 5.047705804327177 4.394477466666667 -0.3026247902244448 -1.0891525808500309 9.707979804725793 2.6993128666666664 4.114605266666666 5.159434833333333 389.53213497270434 2.091020093346252 0.23200775628347875 116.29573817374032 171.91833573347338</Array>
			</VectorInstance>
			<VectorInstance id="502">
				<Array type="real">4.518034576000001 0.24254702148005794 0.06579815919738079 0.18376638218666666 4.580590466393072 1.0895214 0.517412512243443 0.6947407427764832 9.703500179520196 4.338024116666666 4.492011266666667 4.64065115 68.62527876566129 4.513518645741146 6.769191660948892 4.1362274037093725 2.6124184941091517</Array>
			</VectorInstance>
			<VectorInstance id="503">
				<Array type="real">4.230567560000001 0.1848627695789876 0.052080652069672946 0.163717056 4.652812936639579 0.6245673333333333 -0.2659495392541574 -0.9905404569100412 9.664188452778431 4.074981133333333 4.284673300000001 4.376490983333333 2.3447442734766106 0.6090630731740689 0.18019826258693117 1.705146938471878 1.644644091774151</Array>
			</VectorInstance>
			<VectorInstance id="504">
				<Array type="real">3.817529436000001 0.29752374483858157 0.09799061015820494 0.2644510826133334 4.73681289799027 0.9848147333333329 -0.013700848001192681 -1.272819254859941 9.657143525237625 3.577984916666667 3.8174848000000003 4.099322116666667 25.90782788700157 10.708514825729345 11.937657016143932 5.826056244612186 4.213809922971826</Array>
			</VectorInstance>
			<VectorInstance id="505">
				<Array type="real">3.308586033333332 0.5294541692533947 0.334634088936675 0.4836485732266668 4.215978898785712 1.6200765333333333 -0.019372068156415827 -1.4722086246962498 9.57784599379591 2.8179454666666666 3.3098341999999996 3.824068916666667 54.8143968921991 34.04158484626564 27.313837506321477 14.057854482034621 27.2396172032665</Array>
			</VectorInstance>
			<VectorInstance id="506">
				<Array type="real">3.4681356626666666 0.27456680235007463 0.10331919178215881 0.2360280890666666 3.8074430444149154 0.9307060000000001 0.5189059999075266 -0.7130943631996352 9.616470641154297 3.2451108333333334 3.3568404333333333 3.6829307166666663 31.461040959326922 10.724805202832792 12.471890780082363 5.229369839455715 2.1667831075523085</Array>
			</VectorInstance>
			<VectorInstance id="507">
				<Array type="real">4.228961850666668 0.4787982824615187 0.28241088205223236 0.4065073101866665 4.297838515379053 1.7573438 -0.2738418157172382 -0.9528122486230935 9.653129351548982 3.898488666666667 4.290898133333333 4.5732943666666666 147.6409688040999 89.24009436608733 6.444603043910033 4.714488398662167 14.974876537997345</Array>
			</VectorInstance>
			<VectorInstance id="508">
				<Array type="real">4.403116112000001 1.169447520623671 1.3940460163521786 0.8253020628266666 4.892928170053923 6.027961666666667 -0.9945671225150976 5.666496466160845 9.768624407086312 3.9570269333333337 4.552823899999999 4.953613483333334 582.792759065924 241.29090515603045 76.63134685054338 367.9146136106159 143.13156779488125</Array>
			</VectorInstance>
			<VectorInstance id="509">
				<Array type="real">2.0182773239999987 3.0930668276164504 9.736833292765558 2.6101156603733338 5.781134929791752 10.787793866666668 -0.4159563684040157 -0.802518058862247 9.982322724604717 -0.2021803999999999 2.8622781333333336 4.093695816666667 540.0425683405963 656.6102458213373 66.6279060017018 197.75949643981468 327.09602815940457</Array>
			</VectorInstance>
			<VectorInstance id="510">
				<Array type="real">3.2966852453333337 0.3485033644704847 0.14510794938444138 0.28346599829333335 3.4949575982522716 1.2200853333333332 -0.31379811115384154 -0.6171197823387956 9.617041150857135 3.0841009666666666 3.314063966666667 3.587202516666667 11.70263441637105 37.87303783301259 4.579837361246256 3.5463724434408244 0.0025010406074054015</Array>
			</VectorInstance>
			<VectorInstance id="511">
				<Array type="real">3.2667241196969705 0.20411560402033713 0.04462032195721801 0.15198034986225892 3.7306610397948297 0.9911993999999998 1.0467380273983156 3.3328262370518833 9.655594213027795 3.1402848166666666 3.261152233333334 3.3536481666666664 2.4565568290920785 6.4828903627802115 2.381705672802914 0.4501868476585361 0.6174337613082551</Array>
			</VectorInstance>
			<VectorInstance id="512">
				<Array type="real">4.243887072340427 1.1737420201231485 1.5201737529517076 0.8930914912328353 4.573005907136004 4.8830545333333335 -1.2741674196173376 3.342109688793991 9.221933042638302 3.6262678666666663 4.171826533333334 5.1662186000000005 236.10089312670564 52.41449275224813 52.63968190645144 10.636708957854918 11.262383716311579</Array>
			</VectorInstance>
			<VectorInstance id="513">
				<Array type="real">1.724560041666665 1.9328263267838928 3.949249235933736 1.3239159720486124 5.661679154051879 8.0507428 -0.9052879838242625 3.5183559333660894 10.070151053080115 1.5369677499999999 2.1644480666666666 2.6376220666666663 1133.3104140658684 692.4259397967674 832.5618925376812 140.9238558050552 143.1674991034609</Array>
			</VectorInstance>
			<VectorInstance id="514">
				<Array type="real">2.7934144879999994 0.7574349879788097 0.5944434546753414 0.5961428133333332 5.3433344903639 3.0020096000000005 0.3731547939859549 0.07378968241072299 10.288755238254447 2.3193529666666666 2.701547366666667 3.280106183333334 191.10287592092143 9.790227057929764 53.19779932025624 31.790240503121794 22.923848311899235</Array>
			</VectorInstance>
			<VectorInstance id="548">
				<Array type="real">3.668801650666667 0.09312484926242708 0.009934839968692459 0.07400006197333338 3.6812261635489065 0.3987143333333328 -0.4185721389279922 -0.04577342711695683 9.90011854803447 3.6141772166666666 3.6755884 3.7366804166666667 2.2012939717290805 0.0036933731962278237 0.2645993277522605 0.08375150759774966 0.15334199262590362</Array>
			</VectorInstance>
			<VectorInstance id="549">
				<Array type="real">3.579012698666667 0.14662469801500258 0.026293102675720343 0.1144685227733333 3.5928991770462955 0.6079679333333333 0.1993293494760855 0.032280530081331804 9.629247168095013 3.4808600333333337 3.5606666666666666 3.668525583333333 9.834685532070107 0.831616196112566 0.38201273129729096 0.48378610364854424 0.6274787994230178</Array>
			</VectorInstance>
			<VectorInstance id="550">
				<Array type="real">3.410594992 0.88266937183189 0.8553789367189376 0.66596700896 4.7933989091531 4.139574466666666 0.5471469843818566 2.1620971234738224 9.962554420333259 2.8352237666666666 3.4775081 3.9739459499999996 118.86131736110295 23.086976539769005 36.360364984417366 42.04962355146471 45.3181821180296</Array>
			</VectorInstance>
			<VectorInstance id="551">
				<Array type="real">2.5397440573333325 0.5213534490698642 0.2876590551286486 0.4083181489599996 5.356416921410209 2.396596133333333 0.37380925115884706 1.272897034524827 9.728097893333647 2.1674011666666666 2.502828566666667 2.85573395 20.52955079674618 82.8199942428448 18.36958691651973 79.7288946452226 0.4525341847366321</Array>
			</VectorInstance>
			<VectorInstance id="552">
				<Array type="real">1.1024600625850345 2.025428364359355 4.171191476925029 1.713694657892545 5.503907296589953 6.514782399999999 -0.3492532312110859 -0.8990119774587136 9.499691145259412 -0.3573644666666668 1.2721292000000004 2.6012303333333335 806.6344727688239 297.2646875993836 109.81955888721498 167.9699574228454 55.85118200718598</Array>
			</VectorInstance>
			<VectorInstance id="553">
				<Array type="real">1.766678665333333 0.32380444371486256 0.118847364120445 0.2758405576000001 4.4922619617519715 1.1402786666666669 -0.6191892896827303 0.1333936972941121 9.292235952331849 1.5711649000000003 1.7465003666666667 2.0659268 6.352856380388904 6.612939510930774 2.4319609153445847 0.7466313617596614 0.022259362574254617</Array>
			</VectorInstance>
			<VectorInstance id="554">
				<Array type="real">1.7274807186666667 0.3306751412950745 0.11103801659172806 0.2828840643199999 4.879234074771567 1.0663774666666666 0.26232769652750676 -0.9073207376299567 9.400966099100087 1.4146639 1.7521665000000006 1.9536385833333327 3.36011041833559 8.080428242952824 4.190817795457581 5.220135766595088 1.3645301469232405</Array>
			</VectorInstance>
			<VectorInstance id="555">
				<Array type="real">1.6067554786666662 0.2130599304519132 0.04550327984093247 0.1627195319466667 4.884145867738598 0.8239246000000001 0.07888228157028891 -5.925256452100255E-4 9.333915403277341 1.4729626166666663 1.6275085000000002 1.7186875499999996 3.5686283779929173 14.694982433446253 0.5112321424511415 1.0997399271325687 0.028207867790038595</Array>
			</VectorInstance>
			<VectorInstance id="556">
				<Array type="real">1.1785190306666673 2.0447653446359304 4.247713196900218 1.7850102898666673 5.480205217131748 6.726429733333333 -0.030921353067359176 -0.9670974185580498 9.54163660729019 -0.12408948333333303 0.9024645333333333 3.071212083333334 279.1571025129498 190.7242694137793 64.58397865143411 85.63952238988483 19.170646475765317</Array>
			</VectorInstance>
			<VectorInstance id="557">
				<Array type="real">1.4965169186666671 0.2926399501675364 0.0952015420644422 0.21455407583999966 5.125766820194665 1.1734781333333335 -1.0348861090362853 2.639662705127064 9.542769079906627 1.3907618000000006 1.5070003333333337 1.659351383333333 21.41277604747245 20.63762446183193 41.4762309897167 24.029108435329306 3.592657204258142</Array>
			</VectorInstance>
			<VectorInstance id="558">
				<Array type="real">1.4634706146666663 0.04956637571056973 0.0025637023486043057 0.03985289541333339 5.041988590021625 0.20143206666666646 -0.23815506492165694 -0.4804757913029629 9.583754754886927 1.432540783333333 1.4682941666666667 1.4958274833333334 0.3103429068136979 0.8138408949898761 0.6307157051355109 0.12078910596989585 0.2955643059516581</Array>
			</VectorInstance>
			<VectorInstance id="559">
				<Array type="real">1.4573925160000007 0.10839983447946082 0.013485339539132987 0.09221159242666677 5.072745046329257 0.36184380000000055 0.23003400338026436 -0.9121957144395334 9.55573503422604 1.36239065 1.4497789666666667 1.54123745 3.2696180678929374 1.590086906669489 0.8851827616205936 0.23021616321937388 0.06616024919200601</Array>
			</VectorInstance>
			<VectorInstance id="560">
				<Array type="real">1.7934788530612238 0.4297438264778642 0.18940552609516495 0.31808097603776203 5.1758284875202385 1.8077820000000002 1.4506240377585142 2.01299875394889 9.651301321926306 1.5329375333333335 1.651530266666667 1.8660508666666669 56.6485057109669 48.91559504714548 42.27736403438334 4.112112008583178 1.5486973989605055</Array>
			</VectorInstance>
			<VectorInstance id="561">
				<Array type="real">3.3340508026666673 0.9137259035869087 1.199310820916123 0.7822049584533336 4.728560497508419 3.0629819333333326 0.04586815448845393 -0.6344943317100796 9.951518363466993 2.5353499 3.5471795 4.056106983333334 18.907920507101714 17.78166358073326 5.5497732455000275 5.515048905013724 0.7296486103051922</Array>
			</VectorInstance>
			<VectorInstance id="562">
				<Array type="real">2.9586143880000004 0.7055678025803104 0.6397450842986125 0.6314521032533333 3.8007346593600015 1.9910180666666666 -0.3007063132703485 -1.2886072000307285 9.66919074669559 2.273304466666667 3.0399278333333335 3.6545593000000007 4.297846936587556 2.646619556062686 0.008660850976267726 1.773450976767892 1.5535857221165976</Array>
			</VectorInstance>
			<VectorInstance id="563">
				<Array type="real">3.5474411746666665 0.8281060423825042 0.9995792542711307 0.7365860393066668 3.9931563507951595 2.4529394000000004 -0.47281204696631857 -1.115807020043388 9.74483070496019 2.7886963 3.7724737333333334 4.3018716333333336 3.3200810716140294 3.871492142131913 0.3091061096740409 2.421525496784918 2.9426720519701006</Array>
			</VectorInstance>
			<VectorInstance id="564">
				<Array type="real">4.1345345973333325 0.5989673500523336 0.4522742622059157 0.5245408301866669 4.647127169618454 1.9380262000000001 -0.04547654860298491 -1.104624293845802 9.89325675902444 3.5702835 4.134716500000001 4.713315150000001 32.14148225561452 14.002080616718029 11.94528757649795 8.096184428652132 0.5565654114839642</Array>
			</VectorInstance>
			<VectorInstance id="565">
				<Array type="real">2.711301707482994 2.033023326051617 4.2533305718740015 1.2334484874080245 5.431360370246595 10.920592733333335 -1.397311093758627 4.056088137618871 9.553995044738212 2.4355515333333333 3.0439981333333335 3.577426133333334 789.4473268295459 335.5326152282075 59.97791466552279 64.6822198785265 182.7815140927821</Array>
			</VectorInstance>
			<VectorInstance id="566">
				<Array type="real">4.191845883999999 2.075936988070093 6.801503518093967 1.2211115003733335 5.183212749733088 9.922184 0.1795096639401045 5.5778840194749675 10.294154554900247 4.152553283333334 4.474054566666667 4.785380750000001 560.881226240323 322.54137075826253 180.04318049639667 132.39784018566496 91.70922834500209</Array>
			</VectorInstance>
			<VectorInstance id="567">
				<Array type="real">4.529631078911565 0.10190003629988792 0.01095059256093272 0.07796193563792869 4.535295896291624 0.4359041333333331 -0.020887722325015495 0.3867720179263208 9.829214252273355 4.475411333333334 4.5315953333333345 4.585225333333334 1.0776822441524323 3.779116172970155 7.314646633586037 1.3362368684029624 0.23236674189048662</Array>
			</VectorInstance>
			<VectorInstance id="568">
				<Array type="real">4.531659173333334 0.1816510990651989 0.033830829771457835 0.13221103200000014 4.538583465632662 0.5479530666666674 0.5706212711984375 1.7168955040096974 9.64956321581362 4.469785000000001 4.499513 4.541491483333334 0.37632955647748395 0.1795052501565902 0.07976740873863619 0.019550079826560058 0.07976740873863619</Array>
			</VectorInstance>
			<VectorInstance id="569">
				<Array type="real">4.190468069444445 1.6643647584564356 3.2425904480873378 1.3209268843750002 4.76599562000656 5.4709107333333336 -0.2515848219826177 -0.5031921745390324 10.039970265097535 3.3011351500000004 4.250994833333333 5.231420450000001 115.42720056220428 32.100129899619105 4.191630291089936 6.34218252536629 0.6991630639840396</Array>
			</VectorInstance>
			<VectorInstance id="570">
				<Array type="real">3.979489144217688 2.4580525227654704 6.993589563956519 1.9186142538386781 5.552575323997935 9.623733066666667 -0.34027557717219326 0.6157662135877479 9.95849560970955 2.5945264666666663 4.1477249333333335 5.654954666666668 747.789823496297 746.5860190549944 319.19828713564993 7.9888448909759635 49.11233281533923</Array>
			</VectorInstance>
			<VectorInstance id="571">
				<Array type="real">4.382391896000001 0.23530087943809894 0.05603343894986226 0.19446090117333345 4.497493297755708 0.8108364000000003 -0.4974392812896009 -0.5175873142275008 9.848411159011436 4.211011716666667 4.406538200000001 4.587260616666668 2.5122075724284993 2.8259785246769162 2.8644465300072075 2.0815255722884674 2.6848540868702564</Array>
			</VectorInstance>
			<VectorInstance id="572">
				<Array type="real">4.376910761333332 0.1106084417408459 0.01281395465784968 0.09346566965333346 4.565317577052167 0.4601656000000003 0.13711452038840163 -0.40922677203316216 9.78729050377074 4.2883045 4.3802818666666665 4.45454195 0.8535196615437649 2.29412006890514 0.5911241602650033 1.0381174710564494 0.4358826766392408</Array>
			</VectorInstance>
			<VectorInstance id="573">
				<Array type="real">4.576638225333335 0.4973489947300143 0.27725961672895005 0.39686759098666674 4.664582027304283 1.9088172666666665 -0.2829527982817958 -0.23038714411534725 9.792341580217036 4.327808916666667 4.6781204333333335 4.8712927 61.510238749278216 1.3990686671949846 8.915931428696126 4.315322014834155 14.547986436293048</Array>
			</VectorInstance>
			<VectorInstance id="574">
				<Array type="real">4.650912745333334 0.6439477864890031 0.5281593049967198 0.45298833471999966 4.7445122659754455 3.4881922000000003 0.21114678656197516 2.6262306839399705 9.815908715461903 4.447758283333333 4.650666966666667 4.9435577166666675 401.73973155550965 136.26840820080696 284.0148320863939 287.5081413774685 161.87197708740024</Array>
			</VectorInstance>
			<VectorInstance id="575">
				<Array type="real">5.133903045333334 0.9365222114279863 1.1034797357881747 0.6777448571200001 5.224562140018663 4.272373066666666 -0.34834230628488766 1.4026419806621606 10.066552986088205 4.635663350000001 5.161270366666667 5.531334166666667 997.6310174151691 206.68839030646785 82.21656098756834 15.128874917429279 7.674839824556167</Array>
			</VectorInstance>
			<VectorInstance id="576">
				<Array type="real">3.006421881333333 3.330949242786778 11.386465339988069 2.783581096586667 6.032271580911618 12.613452533333335 -0.15216522689103945 -0.4966584074963236 10.615541016819758 0.6962437833333337 3.135376866666667 5.16949055 237.62523928877908 8.367074198189172 981.1595982924036 557.2895609629309 83.60578660933582</Array>
			</VectorInstance>
			<VectorInstance id="577">
				<Array type="real">2.4825257453333323 0.49910934574037835 0.2512274791274731 0.3795049951999998 4.488668688600762 2.0459251999999997 -0.3414529218923393 0.20322799532056868 9.411360292394832 2.2470081000000004 2.4447292333333337 2.8349443500000002 128.55956684582003 17.980551352945913 28.78248348592864 0.5353337643375826 0.2380744908390212</Array>
			</VectorInstance>
			<VectorInstance id="578">
				<Array type="real">2.4572207479999997 0.38293285785328307 0.14793301013501156 0.30707210922666667 4.621280322704409 1.3184068666666668 0.3408460007997039 -0.4361457770142656 9.522140248587943 2.1806091 2.437307266666666 2.657494233333333 11.386729994974523 19.369461143707284 3.262656632600089 5.193261466701571 0.751691665142199</Array>
			</VectorInstance>
			<VectorInstance id="579">
				<Array type="real">2.6241412693333337 0.16493151290995536 0.028133197309008467 0.13341306810666667 4.505568191891158 0.5896122 0.5063206901313674 -0.5973225809845449 9.503004610471855 2.502389733333333 2.5977986666666673 2.7308762499999992 28.43227360911547 0.5317961108239977 0.5094366440715472 0.43510266556778143 0.08373447614201417</Array>
			</VectorInstance>
			<VectorInstance id="580">
				<Array type="real">3.602957916 3.205844175025902 10.403555918745871 2.8062486499733335 5.736067459896286 10.6383958 0.3054754915161548 -1.0929598758157593 10.1538648645455 0.8908524000000003 3.236332300000001 6.379958900000001 494.48260848716825 631.9469666999308 185.20662174106747 405.2213808331627 158.9765596527509</Array>
			</VectorInstance>
			<VectorInstance id="581">
				<Array type="real">4.549666768 1.649257198143233 2.8556830750192757 1.18911570368 5.319147015777003 7.766471200000001 -1.1441972179638495 2.32972974529124 10.004108916958666 3.9357583 4.950261433333334 5.338401350000001 586.9454544684295 122.22550817432061 103.20390697636263 370.0706835944404 142.46028705972108</Array>
			</VectorInstance>
			<VectorInstance id="582">
				<Array type="real">5.050000662666668 0.4184777645096814 0.2171885220720797 0.34009856021333323 5.067035832057037 1.6122553333333327 -0.09810970169104842 -0.6395630550960085 9.785231217544194 4.787136616666667 5.049541033333334 5.3142199833333335 73.69657348538607 35.92418786152902 14.84830502078627 14.005379822156744 13.579036120728045</Array>
			</VectorInstance>
			<VectorInstance id="63">
				<Array type="real">-4.633565167999999 2.506556572820997 10.222837739053377 2.172706011733334 5.639478988539799 7.958166866666667 0.6162678898723073 -0.604121019093429 10.396178623908888 -6.945329700000001 -5.154307233333334 -2.5157373166666663 4094.3834748312283 1793.072335464591 1028.1093862050825 674.3903210139031 484.21105552360245</Array>
			</VectorInstance>
			<VectorInstance id="64">
				<Array type="real">2.7602851426666675 1.1664095528932628 1.3896428509859646 0.9100744938133332 4.083072161551777 4.396392666666666 -0.7423657551529829 0.06235987424316495 9.481872146496984 2.40035685 2.7487131000000002 3.741508816666667 685.9736983484441 131.15891257744047 71.67157439456996 38.472862880143886 31.567947618061066</Array>
			</VectorInstance>
			<VectorInstance id="65">
				<Array type="real">-0.982583186666667 3.0054550144042476 11.036207964695732 2.621122615093333 5.034389361569267 9.614954333333333 0.014558395790827405 -1.1314063215020596 9.52909486623386 -3.5198657166666667 -0.7318177666666665 1.7207626333333341 3691.1529495661507 1453.1222815188735 871.7130935415834 539.4623329777421 414.2750450002465</Array>
			</VectorInstance>
			<VectorInstance id="66">
				<Array type="real">-5.5719677280000015 1.1973225256375248 1.9882804804290917 0.97720946288 5.744133296104529 4.103182866666668 0.5081234653966384 0.7294770960142353 10.643746277046954 -6.379499983333335 -5.5330699333333335 -4.836875933333333 296.1224781414948 143.14918630843079 66.83700427358417 54.02525127760432 39.21943949264979</Array>
			</VectorInstance>
			<VectorInstance id="68">
				<Array type="real">3.353680015999999 1.1236916484605395 1.4343238785036139 0.9005323018666666 4.148394290006228 4.000710933333334 -0.7227336608743453 0.22318943949314848 9.732281177527886 2.8420072333333337 3.6917093333333333 4.184515950000001 93.61191048594411 89.98020065613917 15.550400873623632 18.307397979764588 15.492703373137266</Array>
			</VectorInstance>
			<VectorInstance id="69">
				<Array type="real">-4.005550150666667 2.7992385019209896 12.949312551115922 2.49041323456 5.530541619209875 8.294951066666668 0.31430807801038135 -1.275674683881002 10.023934977498676 -6.811014950000001 -4.2204090333333335 -1.501154516666667 4033.223773694356 1912.475740306379 1163.9958582132015 660.1811164677488 467.0982521260783</Array>
			</VectorInstance>
			<VectorInstance id="70">
				<Array type="real">-5.415795551999999 1.8872727085237047 4.350760852934019 1.6012009393066673 5.751813474417491 5.9403336666666675 0.4285772043376796 -0.35231866326731404 10.569005399450733 -7.036468983333333 -5.521178766666668 -4.2925143666666665 1317.6246529756788 543.5905774307184 239.41611782929684 221.67003193919564 149.98694358243438</Array>
			</VectorInstance>
			<VectorInstance id="71">
				<Array type="real">1.4098180586666673 2.876793035666312 8.654282535321046 2.4616295466666664 4.747267619172034 9.164365466666668 -0.5493240030159448 -0.8536175873161165 9.121354506364442 -0.7797415833333329 2.1842401333333332 3.764492966666667 1178.353184228694 545.6827097063237 528.6167872958893 229.7228639749748 167.05196984703466</Array>
			</VectorInstance>
			<VectorInstance id="72">
				<Array type="real">1.3781922826666662 2.649240266694186 7.359624178215547 2.29154170352 4.8170811305705135 8.484253 -0.5111047727349262 -0.7514598731142424 9.38375099824595 -0.9358835500000003 1.9615794666666666 3.7723939666666677 1379.5082225085703 597.6553295645268 513.5735374004621 285.37869133619563 182.1616497953787</Array>
			</VectorInstance>
			<VectorInstance id="73">
				<Array type="real">-5.353093057333335 2.002178737898973 5.130381437708327 1.7250142878933337 5.7361467485263065 6.041528800000001 0.5617873602236715 -0.9526863635326531 10.378040057609214 -7.036828100000001 -6.037368600000001 -3.7710173333333334 1639.9849088600201 734.0455766442993 355.3849319624375 195.52329370002778 151.4808247125836</Array>
			</VectorInstance>
			<VectorInstance id="74">
				<Array type="real">-4.862319990666666 2.4943057758684493 9.671210628177061 2.1582930284266664 5.717192104435043 7.5243376 0.5734614145230393 -0.948558447724904 10.272090151724587 -7.158373766666667 -5.567227300000002 -3.0006829333333336 3241.351088911544 1517.262277692494 844.1621194904603 502.8598732013403 401.45575200545085</Array>
			</VectorInstance>
			<VectorInstance id="75">
				<Array type="real">3.0477904466666668 1.4956535540265568 2.3201184331329263 1.2146465681600003 4.189433299331857 5.2380344 -1.1331404893416537 0.35085235371523255 9.459933673749477 2.2200335500000006 3.6424686000000004 4.195289783333334 509.1294615809369 91.8657199504848 124.15208865925032 63.523109893736404 43.70309614995432</Array>
			</VectorInstance>
			<VectorInstance id="77">
				<Array type="real">-5.455156216 1.2006889145273614 2.0520154170957157 0.9504939806400005 5.652379321529877 4.258965400000001 0.44379529359178854 1.304556502442916 10.526869513569647 -6.179743683333332 -5.266116466666667 -4.704875716666668 154.91311341718773 139.49860207516735 78.22753407744273 45.091882384923025 35.373327290085214</Array>
			</VectorInstance>
			<VectorInstance id="78">
				<Array type="real">-3.5542781946666664 3.081651657323952 14.093567303310364 2.669753524746667 5.511327594482125 9.278329866666667 0.7017217835823647 -0.6602226272283328 9.949947200674206 -6.427423966666667 -3.8839438000000004 -1.168081066666667 5012.2439382170805 2274.2983759918134 1337.8246965392261 879.981909273506 558.0007077446681</Array>
			</VectorInstance>
			<VectorInstance id="79">
				<Array type="real">3.7866570453333335 0.8363079536710382 0.7763307822892012 0.7106856132266667 4.134554059739263 2.930183533333333 -0.5030482422531183 -0.6854290360432104 9.833137741534536 3.1435570333333334 4.016044 4.45629755 151.26569977244293 56.39031963818965 9.9643518691232 9.422524983276464 4.710842218033578</Array>
			</VectorInstance>
			<VectorInstance id="81">
				<Array type="real">-5.523017555999999 0.8885463964432274 1.2414379348190958 0.7457709690666666 5.657880716721709 3.238876 -0.24777179447892328 0.6961484698188264 10.572690039023717 -6.178147816666667 -5.3234177 -4.762855433333334 38.87689530569165 18.15013918396162 5.359941920132265 2.481412633167326 12.12236417000506</Array>
			</VectorInstance>
			<VectorInstance id="82">
				<Array type="real">-2.3913187026666676 3.4536482864943743 15.67429893273677 3.045507048213333 5.334891791043262 10.323638200000001 0.4136482003438238 -1.0604379298092577 9.544831101039227 -5.40976865 -2.648376133333333 0.5262554166666673 5531.458130676062 2577.562690921586 1455.8964892603612 846.3569295202137 610.2252883180115</Array>
			</VectorInstance>
			<VectorInstance id="83">
				<Array type="real">3.9662923986666665 0.5196462622166177 0.3051179055182841 0.43608459167999997 4.100031352032958 1.9147229333333342 -0.009784442694141896 -0.19085691870323482 10.065826875130178 3.594265483333334 4.054271266666667 4.371303500000001 13.706098460445464 16.041577561101946 1.0872051419697395 2.1984158527595854 1.0059176374249599</Array>
			</VectorInstance>
			<VectorInstance id="84">
				<Array type="real">-1.7601113453333344 3.4915860920324278 15.112046265051083 3.0328914175999997 5.157254768839401 10.659464600000002 0.34320415771847895 -0.9999344341643345 9.499206567944807 -4.716886466666668 -1.7606060999999997 1.1869353333333332 6604.726837266645 2247.3313744540133 1292.0281919674212 883.4451227974811 531.3494867275351</Array>
			</VectorInstance>
			<VectorInstance id="85">
				<Array type="real">-5.108654645333334 0.8020025208117659 0.995828152122276 0.6280659162666664 5.234044120394063 3.1308176666666667 0.11486958058735779 2.0603302865896302 10.217053203808655 -5.499591066666667 -4.8794528999999995 -4.546140050000001 60.22579290587941 15.551182421971108 11.236769839130583 10.680180752711093 4.0382429854682576</Array>
			</VectorInstance>
			<VectorInstance id="86">
				<Array type="real">-3.564777590666667 3.050139124655058 14.002753706878316 2.65071190336 5.467422777034304 9.314242866666667 0.7072768154495804 -0.4841624401207232 9.820203467156675 -6.38592445 -3.8606403 -1.1596216666666666 4701.905003637265 2375.0055430613875 1293.0415272180137 795.4523721364745 530.0208152471852</Array>
			</VectorInstance>
			<VectorInstance id="87">
				<Array type="real">3.578728561333334 0.6891040825562375 0.496014706209203 0.5893100606933334 3.9738755520672044 2.363555733333334 -0.5056817074147752 -0.680555068042921 9.92617540935062 2.9667850833333347 3.7335281000000005 4.179088966666667 213.35584942054436 56.57623566811221 5.492768062156261 2.574741500598597 5.876022524713595</Array>
			</VectorInstance>
			<VectorInstance id="88">
				<Array type="real">-3.1912406106666675 3.1497215601614243 14.289212550924283 2.7458227039466667 5.436952056935744 9.776163799999999 0.5496025241509139 -0.7410967273175841 9.886303140420809 -5.992996150000001 -3.370547066666667 -0.4650637000000006 3860.238705334303 2368.7884802122558 1425.8255820952954 888.7112921376122 607.5256640966159</Array>
			</VectorInstance>
			<VectorInstance id="89">
				<Array type="real">-5.106110396 0.6332486883133098 0.6536713413594345 0.5239473365333335 5.1915041622173055 2.2143173333333337 -0.8520233426033706 0.012820028771360311 10.06925344767716 -5.486622433333333 -4.877617366666667 -4.5951414999999995 6.77334513904263 12.867007946774008 5.729536223926809 0.4817742027401115 0.4087296188325774</Array>
			</VectorInstance>
			<VectorInstance id="90">
				<Array type="real">-3.1614854960000005 3.1011706461427324 13.8022314989117 2.6585504059733336 5.394944109378431 9.449435200000002 0.6918753530376254 -0.5174951631699154 9.74886079122276 -5.9339391500000005 -3.317316133333334 -0.8360054166666666 5120.304846656005 2182.1102246818364 1331.4670765070323 810.5072809363076 566.6250753352683</Array>
			</VectorInstance>
			<VectorInstance id="91">
				<Array type="real">3.6122857479999997 0.5371420551334165 0.33678095508062095 0.44777245616000005 3.964317511015595 1.9932526666666661 -0.7249103909709147 -0.11672801308370732 9.895504933752937 3.2394446833333332 3.743025233333334 4.039347533333334 16.731385891945603 31.752959856682946 0.9160179038577732 2.589949571185919 0.4407332314468692</Array>
			</VectorInstance>
			<VectorInstance id="125">
				<Array type="real">4.017430548611112 2.2072615057830163 5.850481206032158 1.8416020669560187 5.328496505168819 7.782272866666669 0.3800859468191456 0.12840912366059878 9.53233453091581 2.2552681666666667 4.1295291 5.804153416666668 128.98744710614577 183.55280174066158 359.2744989430378 72.59363289228062 27.754011793260183</Array>
			</VectorInstance>
			<VectorInstance id="128">
				<Array type="real">4.201709465333333 1.108198382686455 1.3650743223241293 0.8281279414933334 4.599607106825132 4.322811066666667 0.6987466333539002 0.33342428479084685 10.155155213666939 3.4934296333333337 4.159296866666666 4.5508287833333325 450.8692970476247 106.70510710696178 43.93776621070091 18.5321017370633 2.865306883478212</Array>
			</VectorInstance>
			<VectorInstance id="129">
				<Array type="real">4.257580552 1.7966207833151422 3.6629372427972258 1.507944852906667 5.022512092298637 6.299304200000001 0.27397934153963277 -0.656563879477571 9.92485654966716 2.8499479999999995 4.0125325 5.5367211 213.55997854793117 200.6845037032973 22.688826989404262 0.6733049287555013 5.595740838137094</Array>
			</VectorInstance>
			<VectorInstance id="132">
				<Array type="real">4.839949444000001 2.462290324319781 7.817886884694141 2.1803559893866673 5.85256180088009 7.554025733333333 -0.3301089651828513 -0.8471705774592554 11.009056755609567 2.7782816166666673 4.743961066666667 7.269724066666666 76.23259812561552 207.81640652251312 76.84136003293436 34.42164357825492 15.393144437990331</Array>
			</VectorInstance>
			<VectorInstance id="133">
				<Array type="real">4.2129302813333345 1.5086136352677897 2.43153445396141 1.216402577546667 4.834249435765063 5.796362266666667 -0.019733831773588933 -0.2474848511675137 9.798875873073063 3.21498385 4.1768545 4.994394499999999 950.7074892204199 256.57494931397 33.60431369933472 13.459458563724713 1.7828672747237393</Array>
			</VectorInstance>
			<VectorInstance id="135">
				<Array type="real">4.858205932 2.2665755586489853 6.464826884210605 2.031311877386667 5.684018708317168 7.3637664 -0.29293381461485263 -0.9685185720472237 10.768974230874365 3.0493449666666668 4.623852 6.798305883333334 153.70127425125136 106.54664903337812 161.587953746256 47.05192689283286 37.89858292547924</Array>
			</VectorInstance>
			<VectorInstance id="136">
				<Array type="real">4.5815702626666654 1.8312036299436016 3.9121050672884703 1.5132084073066672 5.297067978203528 6.656200000000001 0.18204901513504254 -0.5655055522696105 10.190533727072795 3.1959499666666673 4.3673530000000005 6.109055049999999 332.3830740519633 132.47282982467894 28.20266822917764 23.888585493275844 23.395971814770068</Array>
			</VectorInstance>
			<VectorInstance id="137">
				<Array type="real">4.082072754666666 1.4594745711589387 2.168281918520844 1.1791942794666666 4.652270730226619 5.340825466666668 0.4331634908412563 -0.47987813782090233 9.51289721354433 2.9575273833333338 3.9756617000000003 4.943557566666668 713.9778698558547 181.0879634029334 7.056953014968142 13.819691049385776 3.669074717814124</Array>
			</VectorInstance>
			<VectorInstance id="138">
				<Array type="real">4.774195006666667 2.0947070176049087 5.87600688276794 1.8822974985600005 5.6158818063887175 6.249504933333334 -0.08049997335918581 -1.1084422924455397 10.763751446480263 3.0597199500000003 4.5756486333333335 6.6301132 98.47744505006617 16.396597659336837 17.000836597231512 30.756584284479803 8.344828407997637</Array>
			</VectorInstance>
			<VectorInstance id="139">
				<Array type="real">4.670727202666666 1.7389928161398824 3.432894697030188 1.4635801094933336 5.306518521673443 6.1213353999999995 0.15216110256087556 -0.6051765394481201 10.328353995561718 3.2635064333333337 4.5418106 6.073700683333333 61.644257161973705 53.81948187895741 7.389020738401443 17.698685674476838 12.225069286688774</Array>
			</VectorInstance>
			<VectorInstance id="140">
				<Array type="real">4.105574264 0.827763681765294 0.7146348606838838 0.60717193728 4.271385666565943 3.4147699333333335 0.16064513116192847 0.6819439946328932 9.351161117784537 3.682412016666666 4.082443066666667 4.467231266666667 125.59270191717557 90.61724645243817 144.72839863540798 19.612860672781466 7.892221629684107</Array>
			</VectorInstance>
			<VectorInstance id="142">
				<Array type="real">4.200617726666667 1.613152415372646 2.7120526531698395 1.2562851310399996 4.888074703718419 5.930916533333334 0.15000696041907585 -0.5132295054930996 9.874989598874434 3.1607153166666673 4.163446833333333 5.14698485 37.70744840748362 204.37155963502158 22.103062021749917 42.67763125968065 11.150914583187884</Array>
			</VectorInstance>
			<VectorInstance id="144">
				<Array type="real">4.812671433333333 2.0345631277252783 4.564326401132307 1.7049838242666666 5.538908143586464 7.225062133333334 -0.07651381058415796 -0.599658239859 10.456250817593405 3.5506908833333335 4.6149932666666675 6.452782683333333 614.380351327249 139.18172573865334 140.6654622792251 3.0824712748388903 10.481605140447213</Array>
			</VectorInstance>
			<VectorInstance id="146">
				<Array type="real">4.328570226666668 1.5174582777483334 2.8278670907437817 1.219034800106667 5.006167155236478 5.734432333333333 0.06677603175368356 -0.5758962177867758 10.034146208305593 3.222645466666666 4.166719033333334 5.34342925 52.03569403447318 51.04458321912067 47.813258325294896 50.032943973578 8.945099259565817</Array>
			</VectorInstance>
			<VectorInstance id="151">
				<Array type="real">4.396575115999999 0.7389016433982922 0.553757173732086 0.6021159475200001 4.560802498487362 2.9740774000000005 0.3684088843723485 0.152980495970497 9.715505901492206 3.8068305500000004 4.368630066666666 4.918697866666666 276.14453802514737 19.303358584785947 12.098314253042384 7.560037355868237 0.7426462703780228</Array>
			</VectorInstance>
			<VectorInstance id="152">
				<Array type="real">4.297946836000001 0.7287385164186353 0.5401343809193045 0.585321287146667 4.423287123626689 2.7025747333333334 0.6008122495546208 -0.1479344709464733 9.618281691853811 3.7498086500000003 4.1644844999999995 4.680634483333333 265.6483927864372 62.876664188676926 1.6621741662259173 3.8257440801479 2.689214215886417</Array>
			</VectorInstance>
			<VectorInstance id="153">
				<Array type="real">4.572344675999999 0.9283001386898428 1.0004583827675877 0.7399591410666666 4.780922633090575 3.4328062666666668 0.1721616174474951 -0.6641108958815872 9.889446433112617 3.931807933333334 4.520981066666667 5.125995916666667 21.558664034605865 27.500680168074577 13.089418597317621 3.027242494268031 0.13750837238775915</Array>
			</VectorInstance>
			<VectorInstance id="167">
				<Array type="real">4.272246303401361 0.6051473738543461 0.4405508841353802 0.4538380229904207 4.496942143695166 2.3608424666666674 -1.058872009078499 0.7997597647172814 9.846589884803873 4.0497222666666675 4.404862400000001 4.695039599999999 118.13925739007227 49.617654469720975 18.955130632649173 23.00414682516439 12.589925239464172</Array>
			</VectorInstance>
			<VectorInstance id="170">
				<Array type="real">4.042724853333336 0.9320270711628492 0.8871810018383876 0.7725711403733332 4.476123310207968 3.369918933333333 0.2592452960665999 -0.7394810739361123 9.193908365307175 3.333217466666667 3.950921533333334 4.66938165 72.6225442434064 100.39007272247285 50.71789735345448 2.205597376290511 0.6574675067722011</Array>
			</VectorInstance>
			<VectorInstance id="172">
				<Array type="real">5.524276082666666 2.2183574755677387 6.33104711554313 1.8733877728 6.196616373083683 7.057468266666667 0.2022469867037213 -0.6884060195105781 11.373479935920656 3.3972624166666665 5.684722666666667 7.29757675 255.46702095976076 157.6718275567575 51.22082461603992 34.09149412634069 2.545013575824995</Array>
			</VectorInstance>
			<VectorInstance id="174">
				<Array type="real">4.662647548 1.511838562679037 2.7137227668802724 1.1502993972266666 5.228778912066151 6.399062600000001 -0.14142733950119046 0.14119312541058182 10.163620434465686 3.8824872666666663 4.5967975 5.606951133333333 349.83250923042425 291.43424115268596 215.21140329061706 52.54022933265501 3.905828314610288</Array>
			</VectorInstance>
			<VectorInstance id="184">
				<Array type="real">5.078568277333335 1.6840756675966453 4.089908765114252 1.4997426092800001 5.632541904857717 5.417280400000002 0.3094675473907127 -0.06370233576971263 10.951111941556533 3.6962185500000007 4.872609533333333 6.710398733333332 36.09252696558233 8.45101797410198 48.82962188572597 20.934262646612677 6.062886940444654</Array>
			</VectorInstance>
			<VectorInstance id="187">
				<Array type="real">4.560328934666667 0.8380224727514057 0.8782149982718096 0.6448250516266669 4.831589247388771 3.249889533333334 -0.29715004563676456 -0.43419582529444556 9.892233349964664 4.0703922 4.611242466666668 5.053650950000001 5.911778495112554 58.1395419502588 2.464278467515901 3.5136187979667164 0.4932282015919873</Array>
			</VectorInstance>
			<VectorInstance id="193">
				<Array type="real">4.480808110666667 1.280578719326998 1.6614031979509372 0.9720102659733336 4.752793140381667 5.956500933333334 -1.091547569160908 1.6190523481779124 9.589241498441154 3.7712367833333342 4.783864433333334 5.347978250000001 125.6760691112996 218.50497224822226 209.77834872562084 128.4356900285713 4.404390442272393</Array>
			</VectorInstance>
			<VectorInstance id="194">
				<Array type="real">2.499068102666667 4.458067003412842 25.745888621461106 3.0390298291200004 5.277857894203871 17.169459 -0.7489079211582844 2.9623579151695822 9.230911161450132 2.24908325 4.053553 4.716467516666667 3275.9111447196333 4359.445344813109 1603.125555636601 738.0662807070759 276.0610149752689</Array>
			</VectorInstance>
			<VectorInstance id="205">
				<Array type="real">3.586011269503547 0.2713389548248495 0.08227335239385937 0.19492959770635285 3.941945748891604 1.206039333333334 -1.6728795296687264 5.382479690316707 9.663294700070008 3.454364066666667 3.6018469333333343 3.7598642333333334 13.888725775990615 41.02730902020259 7.548157772452655 1.027403499457704 1.3067818778694584</Array>
			</VectorInstance>
			<VectorInstance id="207">
				<Array type="real">4.5008314426666685 0.5005814451121243 0.2754511045305401 0.3559834167466664 4.695720269819457 2.4068110666666667 -0.47610385648561443 2.3422081029528874 9.652254023585131 4.3232998 4.5804371 4.797391650000001 8.360552505776392 20.46923152499602 20.947621561796872 29.615624996360452 3.227734558437588</Array>
			</VectorInstance>
			<VectorInstance id="208">
				<Array type="real">4.551939661333334 0.22355965886924722 0.05945027261502963 0.1679672233066669 4.664522686179564 1.0098742666666671 -0.3400616101771188 0.5306872463090923 9.763329850732056 4.4635603 4.584267766666667 4.682230466666667 3.112866011314952 10.980498108710366 6.711108378098037 1.583532382819194 3.238620701302313</Array>
			</VectorInstance>
			<VectorInstance id="214">
				<Array type="real">4.148072929333334 0.6226458223201766 0.5321631492759719 0.5182958706133333 4.2936993053328285 2.1249339333333337 0.3302237075055971 -0.6815421206307577 9.682079313419301 3.628103416666667 4.085156566666667 4.5663111333333335 76.51537809596017 8.083158022473652 14.652402882791794 6.446655892544024 5.528233901645678</Array>
			</VectorInstance>
			<VectorInstance id="215">
				<Array type="real">4.998283209150326 0.5323370510670768 0.4034037362648671 0.3118450449826988 5.055450769283509 3.221797466666667 0.5834411716068618 8.616512706838655 9.859998473580111 4.784901866666667 4.971649466666666 5.152810866666667 40.84408966998588 79.34454447702618 132.25934745015104 118.3065749627094 103.17614644462193</Array>
			</VectorInstance>
			<VectorInstance id="224">
				<Array type="real">4.786696708843539 0.19515989647430756 0.038909046711512026 0.14891794829931979 4.792780270427767 0.8191361333333339 -0.31348198411873535 0.6675060205126672 9.751067570900442 4.6875377333333335 4.801342 4.907165733333334 2.997009019181112 4.888052708642094 0.8853035637000715 1.1977808655061155 0.8807581937873293</Array>
			</VectorInstance>
			<VectorInstance id="225">
				<Array type="real">3.945667108 0.41261356863902715 0.21594775694345755 0.32800310399999993 4.029818685709508 1.7351578666666663 0.5969647315690976 0.23498799758279146 9.69976687583456 3.640712933333333 3.8558717999999996 4.119672950000001 379.4713021863421 0.7815948777518108 6.739346788206166 1.8090339150507897 2.9365406625079746</Array>
			</VectorInstance>
			<VectorInstance id="228">
				<Array type="real">4.8367305809523815 0.4542837654897886 0.3324642863968472 0.35595759727891196 4.873129016686324 1.176670466666667 -0.41812691911780964 1.120456784293004 9.645845739735984 4.7065315666666665 5.0165008 5.0792291 5.978679855890317 1.8728319376224434 1.8728319376224434 5.978679855890317 11.32044755949689</Array>
			</VectorInstance>
			<VectorInstance id="256">
				<Array type="real">3.4833243586666676 0.03359127104227214 0.0011654146739584462 0.02719123658666654 3.9839499548492214 0.13519259999999914 -0.11196550396301601 -0.3019068400083354 9.608168323432679 3.4590327833333343 3.483094533333333 3.505280766666667 0.5625084858767417 0.18357199839604138 0.1768664116542593 0.015110381333916437 0.004169525047607218</Array>
			</VectorInstance>
			<VectorInstance id="258">
				<Array type="real">3.360827532 0.44061703500076305 0.2565039381286268 0.3401404407466668 3.6600053369321723 1.7391480000000004 -0.14913310294856055 0.06719615016598886 9.759136777938668 3.1919995500000002 3.366896166666667 3.675588366666666 30.504598343301303 2.981714947291356 26.10658674446924 3.193394946044162 0.5367443869659181</Array>
			</VectorInstance>
			<VectorInstance id="259">
				<Array type="real">3.3397106666666674 0.37892795950474795 0.19137722703669005 0.2938042017066667 3.585295084244018 1.504197133333334 -0.1290989063798692 0.2902899035710614 9.742386955212826 3.2406816500000004 3.4111887666666667 3.5503717833333326 10.200009338967396 0.26629051319860253 15.360658564170116 3.9389474774947524 0.2495299573248447</Array>
			</VectorInstance>
			<VectorInstance id="260">
				<Array type="real">3.8689441920000007 0.660159925051441 0.48708576499371786 0.4220906078933335 4.070167506904087 4.087540733333334 0.2048082583344291 4.0147003845934846 9.723070295429858 3.6168906 3.8780582 4.067638883333333 7.127260723068767 66.12734240372195 35.10497734285714 57.11193226398978 72.3856476819972</Array>
			</VectorInstance>
			<VectorInstance id="262">
				<Array type="real">3.494066421333334 0.4991376405051903 0.31660127701066465 0.41849689674666674 3.83165731971145 1.9289284 0.1361590085752763 -0.39202323984051884 9.800288302517416 3.13505745 3.5049616 3.94278135 43.84874529075178 14.08409999539306 3.0206623708963916 4.5615831055786105 0.9469027780822783</Array>
			</VectorInstance>
			<VectorInstance id="263">
				<Array type="real">3.4083157400000004 0.3668836245300469 0.1483199298190299 0.2907567064000001 3.5715293612275167 1.5118584666666672 0.2701396402304395 -0.008133909675244558 9.707182253187717 3.1160634833333343 3.3822189333333337 3.6474565833333332 39.928441851566845 2.7665485924652957 9.280269354299556 22.85913065836602 39.5965499579441</Array>
			</VectorInstance>
			<VectorInstance id="264">
				<Array type="real">3.968926022666667 0.9737920347976291 1.0107268201518764 0.6262068339733333 4.29243923284166 5.2273402 0.4426418913782615 4.418495596849133 9.844003236571416 3.633729783333333 3.891545333333333 4.221306766666667 617.1839572644949 371.4643276211929 25.222570250176254 17.112368476717062 17.337788423435498</Array>
			</VectorInstance>
			<VectorInstance id="266">
				<Array type="real">3.6523742826666683 0.23598794205961707 0.06015218952202944 0.18570322661333358 3.750176217037163 0.9693325333333332 0.15825865017282373 -0.33381450698651766 9.769960543041957 3.5093510333333335 3.6399946666666665 3.8354413666666667 6.631489796988722 13.867483370242857 0.005183979105450426 7.582518571745773 4.874397036718988</Array>
			</VectorInstance>
			<VectorInstance id="267">
				<Array type="real">3.6655685904761923 0.25294819113316575 0.0711467646928939 0.1897692783007082 3.7984614680329702 1.1784260666666666 0.5436422873287637 1.0592965849570843 9.703872563830398 3.5084731999999996 3.6730346666666667 3.7905100000000007 29.625523267509124 8.935697602454075 1.56599782858253 17.070532604939462 3.5775859636019534</Array>
			</VectorInstance>
			<VectorInstance id="268">
				<Array type="real">3.7818558799999997 0.731488943362872 0.6596225310244451 0.48060029749333344 4.01760616517645 3.7180356 -0.19500753281106453 2.0658366849074894 9.707009922528501 3.5719593666666665 3.7831678666666666 3.9946557666666664 191.7411471833238 38.638906324929586 37.89126834412469 2.656359021836084 7.132487883630998</Array>
			</VectorInstance>
			<VectorInstance id="269">
				<Array type="real">4.181186357333334 1.32461445193549 1.8129153167255285 0.9244385625599999 4.612886711725158 6.997453533333335 0.22524905484178817 2.828514086910827 9.959421825760105 3.5412337500000004 4.018837166666667 4.595161433333334 94.50065818351867 362.98307721181027 691.1425345658281 543.3075954417351 28.683777767651446</Array>
			</VectorInstance>
			<VectorInstance id="270">
				<Array type="real">3.7534351253333327 0.3036234907726956 0.10280985139571346 0.26275543514666677 3.8464317851914807 1.1527284666666666 0.029372828789529504 -0.8723975564020793 9.775570619089036 3.494227766666667 3.740551166666666 3.9978080833333336 3.924845210564811 28.880152218727655 6.771552760975428 2.462368974074209 0.636137481210972</Array>
			</VectorInstance>
			<VectorInstance id="271">
				<Array type="real">3.7129507053333337 0.35477794000330204 0.1459527585585881 0.2710842774400001 3.790914737027853 1.5653291333333332 0.09339900906000116 0.17126362843784237 9.70654519842069 3.486606100000001 3.7016054 3.8739479666666665 177.4869605041763 33.17039302902817 4.2161187265436135 14.907404416703907 1.9371807273876593</Array>
			</VectorInstance>
			<VectorInstance id="273">
				<Array type="real">3.9767407026666675 1.0462853312098004 1.1960101007066732 0.7527980342400006 4.403774751351715 5.315925733333334 0.11329643115690098 3.5164562741078833 9.964001599817282 3.4807003500000007 4.140861566666667 4.503224033333334 5.505835675999884 19.089156111106785 34.467629364550184 41.04511553129428 28.143717015827033</Array>
			</VectorInstance>
			<VectorInstance id="274">
				<Array type="real">3.8642387493333348 0.39856938149914206 0.19204683622230023 0.3280174210133336 3.986694136583281 1.5800137333333335 0.01915758428531387 -0.6685969325501732 9.818200860827183 3.5806980833333335 3.8929818666666667 4.185992316666667 28.405107875884323 0.39069740465568437 5.139920442760949 0.4766313997909707 2.416847864084152</Array>
			</VectorInstance>
			<VectorInstance id="275">
				<Array type="real">3.91695272 0.31841050019592587 0.13274740715395372 0.28608629088 3.9799251886364853 1.0658986666666663 0.07783480786099792 -1.3359169217094955 9.766334964028902 3.647815683333334 3.819639666666667 4.20291135 0.5290964627724217 2.401668842764347 1.2314507550145313 1.2804138931736742 1.2519885088424192</Array>
			</VectorInstance>
			<VectorInstance id="276">
				<Array type="real">4.142125702666667 0.738370551674851 0.6582259452913602 0.4712829778666665 4.304531461925024 3.474465466666667 -0.20345482694931935 3.69855692355928 9.736797589077149 3.8687606166666666 4.123144466666667 4.339420816666666 36.07078097765305 20.572127854513035 24.20264969908097 9.301180030109022 7.5155321609179735</Array>
			</VectorInstance>
			<VectorInstance id="277">
				<Array type="real">4.169678288000001 1.2896400258493255 1.7589941505823514 1.0760238258666668 4.666978303668718 5.2583054 0.13890450997351564 -0.25301923357615647 10.010299507309197 3.0860562166666674 4.084438366666666 5.080944866666667 436.45654371384245 78.55681939815057 28.62174517876696 15.79618360012137 2.0065818420538246</Array>
			</VectorInstance>
			<VectorInstance id="278">
				<Array type="real">3.810388391999999 0.3011659468174168 0.09761992062165663 0.24322689482666646 4.1423370504787895 1.2199257333333335 0.43879824609869966 -0.10086980576591194 9.843485561429862 3.5585119333333335 3.7893130999999998 4.000481549999999 11.803084805720587 32.177906952578944 1.0447105595497101 0.031017714469575866 0.34007404675361175</Array>
			</VectorInstance>
			<VectorInstance id="279">
				<Array type="real">3.658889646666667 0.2278032959449058 0.06002811848045655 0.18001601952000004 3.7239140878011407 1.0585564666666671 0.3752717736980709 0.34215429011328996 9.709353227846194 3.511425916666667 3.6591481666666668 3.803319100000001 2.424305876568666 17.094926858667424 3.2168351823939445 7.455963326236319 5.644237792929639</Array>
			</VectorInstance>
			<VectorInstance id="280">
				<Array type="real">3.8841936040000005 0.35537214658802685 0.14533876762839032 0.26013120368000003 3.946455324017638 1.8026741333333327 -0.8888672979232018 13.700148653437807 9.665271134959774 3.663577533333333 3.8443796999999997 4.135235300000001 69.51562104132614 3.313111481333404 16.18082571070967 11.473263929221108 5.495591369791606</Array>
			</VectorInstance>
			<VectorInstance id="282">
				<Array type="real">4.108482453333334 0.49483948750354023 0.2758911447708902 0.38385821088 4.269745653761384 2.5003446666666664 0.210645632840016 3.8917417474347555 9.789329465140954 3.756871650000001 4.120191766666667 4.420185283333333 22.949242546462877 150.54736710526387 0.23608089386500752 7.100012685576193 14.738159068776735</Array>
			</VectorInstance>
			<VectorInstance id="283">
				<Array type="real">3.923381861333334 0.23969617371079607 0.06469612321137092 0.19098542336000002 4.133855551016503 0.9377289333333337 -0.5567441252663491 0.3038603422065447 9.798828148998481 3.7537192166666666 3.947729333333333 4.083440633333334 29.31649745572633 0.6748904986509706 0.37010878928988067 3.236452175590659 1.9874902252816065</Array>
			</VectorInstance>
			<VectorInstance id="284">
				<Array type="real">3.7975043293333335 0.2455416926430363 0.08547668440251505 0.1975224327999999 3.8542887580542704 0.927833 0.47808277632703966 -0.6130926920919948 9.724379675746498 3.6038021666666666 3.7834072666666665 3.9332044666666675 2.8802101001867095 0.5607445659432917 1.9965528907334438 0.07602738703730977 0.9818741973135942</Array>
			</VectorInstance>
			<VectorInstance id="285">
				<Array type="real">4.078567730666667 0.685739114659349 0.5675373147420909 0.4458979271999997 4.251085055211724 3.567679866666667 -0.5875568038357583 2.534309022959518 9.747287593525463 3.8341643666666676 4.0802884 4.347042466666667 47.288384426201404 155.28615722672708 163.13570184559967 123.81320372584898 29.384126124963267</Array>
			</VectorInstance>
			<VectorInstance id="287">
				<Array type="real">4.045074457333334 1.39987299020542 2.252743742102948 1.0453411808000002 4.658617418832052 6.0919663333333345 0.11748216638654248 1.5241070898619007 10.042128063871141 3.446623033333333 3.9649676666666664 4.580357433333334 791.958602471129 125.95339539283817 24.794589508322023 55.629774093462125 48.066733222360384</Array>
			</VectorInstance>
			<VectorInstance id="288">
				<Array type="real">3.730875293333334 0.26767834415123953 0.08229976801343965 0.22237639402666673 3.930670764783775 1.033497 0.09469221684431368 -0.5090216871731551 9.786455921089434 3.5211224333333333 3.7281012666666666 3.92247055 10.344960756191822 0.5340860109329149 4.587154088375967 0.1700435631668137 0.245750723671197</Array>
			</VectorInstance>
			<VectorInstance id="451">
				<Array type="real">3.581569698666667 0.47271278544666023 0.28466539775921335 0.3968250542933333 3.864180100535162 1.7085022666666667 0.47991285778325404 -0.3412960292631831 9.56894059474319 3.213387800000001 3.4419941333333335 3.9180811 29.873596400509896 41.06718482434411 1.8816462070165363 1.6205752671929876 12.839848802108914</Array>
			</VectorInstance>
			<VectorInstance id="453">
				<Array type="real">4.809233362666667 0.2706733564154425 0.09636994563615554 0.21400635914666674 4.823498420830268 1.025675866666667 0.013432668112746682 1.0367666547648955 9.82328311824431 4.663116866666667 4.747712066666668 4.952615566666666 69.18418754882552 19.97089497140343 7.706873749791365 3.6757776690156723 1.2578419005617472</Array>
			</VectorInstance>
			<VectorInstance id="454">
				<Array type="real">3.6849481439999994 0.6450910827464139 0.5558427401837734 0.5558345376533335 4.016904617146532 2.045127133333333 0.21133457761781702 -0.9249638494225988 9.60892868375052 3.1819041000000006 3.5111068000000003 4.280403633333333 175.27321090438411 131.72297622469617 36.315344240435394 29.061191327103888 5.669662175703642</Array>
			</VectorInstance>
			<VectorInstance id="457">
				<Array type="real">4.662175144 0.23283805912896308 0.05708491938321151 0.19009644597333322 4.678085140872029 0.9354946666666665 -0.09882024616214174 -0.5540102081512011 9.733950923865537 4.47561095 4.691368466666668 4.816305866666667 1.4539156956636208 4.526267515463437 0.8836987497167728 1.4526099998244475 3.029317709794163</Array>
			</VectorInstance>
			<VectorInstance id="458">
				<Array type="real">3.710380981333335 0.5660202448702555 0.45599369516398186 0.4524826601066667 3.9028509109746943 2.1709022666666664 0.33077123975619654 -0.45638599532584995 9.66701096987269 3.282899466666667 3.6379995000000007 4.028733233333334 490.9764537559202 14.563914769576918 20.492784869431116 35.3835178113773 11.962950698474337</Array>
			</VectorInstance>
			<VectorInstance id="460">
				<Array type="real">4.980367696000001 0.4346887384177876 0.24601379632135553 0.32898347221333324 5.009838331471161 2.0202275999999997 0.6092762142265781 1.819645238685383 9.969336005033352 4.679197916666666 4.889608266666667 5.198141133333333 4.99865380295582 62.917653687323316 53.63524933709871 47.4218065116027 7.641881030392654</Array>
			</VectorInstance>
			<VectorInstance id="461">
				<Array type="real">4.631475038666667 0.2828766212679668 0.08823535225416422 0.22897681071999973 4.654340479867373 1.0786674000000003 -0.3992995556742267 0.24169033087370875 9.714031302759976 4.452347416666666 4.6909692666666665 4.826441133333334 19.898517599835987 4.452063761809953 6.173433106543738 2.260192408980264 1.1665412581439216</Array>
			</VectorInstance>
			<VectorInstance id="462">
				<Array type="real">3.697832132 0.4644665202357525 0.2816386167549736 0.3758992787733333 3.853632242277134 1.864125466666666 0.25842170494782835 0.9715815964979182 9.632369206018312 3.3661776499999996 3.5621032333333336 3.9253834333333333 134.38705124074895 11.513086197628065 5.4547939421209986 2.347261373918575 3.363085054518667</Array>
			</VectorInstance>
			<VectorInstance id="465">
				<Array type="real">4.630957853333334 0.12887178711271588 0.016767687876011038 0.10383453770666673 4.634253229457582 0.5302358000000008 0.18689673027701328 -0.5113099437981337 9.703438478071078 4.531316033333334 4.630874933333334 4.713554483333334 2.4627557127995985 0.8711061117199728 2.18356262337708 0.7583429554661913 0.028187031514447434</Array>
			</VectorInstance>
			<VectorInstance id="467">
				<Array type="real">3.596643618666668 0.16846266436222324 0.030786106859694923 0.12820563269333343 3.6699428668382996 0.7201757999999998 0.4272456956871539 0.13826131780477624 9.632376426765832 3.497659366666667 3.5747126666666666 3.6691640000000003 18.905478431429724 14.506302593015675 5.757242693435238 2.5293833668215324 1.3913534419221385</Array>
			</VectorInstance>
			<VectorInstance id="470">
				<Array type="real">4.714710268 0.1486207684395551 0.025604834326355023 0.1185070008533332 4.718698783256966 0.6592035999999992 0.5073297292390097 -0.10566211718027703 9.699358453434007 4.60824965 4.703498966666667 4.811796766666666 15.585887719298729 4.181622447330669 2.505536388700526 2.5443888542480484 1.6594141106355833</Array>
			</VectorInstance>
			<VectorInstance id="471">
				<Array type="real">4.727310092000001 0.06894437088795263 0.004884772972889739 0.05666351957333332 4.728439685610758 0.2839522000000001 0.16477542183592095 -0.5795667036004102 9.756550706090604 4.6764046 4.7253660333333345 4.7712149 0.6479470724568042 0.17575853507792114 0.03392510188487724 0.05859967483690709 0.058571381623192954</Array>
			</VectorInstance>
			<VectorInstance id="472">
				<Array type="real">4.686749164000001 0.11464184468943737 0.013485097708553042 0.09184198112000024 4.689606621547302 0.44500233333333333 0.24779023341368825 -0.3596274755697917 9.747186828721919 4.617546983333335 4.664154266666666 4.7595632666666665 6.777534274086654 1.20970987133353 1.1634433396010802 0.535366802630809 0.27331394766506756</Array>
			</VectorInstance>
			<VectorInstance id="473">
				<Array type="real">4.504342929333333 0.19395088916995631 0.03971491470195918 0.15267369781333331 4.5143635938301925 0.7672618000000003 0.3635306973894523 -0.17793668936028237 9.729240557424774 4.373298733333335 4.4778853 4.6217768 8.493415831686214 0.530351835215883 2.4041637273826173 9.487145020220469 1.8583689170555016</Array>
			</VectorInstance>
			<VectorInstance id="474">
				<Array type="real">3.993046789333333 0.42600151881433695 0.2411244901663677 0.37345028560000015 4.160191617836641 1.2994129333333333 -0.11165072770587914 -1.2065923769847275 9.656225999237398 3.6102665999999997 4.117797366666667 4.339859683333333 119.72974413249948 23.176907354704095 9.087866997139008 7.480196512278559 3.075624193792182</Array>
			</VectorInstance>
			<VectorInstance id="475">
				<Array type="real">3.4916403480000002 0.45486024505386985 0.2662581199257417 0.2798252680533333 3.753131468006066 2.1710621333333333 -0.36192898053803885 4.648512583944054 9.572961795977385 3.3371280999999997 3.509351133333334 3.6996103500000004 2.4490327765042954 0.24365068871008821 1.635300844154296 1.0031113551403463 0.15232471157271937</Array>
			</VectorInstance>
			<VectorInstance id="476">
				<Array type="real">3.7815940680000004 0.41840562465211195 0.23427133270718933 0.25013979951999993 3.8875797602125672 2.3466368 -1.2089120195435148 4.077670625866176 9.583339061554348 3.7143345666666665 3.8230712000000007 3.9501234833333343 5.1257282770435175 3.0494638634839957 0.7449809372651038 1.8982456136553822 3.9441104287338806</Array>
			</VectorInstance>
			<VectorInstance id="515">
				<Array type="real">3.521344362666667 1.1074828285062803 1.423581116815053 0.9193386664533332 3.990038535832898 4.099990466666667 -0.383945249322965 -0.663182104639128 9.2397379692462 2.74216885 3.737358833333334 4.488619316666667 305.9132611284523 57.58694511821241 23.879621403990413 8.441418888085757 15.029130146448146</Array>
			</VectorInstance>
			<VectorInstance id="516">
				<Array type="real">3.878830554666667 1.3468869819875984 2.2030812128225405 1.1013605492799998 4.368548785448296 5.013617933333333 -0.820445574138572 -0.14195748779016526 9.775390287056076 3.0626729666666663 4.2347142 4.931147633333334 227.6973473450381 101.69266530452813 57.192221327340874 20.93930947905049 19.10992792323013</Array>
			</VectorInstance>
			<VectorInstance id="517">
				<Array type="real">3.5213539466666677 0.9456181971417704 0.9171244186264252 0.7198706870933335 5.48043077238317 4.1299980000000005 0.01078978136388331 0.6262054402911463 10.492640718765683 3.0018202499999993 3.4617063666666668 4.102674183333333 318.2976873650753 268.9294001102094 236.16524521452587 223.045834583577 107.81052023670608</Array>
			</VectorInstance>
			<VectorInstance id="518">
				<Array type="real">3.748857397333335 0.685240586429312 0.53941891232726 0.5606317477333332 3.9655614160613237 2.6050512000000006 -0.6703254455071219 0.09971265029897403 9.701561168260028 3.3133857500000006 3.860740033333333 4.194571483333333 14.492666011372311 26.40323106138953 17.525843356678287 2.8577642697354744 6.783713100212526</Array>
			</VectorInstance>
			<VectorInstance id="519">
				<Array type="real">3.265621298666666 0.864547256110793 0.9628465819237163 0.7293259506133337 3.800774259194117 2.8861304666666663 -0.34812553521100437 -0.7029773870380449 9.20683103409746 2.576530216666667 3.251814566666667 3.974305016666667 150.79691210677254 1.6724867537794506 29.88569980745372 14.639946306714476 10.933749016829484</Array>
			</VectorInstance>
			<VectorInstance id="522">
				<Array type="real">3.235045681333333 0.8560801755093502 0.8588326622156357 0.7156589278399998 3.796203096448011 2.845109666666667 -0.5672153011618492 -0.6828130438927026 9.536495199484065 2.666751516666667 3.4207654333333335 3.9313688166666663 20.148255549642176 13.067517984967074 5.227293152797868 8.27326407896561 13.739929841004306</Array>
			</VectorInstance>
			<VectorInstance id="525">
				<Array type="real">3.585694150666667 1.145647585518812 1.439893781229981 0.91943501472 4.954538163515168 4.655764666666667 -0.7533675692277865 0.6096309893757831 9.994455649113652 2.80808935 3.7349646333333335 4.475650783333333 276.396630997966 278.9641748037545 218.01608515538547 127.86913033967502 6.499180315024229</Array>
			</VectorInstance>
			<VectorInstance id="526">
				<Array type="real">3.534838117333335 0.6083844830915109 0.4065755888799196 0.4960121851199995 3.809357633627323 2.1945252666666666 -1.1378829147458327 0.47367130511456673 9.840685213688266 3.1569644500000003 3.767765266666667 3.974743966666667 13.286642703954655 5.75138361841795 10.431787644378552 13.38596231285197 7.120363416423607</Array>
			</VectorInstance>
			<VectorInstance id="527">
				<Array type="real">3.3658298386666665 0.8601828684816448 0.84298073320057 0.7631210894933336 3.8740251616090435 2.757322466666667 -0.3180240612023895 -1.2978008028521606 9.544323670544506 2.6037840833333337 3.609907433333334 4.095012850000001 68.37743152253293 12.72650397885322 16.100439942555372 8.108708415394583 7.065129864582715</Array>
			</VectorInstance>
			<VectorInstance id="529">
				<Array type="real">3.17719222 0.9806505397070824 0.9871665799852521 0.8125732963200001 5.271914314942481 3.816676733333333 -0.3338152620315122 -0.6076153360323381 9.99877181019162 2.5076569 3.317894733333333 3.8606602666666667 473.89254921421826 128.7050150744213 290.80926182538076 8.262850424511988 114.27759784009737</Array>
			</VectorInstance>
			<VectorInstance id="530">
				<Array type="real">3.680488592 0.5876166792559544 0.35321159034072913 0.48136860165333334 3.863255317101393 2.171221666666668 -0.03024209069458324 -0.3859404593041143 9.580025433744423 3.3395622333333335 3.6328121 4.220109850000001 43.40848177961854 1.6914505063631973 7.260150041847369 20.31414119651637 6.994125625254497</Array>
			</VectorInstance>
			<VectorInstance id="531">
				<Array type="real">2.8622206533333334 0.6793615092137401 0.49379293707608435 0.5794414981333335 3.662931803691265 2.2414514666666663 -0.4005377376504789 -1.0438807572947033 9.474622755005328 2.2440951666666673 3.0088032666666664 3.3585563000000005 74.9468527402051 1.4043785524742358 0.14520806817497103 6.985831088648236 2.5432753230610636</Array>
			</VectorInstance>
			<VectorInstance id="532">
				<Array type="real">4.049549969333333 0.6162073280674866 0.5052779559885093 0.5235065604266668 4.18834587576264 2.2360246000000004 -0.5704801590895525 -0.6233254568708092 9.777705497177037 3.5493740833333334 4.2311231000000005 4.51794835 39.18123497437556 2.2908704330255727 8.47608293092862 5.433476286169979 8.663782890366624</Array>
			</VectorInstance>
			<VectorInstance id="533">
				<Array type="real">3.4880905106666673 0.9277409858095554 0.9373458762248839 0.7317815778133335 5.265272141368645 3.845247533333333 0.1202993445547661 -0.03813161218587228 9.954852877273634 2.795958666666667 3.510228866666667 4.15670335 155.80123368557827 8.882763005408936 45.61890840082728 35.573600171777365 10.773586524589076</Array>
			</VectorInstance>
			<VectorInstance id="534">
